{"learner":{"attributes":{"best_iteration":"62","best_score":"3.8892496533451366","scikit_learn":"{\"_estimator_type\": \"regressor\"}"},"feature_names":["produccion_mes_anterior","produccion_promedio_3m","mes","trimestre"],"feature_types":["float","float","int","int"],"gradient_booster":{"model":{"gbtree_model_param":{"num_parallel_tree":"1","num_trees":"68"},"iteration_indptr":[0,1,2,3,4,5,6,7,8,9,10,11,12,13,14,15,16,17,18,19,20,21,22,23,24,25,26,27,28,29,30,31,32,33,34,35,36,37,38,39,40,41,42,43,44,45,46,47,48,49,50,51,52,53,54,55,56,57,58,59,60,61,62,63,64,65,66,67,68],"tree_info":[0,0,0,0,0,0,0,0,0,0,0,0,0,0,0,0,0,0,0,0,0,0,0,0,0,0,0,0,0,0,0,0,0,0,0,0,0,0,0,0,0,0,0,0,0,0,0,0,0,0,0,0,0,0,0,0,0,0,0,0,0,0,0,0,0,0,0,0],"trees":[{"base_weights":[-6.6535415E-7,-3.2009132E1,1.8623495E1,-1.9830288E0,-2.3854647E1,7.1195397E0,2.5519482E1,-1.2742302E0,-3.6050004E-1,5.685467E-1,5.411177E-1,7.839548E-1,1.3534083E0,-2.0151596E0,2.1962597E0,-1.5476246E-1,-3.1169001E-2,1.24179386E-1,1.8990517E-2],"categories":[],"categories_nodes":[],"categories_segments":[],"categories_sizes":[],"default_left":[0,0,0,0,0,0,0,0,0,0,0,0,0,0,0,0,0,0,0],"id":0,"left_children":[1,3,5,-1,7,9,11,-1,-1,13,-1,-1,-1,15,17,-1,-1,-1,-1],"loss_changes":[5.1862613E4,1.0505E3,4.1815254E3,0E0,3.0459668E2,5.275033E2,9.374219E1,0E0,0E0,4.2275604E1,0E0,0E0,0E0,4.0834694E0,2.1882057E0,0E0,0E0,0E0,0E0],"parents":[2147483647,0,0,1,1,2,2,4,4,5,5,6,6,9,9,13,13,14,14],"right_children":[2,4,6,-1,8,10,12,-1,-1,14,-1,-1,-1,16,18,-1,-1,-1,-1],"split_conditions":[5.777197E1,3.4373947E1,8.296301E1,-1.9830288E0,4.806501E1,7.208314E1,8.734476E1,-1.2742302E0,-3.6050004E-1,6.690918E1,5.411177E-1,7.839548E-1,1.3534083E0,6.129373E1,7.128439E1,-1.5476246E-1,-3.1169001E-2,1.24179386E-1,1.8990517E-2],"split_indices":[0,1,0,0,0,0,1,0,0,0,0,0,0,0,0,0,0,0,0],"split_type":[0,0,0,0,0,0,0,0,0,0,0,0,0,0,0,0,0,0,0],"sum_hessian":[8.5E1,3.1E1,5.4E1,1.4E1,1.7E1,2.1E1,3.3E1,1.5E1,2E0,8E0,1.3E1,6E0,2.7E1,3E0,5E0,1E0,2E0,4E0,1E0],"tree_param":{"num_deleted":"0","num_feature":"4","num_nodes":"19","size_leaf_vector":"1"}},{"base_weights":[-1.1418941E-2,-3.052173E1,1.7740242E1,-1.8904873E0,-2.2752733E1,6.786217E0,2.430637E1,-1.2145007E0,-3.4848347E-1,5.3536904E-1,5.159945E-1,9.6994704E-1,1.4036343E0,-1.960886E0,2.1103108E0,-1.508934E-1,-3.0130133E-2,1.19212344E-1,1.8515779E-2],"categories":[],"categories_nodes":[],"categories_segments":[],"categories_sizes":[],"default_left":[0,0,0,0,0,0,0,0,0,0,0,0,0,0,0,0,0,0,0],"id":1,"left_children":[1,3,5,-1,7,9,11,-1,-1,13,-1,-1,-1,15,17,-1,-1,-1,-1],"loss_changes":[4.7119816E4,9.51584E2,3.790955E3,0E0,2.6743945E2,4.8042102E2,8.383984E1,0E0,0E0,3.952119E1,0E0,0E0,0E0,3.9241495E0,1.9769611E0,0E0,0E0,0E0,0E0],"parents":[2147483647,0,0,1,1,2,2,4,4,5,5,6,6,9,9,13,13,14,14],"right_children":[2,4,6,-1,8,10,12,-1,-1,14,-1,-1,-1,16,18,-1,-1,-1,-1],"split_conditions":[5.777197E1,3.4373947E1,8.296301E1,-1.8904873E0,4.806501E1,7.208314E1,9.253734E1,-1.2145007E0,-3.4848347E-1,6.690918E1,5.159945E-1,9.6994704E-1,1.4036343E0,6.129373E1,7.128439E1,-1.508934E-1,-3.0130133E-2,1.19212344E-1,1.8515779E-2],"split_indices":[0,1,0,0,0,0,1,0,0,0,0,0,0,0,0,0,0,0,0],"split_type":[0,0,0,0,0,0,0,0,0,0,0,0,0,0,0,0,0,0,0],"sum_hessian":[8.5E1,3.1E1,5.4E1,1.4E1,1.7E1,2.1E1,3.3E1,1.5E1,2E0,8E0,1.3E1,1.7E1,1.6E1,3E0,5E0,1E0,2E0,4E0,1E0],"tree_param":{"num_deleted":"0","num_feature":"4","num_nodes":"19","size_leaf_vector":"1"}},{"base_weights":[-1.7907763E-2,-2.8399967E1,1.7327017E1,-3.0833502E1,-4.3027377E-1,8.408096E0,1.2090942E0,-1.8022646E0,-1.1783073E0,1.8102145E0,5.703249E-1,-2.9125849E-2,2.5770688E0,1.5621979E0,1.7047487E-1,1.08231105E-1,2.1952057E-2],"categories":[],"categories_nodes":[],"categories_segments":[],"categories_sizes":[],"default_left":[0,0,0,0,0,0,0,0,0,0,0,0,0,0,0,0,0],"id":2,"left_children":[1,3,5,7,-1,9,-1,-1,-1,11,-1,-1,13,15,-1,-1,-1],"loss_changes":[4.2828566E4,1.324293E3,3.098129E3,2.4895508E2,0E0,4.7392932E2,0E0,0E0,0E0,1.8015074E1,0E0,0E0,5.873451E-1,2.432726E0,0E0,0E0,0E0],"parents":[2147483647,0,0,1,1,2,2,3,3,5,5,9,9,12,12,13,13],"right_children":[2,4,6,8,-1,10,-1,-1,-1,12,-1,-1,14,16,-1,-1,-1],"split_conditions":[6.129373E1,4.3695652E1,8.631539E1,3.4373947E1,-4.3027377E-1,7.441431E1,1.2090942E0,-1.8022646E0,-1.1783073E0,6.690918E1,5.703249E-1,-2.9125849E-2,5E0,3E0,1.7047487E-1,1.08231105E-1,2.1952057E-2],"split_indices":[0,1,1,1,0,0,0,0,0,0,0,0,2,2,0,0,0],"split_type":[0,0,0,0,0,0,0,0,0,0,0,0,0,0,0,0,0],"sum_hessian":[8.5E1,3.2E1,5.3E1,2.8E1,4E0,2.4E1,2.9E1,1.4E1,1.4E1,8E0,1.6E1,2E0,6E0,4E0,2E0,2E0,2E0],"tree_param":{"num_deleted":"0","num_feature":"4","num_nodes":"17","size_leaf_vector":"1"}},{"base_weights":[-3.2824405E-2,-2.7759228E1,1.6099497E1,-1.6386479E0,-1.8972078E1,6.1521816E0,2.206248E1,-1.0260733E0,-3.2252496E-1,5.1020217E-1,4.6698633E-1,8.741453E-1,1.2806824E0,-1.785965E0,1.9559466E0,-1.3636418E-1,-2.8154884E-2,1.1035515E-1,1.750412E-2],"categories":[],"categories_nodes":[],"categories_segments":[],"categories_sizes":[],"default_left":[0,0,0,0,0,0,0,0,0,0,0,0,0,0,0,0,0,0,0],"id":3,"left_children":[1,3,5,-1,7,9,11,-1,-1,13,-1,-1,-1,15,17,-1,-1,-1,-1],"loss_changes":[3.8913957E4,7.8803125E2,3.1266309E3,0E0,1.392373E2,3.9088422E2,1.0513672E2,0E0,0E0,3.337029E1,0E0,0E0,0E0,3.0687037E0,1.6472702E0,0E0,0E0,0E0,0E0],"parents":[2147483647,0,0,1,1,2,2,4,4,5,5,6,6,9,9,13,13,14,14],"right_children":[2,4,6,-1,8,10,12,-1,-1,14,-1,-1,-1,16,18,-1,-1,-1,-1],"split_conditions":[5.777197E1,3.8230007E1,8.296301E1,-1.6386479E0,4.806501E1,7.208314E1,9.253734E1,-1.0260733E0,-3.2252496E-1,6.690918E1,4.6698633E-1,8.741453E-1,1.2806824E0,6.129373E1,7.128439E1,-1.3636418E-1,-2.8154884E-2,1.1035515E-1,1.750412E-2],"split_indices":[0,1,0,0,0,0,1,0,0,0,0,0,0,0,0,0,0,0,0],"split_type":[0,0,0,0,0,0,0,0,0,0,0,0,0,0,0,0,0,0,0],"sum_hessian":[8.5E1,3.1E1,5.4E1,1.8E1,1.3E1,2.1E1,3.3E1,1.1E1,2E0,8E0,1.3E1,1.7E1,1.6E1,3E0,5E0,1E0,2E0,4E0,1E0],"tree_param":{"num_deleted":"0","num_feature":"4","num_nodes":"19","size_leaf_vector":"1"}},{"base_weights":[-3.5858996E-2,-2.5823816E1,1.57241125E1,-2.8023695E1,-3.9498788E-1,7.6225634E0,1.0975633E0,-1.7119623E0,-1.116156E0,1.653255E0,5.1672E-1,-2.7216468E-2,2.3588977E0,1.4404144E0,1.5517019E-1,1.0094503E-1,1.9089509E-2],"categories":[],"categories_nodes":[],"categories_segments":[],"categories_sizes":[],"default_left":[0,0,0,0,0,0,0,0,0,0,0,0,0,0,0,0,0],"id":4,"left_children":[1,3,5,7,-1,9,-1,-1,-1,11,-1,-1,13,15,-1,-1,-1],"loss_changes":[3.535796E4,1.079834E3,2.5569521E3,2.6320703E2,0E0,3.8760913E2,0E0,0E0,0E0,1.5240395E1,0E0,0E0,3.1652832E-1,2.2912016E0,0E0,0E0,0E0],"parents":[2147483647,0,0,1,1,2,2,3,3,5,5,9,9,12,12,13,13],"right_children":[2,4,6,8,-1,10,-1,-1,-1,12,-1,-1,14,16,-1,-1,-1],"split_conditions":[6.129373E1,4.3695652E1,8.631539E1,3.0441994E1,-3.9498788E-1,7.441431E1,1.0975633E0,-1.7119623E0,-1.116156E0,6.690918E1,5.1672E-1,-2.7216468E-2,5E0,3E0,1.5517019E-1,1.0094503E-1,1.9089509E-2],"split_indices":[0,1,1,1,0,0,0,0,0,0,0,0,2,2,0,0,0],"split_type":[0,0,0,0,0,0,0,0,0,0,0,0,0,0,0,0,0],"sum_hessian":[8.5E1,3.2E1,5.3E1,2.8E1,4E0,2.4E1,2.9E1,1.1E1,1.7E1,8E0,1.6E1,2E0,6E0,4E0,2E0,2E0,2E0],"tree_param":{"num_deleted":"0","num_feature":"4","num_nodes":"17","size_leaf_vector":"1"}},{"base_weights":[-4.9890295E-2,-2.524614E1,1.4610653E1,-1.5677551E0,-1.8752777E1,5.5776935E0,2.0025784E1,-9.9885476E-1,-2.9860783E-1,4.8664093E-1,8.4521055E0,7.874906E-1,1.168765E0,-1.6254425E0,1.8135897E0,1.8026505E-1,4.4797325E-1,-1.2308025E-1,-2.6309332E-2,1.0217965E-1,1.6589357E-2],"categories":[],"categories_nodes":[],"categories_segments":[],"categories_sizes":[],"default_left":[0,0,0,0,0,0,0,0,0,0,0,0,0,0,0,0,0,0,0,0,0],"id":5,"left_children":[1,3,5,-1,7,9,11,-1,-1,13,15,-1,-1,17,19,-1,-1,-1,-1,-1,-1],"loss_changes":[3.2136465E4,6.813711E2,2.5786084E3,0E0,1.6234912E2,3.1783008E2,1.18805664E2,0E0,0E0,2.8171524E1,2.1254272E0,0E0,0E0,2.381363E0,1.3668785E0,0E0,0E0,0E0,0E0,0E0,0E0],"parents":[2147483647,0,0,1,1,2,2,4,4,5,5,6,6,9,9,10,10,13,13,14,14],"right_children":[2,4,6,-1,8,10,12,-1,-1,14,16,-1,-1,18,20,-1,-1,-1,-1,-1,-1],"split_conditions":[5.777197E1,3.4373947E1,8.296301E1,-1.5677551E0,4.806501E1,7.208314E1,9.253734E1,-9.9885476E-1,-2.9860783E-1,6.690918E1,7.583093E1,7.874906E-1,1.168765E0,6.129373E1,7.128439E1,1.8026505E-1,4.4797325E-1,-1.2308025E-1,-2.6309332E-2,1.0217965E-1,1.6589357E-2],"split_indices":[0,1,0,0,0,0,1,0,0,0,0,0,0,0,0,0,0,0,0,0,0],"split_type":[0,0,0,0,0,0,0,0,0,0,0,0,0,0,0,0,0,0,0,0,0],"sum_hessian":[8.5E1,3.1E1,5.4E1,1.4E1,1.7E1,2.1E1,3.3E1,1.5E1,2E0,8E0,1.3E1,1.7E1,1.6E1,3E0,5E0,2E0,1.1E1,1E0,2E0,4E0,1E0],"tree_param":{"num_deleted":"0","num_feature":"4","num_nodes":"21","size_leaf_vector":"1"}},{"base_weights":[-5.101563E-2,-2.407337E1,1.3926555E1,-1.494593E0,-1.7887218E1,4.2902794E0,1.8498518E1,-9.5203334E-1,-2.8865427E-1,4.5890555E-1,3.5175073E-1,6.446287E-1,1.0498941E0,-1.5815201E0,1.742705E0,-1.2000332E-1,-2.5432458E-2,9.809243E-2,1.6174698E-2],"categories":[],"categories_nodes":[],"categories_segments":[],"categories_sizes":[],"default_left":[0,0,0,0,0,0,0,0,0,0,0,0,0,0,0,0,0,0,0],"id":6,"left_children":[1,3,5,-1,7,9,11,-1,-1,13,-1,-1,-1,15,17,-1,-1,-1,-1],"loss_changes":[2.9211834E4,6.1712695E2,2.343755E3,0E0,1.4159082E2,1.965776E2,2.4770117E2,0E0,0E0,2.6331598E1,0E0,0E0,0E0,2.2919865E0,1.2314205E0,0E0,0E0,0E0,0E0],"parents":[2147483647,0,0,1,1,2,2,4,4,5,5,6,6,9,9,13,13,14,14],"right_children":[2,4,6,-1,8,10,12,-1,-1,14,-1,-1,-1,16,18,-1,-1,-1,-1],"split_conditions":[5.777197E1,3.4373947E1,8.041516E1,-1.494593E0,4.806501E1,7.208314E1,8.974788E1,-9.5203334E-1,-2.8865427E-1,6.690918E1,3.5175073E-1,6.446287E-1,1.0498941E0,6.129373E1,7.128439E1,-1.2000332E-1,-2.5432458E-2,9.809243E-2,1.6174698E-2],"split_indices":[0,1,0,0,0,0,1,0,0,0,0,0,0,0,0,0,0,0,0],"split_type":[0,0,0,0,0,0,0,0,0,0,0,0,0,0,0,0,0,0,0],"sum_hessian":[8.5E1,3.1E1,5.4E1,1.4E1,1.7E1,1.8E1,3.6E1,1.5E1,2E0,8E0,1E1,1.3E1,2.3E1,3E0,5E0,1E0,2E0,4E0,1E0],"tree_param":{"num_deleted":"0","num_feature":"4","num_nodes":"19","size_leaf_vector":"1"}},{"base_weights":[-5.68399E-2,-2.2401388E1,1.3599215E1,-1.3149278E0,-1.3389801E1,6.5840797E0,9.495927E-1,-7.736418E-1,-2.6777607E-1,1.8324463E0,4.571173E-1,-2.4584835E-2,2.474944E0,1.265686E0,1.6838904E-1,9.09045E-2,1.4569347E-2],"categories":[],"categories_nodes":[],"categories_segments":[],"categories_sizes":[],"default_left":[0,0,0,0,0,0,0,0,0,0,0,0,0,0,0,0,0],"id":7,"left_children":[1,3,5,-1,7,9,-1,-1,-1,11,-1,-1,13,15,-1,-1,-1],"loss_changes":[2.6546543E4,8.0681445E2,1.9177822E3,0E0,1.17963135E2,2.8714575E2,0E0,0E0,0E0,1.614949E1,0E0,0E0,4.3748055E0,2.1612644E0,0E0,0E0,0E0],"parents":[2147483647,0,0,1,1,2,2,4,4,5,5,9,9,12,12,13,13],"right_children":[2,4,6,-1,8,10,-1,-1,-1,12,-1,-1,14,16,-1,-1,-1],"split_conditions":[6.129373E1,3.9126457E1,8.631539E1,-1.3149278E0,4.806501E1,7.583093E1,9.495927E-1,-7.736418E-1,-2.6777607E-1,6.690918E1,4.571173E-1,-2.4584835E-2,5E0,3E0,1.6838904E-1,9.09045E-2,1.4569347E-2],"split_indices":[0,1,1,0,0,0,0,0,0,0,0,0,2,2,0,0,0],"split_type":[0,0,0,0,0,0,0,0,0,0,0,0,0,0,0,0,0],"sum_hessian":[8.5E1,3.2E1,5.3E1,2.1E1,1.1E1,2.4E1,2.9E1,8E0,3E0,9E0,1.5E1,2E0,7E0,4E0,3E0,2E0,2E0],"tree_param":{"num_deleted":"0","num_feature":"4","num_nodes":"17","size_leaf_vector":"1"}},{"base_weights":[-6.214153E-2,-2.1352724E1,1.2949921E1,-2.3160915E1,-3.2973373E-1,6.2831326E0,1.8073914E1,-1.4328722E0,-9.1049236E-1,1.7657509E0,4.3569002E-1,7.504457E-1,1.100178E0,-2.3765437E-2,2.3854294E0,1.2234955E0,1.6207448E-1,8.7874345E-2,1.4083608E-2],"categories":[],"categories_nodes":[],"categories_segments":[],"categories_sizes":[],"default_left":[0,0,0,0,0,0,0,0,0,0,0,0,0,0,0,0,0,0,0],"id":8,"left_children":[1,3,5,7,-1,9,11,-1,-1,13,-1,-1,-1,-1,15,17,-1,-1,-1],"loss_changes":[2.4101475E4,7.278779E2,1.7311113E3,2.6734863E2,0E0,2.5911987E2,3.1081055E1,0E0,0E0,1.5021177E1,0E0,0E0,0E0,0E0,3.9915352E0,2.0195932E0,0E0,0E0,0E0],"parents":[2147483647,0,0,1,1,2,2,3,3,5,5,6,6,9,9,14,14,15,15],"right_children":[2,4,6,8,-1,10,12,-1,-1,14,-1,-1,-1,-1,16,18,-1,-1,-1],"split_conditions":[6.129373E1,4.3695652E1,8.631539E1,3.0441994E1,-3.2973373E-1,7.583093E1,9.593481E1,-1.4328722E0,-9.1049236E-1,6.690918E1,4.3569002E-1,7.504457E-1,1.100178E0,-2.3765437E-2,5E0,3E0,1.6207448E-1,8.7874345E-2,1.4083608E-2],"split_indices":[0,1,1,1,0,0,1,0,0,0,0,0,0,0,2,2,0,0,0],"split_type":[0,0,0,0,0,0,0,0,0,0,0,0,0,0,0,0,0,0,0],"sum_hessian":[8.5E1,3.2E1,5.3E1,2.8E1,4E0,2.4E1,2.9E1,1.1E1,1.7E1,9E0,1.5E1,1.9E1,1E1,2E0,7E0,4E0,3E0,2E0,2E0],"tree_param":{"num_deleted":"0","num_feature":"4","num_nodes":"19","size_leaf_vector":"1"}},{"base_weights":[-6.0737986E-2,-2.087495E1,1.2050453E1,-1.3671988E0,-1.6184319E1,3.6792421E0,1.6023495E1,-8.534835E-1,-2.5911555E-1,4.268163E-1,3.0029207E-1,6.2306136E-1,9.740693E-1,-1.3652534E0,1.5503935E0,-1.0206547E-1,-2.2973252E-2,8.700203E-2,1.505394E-2],"categories":[],"categories_nodes":[],"categories_segments":[],"categories_sizes":[],"default_left":[0,0,0,0,0,0,0,0,0,0,0,0,0,0,0,0,0,0,0],"id":9,"left_children":[1,3,5,-1,7,9,11,-1,-1,13,-1,-1,-1,15,17,-1,-1,-1,-1],"loss_changes":[2.1930855E4,5.28458E2,1.7702998E3,0E0,1.1609375E2,1.412114E2,2.1300098E2,0E0,0E0,2.0238438E1,0E0,0E0,0E0,1.5115447E0,8.97686E-1,0E0,0E0,0E0,0E0],"parents":[2147483647,0,0,1,1,2,2,4,4,5,5,6,6,9,9,13,13,14,14],"right_children":[2,4,6,-1,8,10,12,-1,-1,14,-1,-1,-1,16,18,-1,-1,-1,-1],"split_conditions":[5.777197E1,3.0441994E1,8.041516E1,-1.3671988E0,4.806501E1,7.208314E1,9.253734E1,-8.534835E-1,-2.5911555E-1,6.690918E1,3.0029207E-1,6.2306136E-1,9.740693E-1,6.129373E1,7.128439E1,-1.0206547E-1,-2.2973252E-2,8.700203E-2,1.505394E-2],"split_indices":[0,1,0,0,0,0,1,0,0,0,0,0,0,0,0,0,0,0,0],"split_type":[0,0,0,0,0,0,0,0,0,0,0,0,0,0,0,0,0,0,0],"sum_hessian":[8.5E1,3.1E1,5.4E1,1.1E1,2E1,1.8E1,3.6E1,1.8E1,2E0,8E0,1E1,2E1,1.6E1,3E0,5E0,1E0,2E0,4E0,1E0],"tree_param":{"num_deleted":"0","num_feature":"4","num_nodes":"19","size_leaf_vector":"1"}},{"base_weights":[-6.4739935E-2,-1.9908695E1,1.1482011E1,-1.3045355E0,-1.54280815E1,4.3573713E0,1.5754366E1,-8.1305534E-1,-2.504783E-1,4.029202E-1,6.5882773E0,1.3097991E1,1.005894E0,-1.3282509E0,1.4898809E0,1.4150594E-1,3.4893972E-1,6.666625E-1,1.9217567E-1,-9.951382E-2,-2.2207515E-2,1.6704361E0,1.46776205E-2,3.7986502E-2,1.0121651E-1],"categories":[],"categories_nodes":[],"categories_segments":[],"categories_sizes":[],"default_left":[0,0,0,0,0,0,0,0,0,0,0,0,0,0,0,0,0,0,0,0,0,0,0,0,0],"id":10,"left_children":[1,3,5,-1,7,9,11,-1,-1,13,15,17,-1,19,21,-1,-1,-1,-1,-1,-1,23,-1,-1,-1],"loss_changes":[1.9934047E4,4.8384473E2,1.6054976E3,0E0,1.0079541E2,1.9142975E2,1.3059375E2,0E0,0E0,1.891437E1,7.9589844E-1,1.0063477E0,0E0,1.4572072E0,8.0566025E-1,0E0,0E0,0E0,0E0,0E0,0E0,7.352352E-2,0E0,0E0,0E0],"parents":[2147483647,0,0,1,1,2,2,4,4,5,5,6,6,9,9,10,10,11,11,13,13,14,14,21,21],"right_children":[2,4,6,-1,8,10,12,-1,-1,14,16,18,-1,20,22,-1,-1,-1,-1,-1,-1,24,-1,-1,-1],"split_conditions":[5.777197E1,3.0441994E1,8.296301E1,-1.3045355E0,4.806501E1,7.208314E1,9.593481E1,-8.1305534E-1,-2.504783E-1,6.690918E1,7.583093E1,9.994227E1,1.005894E0,6.129373E1,7.128439E1,1.4150594E-1,3.4893972E-1,6.666625E-1,1.9217567E-1,-9.951382E-2,-2.2207515E-2,6.8322624E1,1.46776205E-2,3.7986502E-2,1.0121651E-1],"split_indices":[0,1,0,0,0,0,1,0,0,0,0,0,0,0,0,0,0,0,0,0,0,0,0,0,0],"split_type":[0,0,0,0,0,0,0,0,0,0,0,0,0,0,0,0,0,0,0,0,0,0,0,0,0],"sum_hessian":[8.5E1,3.1E1,5.4E1,1.1E1,2E1,2.1E1,3.3E1,1.8E1,2E0,8E0,1.3E1,2.3E1,1E1,3E0,5E0,2E0,1.1E1,2.2E1,1E0,1E0,2E0,4E0,1E0,2E0,2E0],"tree_param":{"num_deleted":"0","num_feature":"4","num_nodes":"25","size_leaf_vector":"1"}},{"base_weights":[-6.1279297E-2,-1.8529497E1,1.1225988E1,-1.0909858E0,-1.0953304E1,5.407287E0,1.5700707E1,-6.069874E-1,-1.6736959E-1,1.2371368E0,7.2969384E0,1.3132062E1,9.762396E-1,-2.1467209E-2,1.7746092E0,2.0478141E-1,3.9834544E-1,6.7069614E-1,1.8737125E-1,7.344055E-1,1.0219047E-1,5.2837946E-2,2.24247E-3],"categories":[],"categories_nodes":[],"categories_segments":[],"categories_sizes":[],"default_left":[0,0,0,0,0,0,0,0,0,0,0,0,0,0,0,0,0,0,0,0,0,0,0],"id":11,"left_children":[1,3,5,-1,7,9,11,-1,-1,13,15,17,-1,-1,19,-1,-1,-1,-1,21,-1,-1,-1],"loss_changes":[1.8135205E4,5.836035E2,1.3211025E3,0E0,6.765137E1,1.8797595E2,3.8280273E1,0E0,0E0,8.823105E0,3.831726E0,5.2807617E0,0E0,0E0,4.5917702E-1,0E0,0E0,0E0,0E0,6.19447E-1,0E0,0E0,0E0],"parents":[2147483647,0,0,1,1,2,2,4,4,5,5,6,6,9,9,10,10,11,11,14,14,19,19],"right_children":[2,4,6,-1,8,10,12,-1,-1,14,16,18,-1,-1,20,-1,-1,-1,-1,22,-1,-1,-1],"split_conditions":[6.129373E1,3.9126457E1,8.631539E1,-1.0909858E0,5.556649E1,7.441431E1,9.753094E1,-6.069874E-1,-1.6736959E-1,6.690918E1,7.797459E1,9.994227E1,9.762396E-1,-2.1467209E-2,6.8322624E1,2.0478141E-1,3.9834544E-1,6.7069614E-1,1.8737125E-1,6.824385E1,1.0219047E-1,5.2837946E-2,2.24247E-3],"split_indices":[0,1,1,0,0,0,1,0,0,0,1,0,0,0,0,0,0,0,0,0,0,0,0],"split_type":[0,0,0,0,0,0,0,0,0,0,0,0,0,0,0,0,0,0,0,0,0,0,0],"sum_hessian":[8.5E1,3.2E1,5.3E1,2.1E1,1.1E1,2.4E1,2.9E1,9E0,2E0,8E0,1.6E1,2E1,9E0,2E0,6E0,4E0,1.2E1,1.9E1,1E0,2E0,4E0,1E0,1E0],"tree_param":{"num_deleted":"0","num_feature":"4","num_nodes":"23","size_leaf_vector":"1"}},{"base_weights":[-4.99838E-2,-1.765955E1,1.0712343E1,-1.1947409E0,-1.3455787E1,5.1664805E0,1.4976817E1,-7.466914E-1,-2.721842E-1,1.1903703E0,6.9675694E0,1.2516322E1,9.323087E-1,-4.1503143E-1,1.7083467E0,1.965902E-1,3.7996024E-1,6.3883823E-1,1.82687E-1,-2.4564171E-2,-6.5631866E-3,7.160441E-1,9.810295E-2,5.1516917E-2,2.1863938E-3],"categories":[],"categories_nodes":[],"categories_segments":[],"categories_sizes":[],"default_left":[0,0,0,0,0,0,0,0,0,0,0,0,0,0,0,0,0,0,0,0,0,0,0,0,0],"id":12,"left_children":[1,3,5,-1,7,9,11,-1,-1,13,15,17,-1,19,21,-1,-1,-1,-1,-1,-1,23,-1,-1,-1],"loss_changes":[1.6487887E4,5.43459E2,1.1997324E3,0E0,1.792334E2,1.7073914E2,3.7472168E1,0E0,0E0,8.19306E0,2.718872E0,1.7890625E0,0E0,4.258752E-4,3.5739708E-1,0E0,0E0,0E0,0E0,0E0,0E0,5.8886075E-1,0E0,0E0,0E0],"parents":[2147483647,0,0,1,1,2,2,4,4,5,5,6,6,9,9,10,10,11,11,13,13,14,14,21,21],"right_children":[2,4,6,-1,8,10,12,-1,-1,14,16,18,-1,20,22,-1,-1,-1,-1,-1,-1,24,-1,-1,-1],"split_conditions":[6.129373E1,3.0441994E1,8.631539E1,-1.1947409E0,4.3695652E1,7.441431E1,9.753094E1,-7.466914E-1,-2.721842E-1,6.690918E1,7.797459E1,9.994227E1,9.323087E-1,6.618914E1,6.8322624E1,1.965902E-1,3.7996024E-1,6.3883823E-1,1.82687E-1,-2.4564171E-2,-6.5631866E-3,6.824385E1,9.810295E-2,5.1516917E-2,2.1863938E-3],"split_indices":[0,1,1,0,1,0,1,0,0,0,1,0,0,0,0,0,0,0,0,0,0,0,0,0,0],"split_type":[0,0,0,0,0,0,0,0,0,0,0,0,0,0,0,0,0,0,0,0,0,0,0,0,0],"sum_hessian":[8.5E1,3.2E1,5.3E1,1.1E1,2.1E1,2.4E1,2.9E1,1.7E1,4E0,8E0,1.6E1,2E1,9E0,2E0,6E0,4E0,1.2E1,1.9E1,1E0,1E0,1E0,2E0,4E0,1E0,1E0],"tree_param":{"num_deleted":"0","num_feature":"4","num_nodes":"25","size_leaf_vector":"1"}},{"base_weights":[-4.4723954E-2,-1.7262468E1,9.973686E0,-1.139982E0,-1.3276348E1,3.0300312E0,1.3269787E1,-7.114309E-1,-2.8360245E-1,3.64563E-1,2.4677058E-1,5.1041037E-1,8.135582E-1,-1.1638641E0,1.3227539E0,-7.3324844E-2,-6.3991547E-3,7.564392E-2,9.303284E-3],"categories":[],"categories_nodes":[],"categories_segments":[],"categories_sizes":[],"default_left":[0,0,0,0,0,0,0,0,0,0,0,0,0,0,0,0,0,0,0],"id":13,"left_children":[1,3,5,-1,7,9,11,-1,-1,13,-1,-1,-1,15,17,-1,-1,-1,-1],"loss_changes":[1.500669E4,4.0360254E2,1.2185767E3,0E0,7.136304E1,9.4696625E1,1.738916E2,0E0,0E0,1.472023E1,0E0,0E0,0E0,1.0662785E0,1.0151796E0,0E0,0E0,0E0,0E0],"parents":[2147483647,0,0,1,1,2,2,4,4,5,5,6,6,9,9,13,13,14,14],"right_children":[2,4,6,-1,8,10,12,-1,-1,14,-1,-1,-1,16,18,-1,-1,-1,-1],"split_conditions":[5.777197E1,3.0441994E1,8.041516E1,-1.139982E0,4.3695652E1,7.208314E1,9.253734E1,-7.114309E-1,-2.8360245E-1,6.690918E1,2.4677058E-1,5.1041037E-1,8.135582E-1,6.618914E1,7.128439E1,-7.3324844E-2,-6.3991547E-3,7.564392E-2,9.303284E-3],"split_indices":[0,1,0,0,1,0,1,0,0,0,0,0,0,0,0,0,0,0,0],"split_type":[0,0,0,0,0,0,0,0,0,0,0,0,0,0,0,0,0,0,0],"sum_hessian":[8.5E1,3.1E1,5.4E1,1.1E1,2E1,1.8E1,3.6E1,1.7E1,3E0,8E0,1E1,2E1,1.6E1,3E0,5E0,2E0,1E0,4E0,1E0],"tree_param":{"num_deleted":"0","num_feature":"4","num_nodes":"19","size_leaf_vector":"1"}},{"base_weights":[-4.899034E-2,-1.6069159E1,9.74202E0,-9.8285323E-1,-1.0453201E1,5.018536E0,1.3948878E1,-5.866169E-1,-2.0012474E-1,1.3602546E0,6.7721076E0,1.1569458E1,8.5374445E-1,-1.8903987E-2,1.8420982E0,2.0807044E-1,3.7280568E-1,5.930791E-1,1.5778084E-1,9.400009E-1,1.2545978E-1,7.212588E-2,6.20753E-3],"categories":[],"categories_nodes":[],"categories_segments":[],"categories_sizes":[],"default_left":[0,0,0,0,0,0,0,0,0,0,0,0,0,0,0,0,0,0,0,0,0,0,0],"id":14,"left_children":[1,3,5,-1,7,9,11,-1,-1,13,15,17,-1,-1,19,-1,-1,-1,-1,21,-1,-1,-1],"loss_changes":[1.3645959E4,4.5945508E2,1.0030322E3,0E0,7.68114E1,1.6399475E2,1.0719238E1,0E0,0E0,9.072512E0,1.1152344E0,9.269287E0,0E0,0E0,2.4556465E0,0E0,0E0,0E0,0E0,1.8708029E0,0E0,0E0,0E0],"parents":[2147483647,0,0,1,1,2,2,4,4,5,5,6,6,9,9,10,10,11,11,14,14,19,19],"right_children":[2,4,6,-1,8,10,12,-1,-1,14,16,18,-1,-1,20,-1,-1,-1,-1,22,-1,-1,-1],"split_conditions":[6.129373E1,3.8230007E1,8.734476E1,-9.8285323E-1,4.806501E1,7.583093E1,9.753094E1,-5.866169E-1,-2.0012474E-1,6.690918E1,7.866391E1,9.994227E1,8.5374445E-1,-1.8903987E-2,5E0,2.0807044E-1,3.7280568E-1,5.930791E-1,1.5778084E-1,3E0,1.2545978E-1,7.212588E-2,6.20753E-3],"split_indices":[0,1,1,0,0,0,1,0,0,0,1,0,0,0,2,0,0,0,0,2,0,0,0],"split_type":[0,0,0,0,0,0,0,0,0,0,0,0,0,0,0,0,0,0,0,0,0,0,0],"sum_hessian":[8.5E1,3.2E1,5.3E1,1.8E1,1.4E1,2.6E1,2.7E1,1.1E1,3E0,9E0,1.7E1,1.8E1,9E0,2E0,7E0,5E0,1.2E1,1.7E1,1E0,4E0,3E0,2E0,2E0],"tree_param":{"num_deleted":"0","num_feature":"4","num_nodes":"23","size_leaf_vector":"1"}},{"base_weights":[-3.9554596E-2,-1.5319325E1,9.298816E0,-1.0426854E0,-1.1604238E1,4.795973E0,1.3308742E1,-6.3127273E-1,-1.9262004E-1,1.3107307E0,6.4657755E0,1.1030505E1,8.153259E-1,-3.6547598E-1,1.7754669E0,1.994009E-1,3.5559943E-1,5.6507266E-1,1.5383625E-1,-2.164421E-2,-5.766487E-3,9.086655E-1,1.207551E-1,6.97216E-2,6.000519E-3],"categories":[],"categories_nodes":[],"categories_segments":[],"categories_sizes":[],"default_left":[0,0,0,0,0,0,0,0,0,0,0,0,0,0,0,0,0,0,0,0,0,0,0,0,0],"id":15,"left_children":[1,3,5,-1,7,9,11,-1,-1,13,15,17,-1,19,21,-1,-1,-1,-1,-1,-1,23,-1,-1,-1],"loss_changes":[1.2413633E4,4.365122E2,9.111992E2,0E0,1.2552051E2,1.4865607E2,1.136084E1,0E0,0E0,8.438829E0,4.5812988E-1,6.1743164E0,0E0,6.6134334E-4,2.2409744E0,0E0,0E0,0E0,0E0,0E0,0E0,1.7481656E0,0E0,0E0,0E0],"parents":[2147483647,0,0,1,1,2,2,4,4,5,5,6,6,9,9,10,10,11,11,13,13,14,14,21,21],"right_children":[2,4,6,-1,8,10,12,-1,-1,14,16,18,-1,20,22,-1,-1,-1,-1,-1,-1,24,-1,-1,-1],"split_conditions":[6.129373E1,3.0441994E1,8.734476E1,-1.0426854E0,4.806501E1,7.583093E1,9.753094E1,-6.3127273E-1,-1.9262004E-1,6.690918E1,7.866391E1,9.994227E1,8.153259E-1,6.618914E1,5E0,1.994009E-1,3.5559943E-1,5.6507266E-1,1.5383625E-1,-2.164421E-2,-5.766487E-3,3E0,1.207551E-1,6.97216E-2,6.000519E-3],"split_indices":[0,1,1,0,0,0,1,0,0,0,1,0,0,0,2,0,0,0,0,0,0,2,0,0,0],"split_type":[0,0,0,0,0,0,0,0,0,0,0,0,0,0,0,0,0,0,0,0,0,0,0,0,0],"sum_hessian":[8.5E1,3.2E1,5.3E1,1.1E1,2.1E1,2.6E1,2.7E1,1.8E1,3E0,9E0,1.7E1,1.8E1,9E0,2E0,7E0,5E0,1.2E1,1.7E1,1E0,1E0,1E0,4E0,3E0,2E0,2E0],"tree_param":{"num_deleted":"0","num_feature":"4","num_nodes":"25","size_leaf_vector":"1"}},{"base_weights":[-3.3021618E-2,-1.4973501E1,8.660221E0,-1.0928615E0,-1.2171768E1,2.638562E0,1.1518365E1,-6.4650047E-1,-2.4792509E-1,3.3620706E-1,2.1412186E-1,4.267051E-1,6.9481987E-1,-1.0111084E0,1.1783829E0,-6.3659035E-2,-5.6222915E-3,1.3439362E0,8.765412E-3,2.9817963E-2,8.2176715E-2],"categories":[],"categories_nodes":[],"categories_segments":[],"categories_sizes":[],"default_left":[0,0,0,0,0,0,0,0,0,0,0,0,0,0,0,0,0,0,0,0,0],"id":16,"left_children":[1,3,5,-1,7,9,11,-1,-1,13,-1,-1,-1,15,17,-1,-1,19,-1,-1,-1],"loss_changes":[1.1299458E4,3.5112256E2,9.162002E2,0E0,7.262134E1,7.047113E1,1.4398389E2,0E0,0E0,1.1403561E1,0E0,0E0,0E0,7.988944E-1,7.607708E-1,0E0,0E0,1.3972664E-1,0E0,0E0,0E0],"parents":[2147483647,0,0,1,1,2,2,4,4,5,5,6,6,9,9,13,13,14,14,17,17],"right_children":[2,4,6,-1,8,10,12,-1,-1,14,-1,-1,-1,16,18,-1,-1,20,-1,-1,-1],"split_conditions":[5.777197E1,2.575461E1,8.041516E1,-1.0928615E0,4.3695652E1,7.208314E1,9.117351E1,-6.4650047E-1,-2.4792509E-1,6.690918E1,2.1412186E-1,4.267051E-1,6.9481987E-1,6.618914E1,7.128439E1,-6.3659035E-2,-5.6222915E-3,6.8322624E1,8.765412E-3,2.9817963E-2,8.2176715E-2],"split_indices":[0,1,0,0,1,0,0,0,0,0,0,0,0,0,0,0,0,0,0,0,0],"split_type":[0,0,0,0,0,0,0,0,0,0,0,0,0,0,0,0,0,0,0,0,0],"sum_hessian":[8.5E1,3.1E1,5.4E1,7E0,2.4E1,1.8E1,3.6E1,2.1E1,3E0,8E0,1E1,1.8E1,1.8E1,3E0,5E0,2E0,1E0,4E0,1E0,2E0,2E0],"tree_param":{"num_deleted":"0","num_feature":"4","num_nodes":"21","size_leaf_vector":"1"}},{"base_weights":[-3.834813E-2,-1.3942226E1,8.459177E0,-1.0185001E0,-1.1070539E1,4.3553987E0,1.2114278E1,-6.0657495E-1,-2.2001992E-1,1.2029289E0,2.9324022E-1,7.183617E-1,9.526609E0,-1.6662216E-2,1.6286278E0,4.9040318E-1,1.3261986E-1,8.482605E-1,1.09846495E-1,6.55309E-2,5.1574707E-3],"categories":[],"categories_nodes":[],"categories_segments":[],"categories_sizes":[],"default_left":[0,0,0,0,0,0,0,0,0,0,0,0,0,0,0,0,0,0,0,0,0],"id":17,"left_children":[1,3,5,-1,7,9,11,-1,-1,13,-1,-1,15,-1,17,-1,-1,19,-1,-1,-1],"loss_changes":[1.0278715E4,3.8362598E2,7.5722266E2,0E0,1.23535645E2,1.21420654E2,2.6365723E1,0E0,0E0,7.082202E0,0E0,0E0,4.9416504E0,0E0,1.6843052E0,0E0,0E0,1.5873492E0,0E0,0E0,0E0],"parents":[2147483647,0,0,1,1,2,2,4,4,5,5,6,6,9,9,12,12,14,14,17,17],"right_children":[2,4,6,-1,8,10,12,-1,-1,14,-1,-1,16,-1,18,-1,-1,20,-1,-1,-1],"split_conditions":[6.129373E1,2.7756E1,8.734476E1,-1.0185001E0,4.3695652E1,7.583093E1,7E0,-6.0657495E-1,-2.2001992E-1,6.690918E1,2.9324022E-1,7.183617E-1,9.994227E1,-1.6662216E-2,5E0,4.9040318E-1,1.3261986E-1,3E0,1.09846495E-1,6.55309E-2,5.1574707E-3],"split_indices":[0,0,1,0,1,0,2,0,0,0,0,0,0,0,2,0,0,2,0,0,0],"split_type":[0,0,0,0,0,0,0,0,0,0,0,0,0,0,0,0,0,0,0,0,0],"sum_hessian":[8.5E1,3.2E1,5.3E1,8E0,2.4E1,2.6E1,2.7E1,2E1,4E0,9E0,1.7E1,1.2E1,1.5E1,2E0,7E0,1.4E1,1E0,4E0,3E0,2E0,2E0],"tree_param":{"num_deleted":"0","num_feature":"4","num_nodes":"21","size_leaf_vector":"1"}},{"base_weights":[-3.69728E-2,-1.3632567E1,7.8738637E0,-1.0004894E0,-1.1046555E1,2.9656682E0,1.0818171E1,-5.857584E-1,-2.3037715E-1,3.253534E-1,4.45118E0,8.974128E0,7.17323E-1,-9.145365E-1,1.0977211E0,4.6062083E0,6.089535E-2,4.5662713E-1,1.2930432E-1,-5.759233E-2,-5.065155E-3,1.2499268E0,8.41732E-3,1.4441434E-1,2.6594368E-1,2.7646003E-2,7.6514564E-2],"categories":[],"categories_nodes":[],"categories_segments":[],"categories_sizes":[],"default_left":[0,0,0,0,0,0,0,0,0,0,0,0,0,0,0,0,0,0,0,0,0,0,0,0,0,0,0],"id":18,"left_children":[1,3,5,-1,7,9,11,-1,-1,13,15,17,-1,19,21,23,-1,-1,-1,-1,-1,25,-1,-1,-1,-1,-1],"loss_changes":[9.356858E3,3.066914E2,7.6273486E2,0E0,5.36521E1,8.484061E1,9.246777E1,0E0,0E0,9.622764E0,1.4075317E0,1.6815186E0,0E0,6.5526843E-1,6.383157E-1,5.5352783E-1,0E0,0E0,0E0,0E0,0E0,1.3095093E-1,0E0,0E0,0E0,0E0,0E0],"parents":[2147483647,0,0,1,1,2,2,4,4,5,5,6,6,9,9,10,10,11,11,13,13,14,14,15,15,21,21],"right_children":[2,4,6,-1,8,10,12,-1,-1,14,16,18,-1,20,22,24,-1,-1,-1,-1,-1,26,-1,-1,-1,-1,-1],"split_conditions":[5.777197E1,2.575461E1,8.296301E1,-1.0004894E0,4.3695652E1,7.208314E1,9.753094E1,-5.857584E-1,-2.3037715E-1,6.690918E1,8.240646E1,9.994227E1,7.17323E-1,6.618914E1,7.128439E1,7.797459E1,6.089535E-2,4.5662713E-1,1.2930432E-1,-5.759233E-2,-5.065155E-3,6.8322624E1,8.41732E-3,1.4441434E-1,2.6594368E-1,2.7646003E-2,7.6514564E-2],"split_indices":[0,1,0,0,1,0,1,0,0,0,0,0,0,0,0,1,0,0,0,0,0,0,0,0,0,0,0],"split_type":[0,0,0,0,0,0,0,0,0,0,0,0,0,0,0,0,0,0,0,0,0,0,0,0,0,0,0],"sum_hessian":[8.5E1,3.1E1,5.4E1,7E0,2.4E1,2.1E1,3.3E1,2.1E1,3E0,8E0,1.3E1,2.4E1,9E0,3E0,5E0,1.2E1,1E0,2.3E1,1E0,2E0,1E0,4E0,1E0,5E0,7E0,2E0,2E0],"tree_param":{"num_deleted":"0","num_feature":"4","num_nodes":"27","size_leaf_vector":"1"}},{"base_weights":[-3.503387E-2,-1.2693358E1,7.7012577E0,-8.288092E-1,-8.959899E0,3.9494293E0,1.1044047E1,-4.910758E-1,-1.6367288E-1,1.114878E0,5.304767E0,6.571127E-1,8.649002E0,-1.5062459E-2,1.506566E0,1.3125305E-1,2.8328523E-1,4.444705E-1,1.2607174E-1,7.9194033E-1,1.0116034E-1,6.161054E-2,4.384486E-3],"categories":[],"categories_nodes":[],"categories_segments":[],"categories_sizes":[],"default_left":[0,0,0,0,0,0,0,0,0,0,0,0,0,0,0,0,0,0,0,0,0,0,0],"id":19,"left_children":[1,3,5,-1,7,9,11,-1,-1,13,15,-1,17,-1,19,-1,-1,-1,-1,21,-1,-1,-1],"loss_changes":[8.519605E3,3.298589E2,6.336272E2,0E0,6.0940796E1,9.781378E1,2.7041016E1,0E0,0E0,6.0006523E0,2.5368652E0,0E0,1.1557617E0,0E0,1.3513775E0,0E0,0E0,0E0,0E0,1.4422514E0,0E0,0E0,0E0],"parents":[2147483647,0,0,1,1,2,2,4,4,5,5,6,6,9,9,10,10,12,12,14,14,19,19],"right_children":[2,4,6,-1,8,10,12,-1,-1,14,16,-1,18,-1,20,-1,-1,-1,-1,22,-1,-1,-1],"split_conditions":[6.129373E1,3.4373947E1,8.734476E1,-8.288092E-1,4.806501E1,7.583093E1,7E0,-4.910758E-1,-1.6367288E-1,6.690918E1,3E0,6.571127E-1,9.994227E1,-1.5062459E-2,5E0,1.3125305E-1,2.8328523E-1,4.444705E-1,1.2607174E-1,3E0,1.0116034E-1,6.161054E-2,4.384486E-3],"split_indices":[0,1,1,0,0,0,2,0,0,0,2,0,0,0,2,0,0,0,0,2,0,0,0],"split_type":[0,0,0,0,0,0,0,0,0,0,0,0,0,0,0,0,0,0,0,0,0,0,0],"sum_hessian":[8.5E1,3.2E1,5.3E1,1.4E1,1.8E1,2.6E1,2.7E1,1.5E1,3E0,9E0,1.7E1,1.2E1,1.5E1,2E0,7E0,3E0,1.4E1,1.4E1,1E0,4E0,3E0,2E0,2E0],"tree_param":{"num_deleted":"0","num_feature":"4","num_nodes":"23","size_leaf_vector":"1"}},{"base_weights":[-2.966965E-2,-1.2404683E1,7.170878E0,-9.2045766E-1,-9.987066E0,3.278899E0,1.0304896E1,-5.28991E-1,-2.1150771E-1,5.30558E-1,4.702694E0,8.4584255E0,6.575998E-1,-8.3602524E-1,1.2356688E0,1.3194244E-1,2.5673673E-1,4.3919617E-1,1.7887332E-1,-5.2693684E-2,-4.5619966E-3,5.124893E-1,7.112213E-2,4.017658E-2,-1.7398834E-3],"categories":[],"categories_nodes":[],"categories_segments":[],"categories_sizes":[],"default_left":[0,0,0,0,0,0,0,0,0,0,0,0,0,0,0,0,0,0,0,0,0,0,0,0,0],"id":20,"left_children":[1,3,5,-1,7,9,11,-1,-1,13,15,17,-1,19,21,-1,-1,-1,-1,-1,-1,23,-1,-1,-1],"loss_changes":[7.752144E3,2.8067432E2,6.3707544E2,0E0,4.055664E1,9.924487E1,4.646753E1,0E0,0E0,1.0668976E1,1.60849E0,1.939331E0,0E0,5.5284595E-1,2.1651077E-1,0E0,0E0,0E0,0E0,0E0,0E0,5.05812E-1,0E0,0E0,0E0],"parents":[2147483647,0,0,1,1,2,2,4,4,5,5,6,6,9,9,10,10,11,11,13,13,14,14,21,21],"right_children":[2,4,6,-1,8,10,12,-1,-1,14,16,18,-1,20,22,-1,-1,-1,-1,-1,-1,24,-1,-1,-1],"split_conditions":[5.777197E1,2.575461E1,8.631539E1,-9.2045766E-1,4.3695652E1,7.441431E1,9.753094E1,-5.28991E-1,-2.1150771E-1,6.690918E1,7.797459E1,9.88839E1,6.575998E-1,6.618914E1,6.8322624E1,1.3194244E-1,2.5673673E-1,4.3919617E-1,1.7887332E-1,-5.2693684E-2,-4.5619966E-3,6.824385E1,7.112213E-2,4.017658E-2,-1.7398834E-3],"split_indices":[0,1,1,0,1,0,1,0,0,0,1,0,0,0,0,0,0,0,0,0,0,0,0,0,0],"split_type":[0,0,0,0,0,0,0,0,0,0,0,0,0,0,0,0,0,0,0,0,0,0,0,0,0],"sum_hessian":[8.5E1,3.1E1,5.4E1,7E0,2.4E1,2.5E1,2.9E1,2.1E1,3E0,9E0,1.6E1,2E1,9E0,3E0,6E0,4E0,1.2E1,1.8E1,2E0,2E0,1E0,2E0,4E0,1E0,1E0],"tree_param":{"num_deleted":"0","num_feature":"4","num_nodes":"25","size_leaf_vector":"1"}},{"base_weights":[-2.7538033E-2,-1.1550942E1,7.015053E0,-8.801877E-1,-9.244272E0,3.5969183E0,1.0060573E1,-5.044068E-1,-1.8412098E-1,1.0345833E0,4.820609E0,6.006338E-1,3.922852E-1,-1.3606136E-2,1.3952751E0,1.428849E-1,2.677876E-1,7.294067E-1,9.3939595E-2,5.7702E-2,3.081894E-3],"categories":[],"categories_nodes":[],"categories_segments":[],"categories_sizes":[],"default_left":[0,0,0,0,0,0,0,0,0,0,0,0,0,0,0,0,0,0,0,0,0],"id":21,"left_children":[1,3,5,-1,7,9,11,-1,-1,13,15,-1,-1,-1,17,-1,-1,19,-1,-1,-1],"loss_changes":[7.060328E3,2.9800635E2,5.259529E2,0E0,8.488086E1,7.9671326E1,2.6814453E1,0E0,0E0,5.092868E0,3.6027527E0,0E0,0E0,0E0,1.205265E0,0E0,0E0,1.346652E0,0E0,0E0,0E0],"parents":[2147483647,0,0,1,1,2,2,4,4,5,5,6,6,9,9,10,10,14,14,17,17],"right_children":[2,4,6,-1,8,10,12,-1,-1,14,16,-1,-1,-1,18,-1,-1,20,-1,-1,-1],"split_conditions":[6.129373E1,2.575461E1,8.734476E1,-8.801877E-1,4.5017952E1,7.583093E1,7E0,-5.044068E-1,-1.8412098E-1,6.690918E1,4E0,6.006338E-1,3.922852E-1,-1.3606136E-2,5E0,1.428849E-1,2.677876E-1,3E0,9.3939595E-2,5.7702E-2,3.081894E-3],"split_indices":[0,1,1,0,0,0,2,0,0,0,2,0,0,0,2,0,0,2,0,0,0],"split_type":[0,0,0,0,0,0,0,0,0,0,0,0,0,0,0,0,0,0,0,0,0],"sum_hessian":[8.5E1,3.2E1,5.3E1,7E0,2.5E1,2.6E1,2.7E1,2.1E1,4E0,9E0,1.7E1,1.2E1,1.5E1,2E0,7E0,5E0,1.2E1,4E0,3E0,2E0,2E0],"tree_param":{"num_deleted":"0","num_feature":"4","num_nodes":"21","size_leaf_vector":"1"}},{"base_weights":[-2.6440244E-2,-1.1295535E1,6.530605E0,-8.416795E-1,-9.071537E0,1.9469417E0,8.707875E0,-4.8039767E-1,-1.9266815E-1,2.9403389E-1,1.561163E-1,3.2517758E-1,5.4593176E-1,-7.5570583E-1,9.4485474E-1,-4.7641817E-2,-4.1078567E-3,1.0838883E0,6.24218E-3,2.3970796E-2,6.6353224E-2],"categories":[],"categories_nodes":[],"categories_segments":[],"categories_sizes":[],"default_left":[0,0,0,0,0,0,0,0,0,0,0,0,0,0,0,0,0,0,0,0,0],"id":22,"left_children":[1,3,5,-1,7,9,11,-1,-1,13,-1,-1,-1,15,17,-1,-1,19,-1,-1,-1],"loss_changes":[6.4284756E3,2.4142554E2,5.3193945E2,0E0,3.2954834E1,3.5995186E1,1.0929956E2,0E0,0E0,6.8627644E0,0E0,0E0,0E0,4.5282555E-1,5.487375E-1,0E0,0E0,9.8751545E-2,0E0,0E0,0E0],"parents":[2147483647,0,0,1,1,2,2,4,4,5,5,6,6,9,9,13,13,14,14,17,17],"right_children":[2,4,6,-1,8,10,12,-1,-1,14,-1,-1,-1,16,18,-1,-1,20,-1,-1,-1],"split_conditions":[5.777197E1,2.575461E1,8.041516E1,-8.416795E-1,4.3695652E1,7.208314E1,9.253734E1,-4.8039767E-1,-1.9266815E-1,6.690918E1,1.561163E-1,3.2517758E-1,5.4593176E-1,6.618914E1,7.128439E1,-4.7641817E-2,-4.1078567E-3,6.8322624E1,6.24218E-3,2.3970796E-2,6.6353224E-2],"split_indices":[0,1,0,0,1,0,1,0,0,0,0,0,0,0,0,0,0,0,0,0,0],"split_type":[0,0,0,0,0,0,0,0,0,0,0,0,0,0,0,0,0,0,0,0,0],"sum_hessian":[8.5E1,3.1E1,5.4E1,7E0,2.4E1,1.8E1,3.6E1,2.1E1,3E0,8E0,1E1,2E1,1.6E1,3E0,5E0,2E0,1E0,4E0,1E0,2E0,2E0],"tree_param":{"num_deleted":"0","num_feature":"4","num_nodes":"21","size_leaf_vector":"1"}},{"base_weights":[-3.026594E-2,-1.051773E1,6.3793E0,-7.8306836E-1,-8.245311E0,3.6687942E0,9.614566E0,-4.508822E-1,-1.6762242E-1,1.4101099E0,5.0211153E0,5.6565714E-1,7.307067E0,1.305786E-1,1.9642817E0,2.5690365E-1,7.289696E-2,3.9315292E-1,1.4163704E-1,3.7130356E-2,-2.0808029E-1,1.0229836E0,1.1322168E-1,-1.4430046E-2,-4.2519886E-3,6.414147E-2,6.086159E-3],"categories":[],"categories_nodes":[],"categories_segments":[],"categories_sizes":[],"default_left":[0,0,0,0,0,0,0,0,0,0,0,0,0,0,0,0,0,0,0,0,0,0,0,0,0,0,0],"id":23,"left_children":[1,3,5,-1,7,9,11,-1,-1,13,15,-1,17,19,21,-1,-1,-1,-1,-1,23,25,-1,-1,-1,-1,-1],"loss_changes":[5.8480234E3,2.565879E2,4.3826318E2,0E0,6.424182E1,8.7608154E1,1.1401367E1,0E0,0E0,8.961552E0,4.2703247E-1,0E0,1.0065857E1,1.1908665E0,2.2631073E-1,0E0,0E0,0E0,0E0,0E0,1.5086651E-2,7.8060484E-1,0E0,0E0,0E0,0E0,0E0],"parents":[2147483647,0,0,1,1,2,2,4,4,5,5,6,6,9,9,10,10,12,12,13,13,14,14,20,20,21,21],"right_children":[2,4,6,-1,8,10,12,-1,-1,14,16,-1,18,20,22,-1,-1,-1,-1,-1,24,26,-1,-1,-1,-1,-1],"split_conditions":[6.129373E1,2.7756E1,8.974788E1,-7.8306836E-1,4.5017952E1,7.797459E1,7E0,-4.508822E-1,-1.6762242E-1,6.8322624E1,9.110202E1,5.6565714E-1,9.9164955E1,2E0,7.208314E1,2.5690365E-1,7.289696E-2,3.9315292E-1,1.4163704E-1,3.7130356E-2,6.618914E1,7.128439E1,1.1322168E-1,-1.4430046E-2,-4.2519886E-3,6.414147E-2,6.086159E-3],"split_indices":[0,0,1,0,0,1,2,0,0,0,0,0,0,2,0,0,0,0,0,0,0,0,0,0,0,0,0],"split_type":[0,0,0,0,0,0,0,0,0,0,0,0,0,0,0,0,0,0,0,0,0,0,0,0,0,0,0],"sum_hessian":[8.5E1,3.2E1,5.3E1,8E0,2.4E1,3E1,2.3E1,2E1,4E0,1.2E1,1.8E1,1.1E1,1.2E1,4E0,8E0,1.7E1,1E0,1E1,2E0,1E0,3E0,3E0,5E0,1E0,2E0,2E0,1E0],"tree_param":{"num_deleted":"0","num_feature":"4","num_nodes":"27","size_leaf_vector":"1"}},{"base_weights":[-2.6071725E-2,-1.0284812E1,5.943124E0,-9.2902386E-1,-8.7859335E0,2.6986837E0,8.556869E0,-4.862019E-1,-2.553953E-1,4.656704E-1,3.8534749E0,6.9406075E0,5.547664E-1,-6.8428326E-1,1.0562624E0,1.2343848E-1,2.1921675E-1,3.6194164E-1,1.3691573E-1,-4.3019548E-2,-3.8990022E-3,4.5247397E-1,6.0364153E-2,3.620205E-2,-2.2665025E-3],"categories":[],"categories_nodes":[],"categories_segments":[],"categories_sizes":[],"default_left":[0,0,0,0,0,0,0,0,0,0,0,0,0,0,0,0,0,0,0,0,0,0,0,0,0],"id":24,"left_children":[1,3,5,-1,7,9,11,-1,-1,13,15,17,-1,19,21,-1,-1,-1,-1,-1,-1,23,-1,-1,-1],"loss_changes":[5.3274565E3,2.3464746E2,4.433153E2,0E0,5.0391357E1,6.5250824E1,4.607617E1,0E0,0E0,7.514318E0,1.6725159E0,6.4956665E0,0E0,3.6000526E-1,9.202719E-2,0E0,0E0,0E0,0E0,0E0,0E0,4.3838233E-1,0E0,0E0,0E0],"parents":[2147483647,0,0,1,1,2,2,4,4,5,5,6,6,9,9,10,10,11,11,13,13,14,14,21,21],"right_children":[2,4,6,-1,8,10,12,-1,-1,14,16,18,-1,20,22,-1,-1,-1,-1,-1,-1,24,-1,-1,-1],"split_conditions":[5.777197E1,1.9661749E1,8.631539E1,-9.2902386E-1,4.0564056E1,7.441431E1,9.753094E1,-4.862019E-1,-2.553953E-1,6.690918E1,7.866391E1,9.88839E1,5.547664E-1,6.618914E1,6.8322624E1,1.2343848E-1,2.1921675E-1,3.6194164E-1,1.3691573E-1,-4.3019548E-2,-3.8990022E-3,6.824385E1,6.0364153E-2,3.620205E-2,-2.2665025E-3],"split_indices":[0,0,1,0,1,0,1,0,0,0,1,0,0,0,0,0,0,0,0,0,0,0,0,0,0],"split_type":[0,0,0,0,0,0,0,0,0,0,0,0,0,0,0,0,0,0,0,0,0,0,0,0,0],"sum_hessian":[8.5E1,3.1E1,5.4E1,3E0,2.8E1,2.5E1,2.9E1,2.1E1,7E0,9E0,1.6E1,2E1,9E0,3E0,6E0,6E0,1E1,1.8E1,2E0,2E0,1E0,2E0,4E0,1E0,1E0],"tree_param":{"num_deleted":"0","num_feature":"4","num_nodes":"25","size_leaf_vector":"1"}},{"base_weights":[-2.7405983E-2,-9.822779E0,5.6722183E0,-8.941855E-1,-8.37221E0,1.6804199E0,7.5687575E0,-4.7831088E-1,-5.5487223E0,2.725296E-1,2.6795647E0,2.8035945E-1,4.7733256E-1,-2.893201E-1,-7.9298116E-2,-6.617985E-1,8.499934E-1,1.395126E-1,3.931732E-2,-4.93845E-2,-1.1196899E-2,9.845932E-1,4.4248584E-3,2.2058105E-2,5.999133E-2],"categories":[],"categories_nodes":[],"categories_segments":[],"categories_sizes":[],"default_left":[0,0,0,0,0,0,0,0,0,0,0,0,0,0,0,0,0,0,0,0,0,0,0,0,0],"id":25,"left_children":[1,3,5,-1,7,9,11,-1,13,15,17,-1,-1,-1,-1,19,21,-1,-1,-1,-1,23,-1,-1,-1],"loss_changes":[4.857092E3,2.24448E2,4.036643E2,0E0,4.4686523E1,2.599678E1,9.002173E1,0E0,1.1835327E0,5.4183903E0,1.1099243E-1,0E0,0E0,0E0,0E0,3.4959877E-1,5.278497E-1,0E0,0E0,0E0,0E0,5.5504322E-2,0E0,0E0,0E0],"parents":[2147483647,0,0,1,1,2,2,4,4,5,5,6,6,8,8,9,9,10,10,15,15,16,16,21,21],"right_children":[2,4,6,-1,8,10,12,-1,14,16,18,-1,-1,-1,-1,20,22,-1,-1,-1,-1,24,-1,-1,-1],"split_conditions":[5.777197E1,1.9661749E1,8.041516E1,-8.941855E-1,3.9126457E1,7.208314E1,9.253734E1,-4.7831088E-1,5.556649E1,6.690918E1,7.953626E1,2.8035945E-1,4.7733256E-1,-2.893201E-1,-7.9298116E-2,6.129373E1,7.128439E1,1.395126E-1,3.931732E-2,-4.93845E-2,-1.1196899E-2,6.8322624E1,4.4248584E-3,2.2058105E-2,5.999133E-2],"split_indices":[0,0,0,0,1,0,1,0,0,0,1,0,0,0,0,0,0,0,0,0,0,0,0,0,0],"split_type":[0,0,0,0,0,0,0,0,0,0,0,0,0,0,0,0,0,0,0,0,0,0,0,0,0],"sum_hessian":[8.5E1,3.1E1,5.4E1,3E0,2.8E1,1.8E1,3.6E1,1.8E1,1E1,8E0,1E1,2E1,1.6E1,9E0,1E0,3E0,5E0,9E0,1E0,1E0,2E0,4E0,1E0,2E0,2E0],"tree_param":{"num_deleted":"0","num_feature":"4","num_nodes":"25","size_leaf_vector":"1"}},{"base_weights":[-3.5089716E-2,-9.159987E0,5.5418863E0,-8.606535E-1,-7.78091E0,3.166423E0,8.379281E0,-4.4145694E-1,-4.354028E0,1.234682E0,4.321487E0,4.9646115E-1,6.3040056E0,-2.3287661E-1,-4.8149873E-2,1.2599182E-1,8.56717E-2,4.4393096E0,5.501709E-2,3.4075287E-1,1.1644071E-1,3.47456E-2,-1.899662E-1,2.7352436E0,2.442158E-1,-1.2713814E-2,-4.1885376E-3,1.4878082E-1,3.8334467E-2],"categories":[],"categories_nodes":[],"categories_segments":[],"categories_sizes":[],"default_left":[0,0,0,0,0,0,0,0,0,0,0,0,0,0,0,0,0,0,0,0,0,0,0,0,0,0,0,0,0],"id":26,"left_children":[1,3,5,-1,7,9,11,-1,13,15,17,-1,19,-1,-1,21,-1,23,-1,-1,-1,-1,25,27,-1,-1,-1,-1,-1],"loss_changes":[4.4272466E3,2.3255884E2,3.374347E2,0E0,6.932239E1,6.3834137E1,1.4603516E1,0E0,4.777527E0,6.6843605E0,2.3262024E0,0E0,1.0538818E1,0E0,0E0,1.0307842E0,0E0,2.8997803E-1,0E0,0E0,0E0,0E0,6.0168207E-3,5.577469E-1,0E0,0E0,0E0,0E0,0E0],"parents":[2147483647,0,0,1,1,2,2,4,4,5,5,6,6,8,8,9,9,10,10,12,12,15,15,17,17,22,22,23,23],"right_children":[2,4,6,-1,8,10,12,-1,14,16,18,-1,20,-1,-1,22,-1,24,-1,-1,-1,-1,26,28,-1,-1,-1,-1,-1],"split_conditions":[6.129373E1,1.9661749E1,8.974788E1,-8.606535E-1,4.0564056E1,7.797459E1,7E0,-4.4145694E-1,5.777197E1,6.8322624E1,9.110202E1,4.9646115E-1,9.9164955E1,-2.3287661E-1,-4.8149873E-2,2E0,8.56717E-2,8.041516E1,5.501709E-2,3.4075287E-1,1.1644071E-1,3.47456E-2,6.618914E1,7.953626E1,2.442158E-1,-1.2713814E-2,-4.1885376E-3,1.4878082E-1,3.8334467E-2],"split_indices":[0,0,1,0,1,1,2,0,0,0,0,0,0,0,0,2,0,0,0,0,0,0,0,1,0,0,0,0,0],"split_type":[0,0,0,0,0,0,0,0,0,0,0,0,0,0,0,0,0,0,0,0,0,0,0,0,0,0,0,0,0],"sum_hessian":[8.5E1,3.2E1,5.3E1,3E0,2.9E1,3E1,2.3E1,2.1E1,8E0,1.2E1,1.8E1,1.1E1,1.2E1,7E0,1E0,4E0,8E0,1.7E1,1E0,1E1,2E0,1E0,3E0,5E0,1.2E1,1E0,2E0,4E0,1E0],"tree_param":{"num_deleted":"0","num_feature":"4","num_nodes":"29","size_leaf_vector":"1"}},{"base_weights":[-3.3796046E-2,-8.749963E0,5.2933764E0,-8.283791E-1,-7.4159484E0,3.0271297E0,8.000054E0,-8.025925E0,-1.3804413E-1,1.1809112E0,4.131009E0,4.7370678E-1,6.023975E0,-4.0799758E-1,-1.16881564E-1,1.232605E-1,1.6372825E0,4.241306E0,5.3641703E-2,3.2526416E-1,1.1255938E-1,3.3876993E-2,-1.8469429E-1,8.487644E-1,9.450404E-2,4.931533E0,3.0031307E0,-1.239605E-2,-4.04892E-3,5.5135984E-2,2.17247E-3,7.004013E-2,2.584096E-1,3.7376024E-2,1.595821E-1],"categories":[],"categories_nodes":[],"categories_segments":[],"categories_sizes":[],"default_left":[0,0,0,0,0,0,0,0,0,0,0,0,0,0,0,0,0,0,0,0,0,0,0,0,0,0,0,0,0,0,0,0,0,0,0],"id":27,"left_children":[1,3,5,-1,7,9,11,13,-1,15,17,-1,19,-1,-1,21,23,25,-1,-1,-1,-1,27,29,-1,31,33,-1,-1,-1,-1,-1,-1,-1,-1],"loss_changes":[4.0395137E3,2.2128662E2,3.0701892E2,0E0,6.3025757E1,5.8299713E1,1.2837524E1,7.4694824E-1,0E0,6.0730457E0,1.8586121E0,0E0,8.9617E0,0E0,0E0,9.7860265E-1,1.8979263E-1,5.7315063E-1,0E0,0E0,0E0,0E0,6.1542094E-3,7.701433E-1,0E0,1.1161804E0,1.4410553E0,0E0,0E0,0E0,0E0,0E0,0E0,0E0,0E0],"parents":[2147483647,0,0,1,1,2,2,4,4,5,5,6,6,7,7,9,9,10,10,12,12,15,15,16,16,17,17,22,22,23,23,25,25,26,26],"right_children":[2,4,6,-1,8,10,12,14,-1,16,18,-1,20,-1,-1,22,24,26,-1,-1,-1,-1,28,30,-1,32,34,-1,-1,-1,-1,-1,-1,-1,-1],"split_conditions":[6.129373E1,1.9661749E1,8.974788E1,-8.283791E-1,4.3695652E1,7.797459E1,7E0,4.5017952E1,-1.3804413E-1,6.8322624E1,9.110202E1,4.7370678E-1,9.9164955E1,-4.0799758E-1,-1.16881564E-1,2E0,7.208314E1,9E0,5.3641703E-2,3.2526416E-1,1.1255938E-1,3.3876993E-2,6.618914E1,7.128439E1,9.450404E-2,7.866391E1,7.8800224E1,-1.239605E-2,-4.04892E-3,5.5135984E-2,2.17247E-3,7.004013E-2,2.584096E-1,3.7376024E-2,1.595821E-1],"split_indices":[0,0,1,0,1,1,2,0,0,0,0,0,0,0,0,2,0,2,0,0,0,0,0,0,0,1,0,0,0,0,0,0,0,0,0],"split_type":[0,0,0,0,0,0,0,0,0,0,0,0,0,0,0,0,0,0,0,0,0,0,0,0,0,0,0,0,0,0,0,0,0,0,0],"sum_hessian":[8.5E1,3.2E1,5.3E1,3E0,2.9E1,3E1,2.3E1,2.5E1,4E0,1.2E1,1.8E1,1.1E1,1.2E1,2.4E1,1E0,4E0,8E0,1.7E1,1E0,1E1,2E0,1E0,3E0,3E0,5E0,9E0,8E0,1E0,2E0,2E0,1E0,1E0,8E0,1E0,7E0],"tree_param":{"num_deleted":"0","num_feature":"4","num_nodes":"35","size_leaf_vector":"1"}},{"base_weights":[-3.014702E-2,-8.3576565E0,5.0594444E0,-7.973148E-1,-7.067249E0,2.8999116E0,7.638031E0,-8.308337E0,-4.513255E0,1.2363275E0,4.0327044E0,5.98477E0,4.6770602E-1,-1.2133055E-1,-4.250144E-1,-4.969755E0,-7.435849E-2,1.20585635E-1,1.6705658E0,2.073431E-1,5.2300643E-2,3.2016575E-1,1.08807504E-1,-6.480675E-2,-2.61696E-1,3.303013E-2,-1.7956924E-1,8.20652E-1,9.587893E-2,-1.20861055E-2,-3.9138794E-3,5.3298064E-2,2.1181107E-3],"categories":[],"categories_nodes":[],"categories_segments":[],"categories_sizes":[],"default_left":[0,0,0,0,0,0,0,0,0,0,0,0,0,0,0,0,0,0,0,0,0,0,0,0,0,0,0,0,0,0,0,0,0],"id":28,"left_children":[1,3,5,-1,7,9,11,13,15,17,19,21,-1,-1,-1,23,-1,25,27,-1,-1,-1,-1,-1,-1,-1,29,31,-1,-1,-1,-1,-1],"loss_changes":[3.6872764E3,2.1045386E2,2.7855164E2,0E0,5.7594116E1,5.3433594E1,1.2109131E1,8.2421875E-1,9.186035E0,6.581524E0,1.79953E0,9.976685E0,0E0,0E0,0E0,2.9205322E0,0E0,9.2906743E-1,5.257282E-1,0E0,0E0,0E0,0E0,0E0,0E0,0E0,6.260842E-3,7.185302E-1,0E0,0E0,0E0,0E0,0E0],"parents":[2147483647,0,0,1,1,2,2,4,4,5,5,6,6,7,7,8,8,9,9,10,10,11,11,15,15,17,17,18,18,26,26,27,27],"right_children":[2,4,6,-1,8,10,12,14,16,18,20,22,-1,-1,-1,24,-1,26,28,-1,-1,-1,-1,-1,-1,-1,30,32,-1,-1,-1,-1,-1],"split_conditions":[6.129373E1,1.9661749E1,8.974788E1,-7.973148E-1,3.9126457E1,7.833418E1,9.753094E1,2.2581327E1,5.556649E1,6.8322624E1,9.110202E1,9.88839E1,4.6770602E-1,-1.2133055E-1,-4.250144E-1,3.8880886E1,-7.435849E-2,2E0,7.208314E1,2.073431E-1,5.2300643E-2,3.2016575E-1,1.08807504E-1,-6.480675E-2,-2.61696E-1,3.303013E-2,6.618914E1,7.128439E1,9.587893E-2,-1.20861055E-2,-3.9138794E-3,5.3298064E-2,2.1181107E-3],"split_indices":[0,0,1,0,1,1,1,1,0,0,0,0,0,0,0,0,0,2,0,0,0,0,0,0,0,0,0,0,0,0,0,0,0],"split_type":[0,0,0,0,0,0,0,0,0,0,0,0,0,0,0,0,0,0,0,0,0,0,0,0,0,0,0,0,0,0,0,0,0],"sum_hessian":[8.5E1,3.2E1,5.3E1,3E0,2.9E1,3E1,2.3E1,1.8E1,1.1E1,1.3E1,1.7E1,1.4E1,9E0,1E0,1.7E1,9E0,2E0,4E0,9E0,1.6E1,1E0,1.2E1,2E0,1E0,8E0,1E0,3E0,3E0,6E0,1E0,2E0,2E0,1E0],"tree_param":{"num_deleted":"0","num_feature":"4","num_nodes":"33","size_leaf_vector":"1"}},{"base_weights":[-3.3522274E-2,-7.9926376E0,4.831002E0,-7.674155E-1,-6.74546E0,2.2761045E0,6.7990503E0,-7.2993717E0,-1.2580131E-1,5.962914E-1,3.0315287E0,5.459031E0,4.466593E-1,-3.7097397E-1,-1.0741711E-1,-1.0001119E-2,4.2619213E-2,6.164055E-2,1.5945852E-1,2.8507587E-1,1.05180494E-1],"categories":[],"categories_nodes":[],"categories_segments":[],"categories_sizes":[],"default_left":[0,0,0,0,0,0,0,0,0,0,0,0,0,0,0,0,0,0,0,0,0],"id":29,"left_children":[1,3,5,-1,7,9,11,13,-1,15,17,19,-1,-1,-1,-1,-1,-1,-1,-1,-1],"loss_changes":[3.368301E3,1.9920508E2,2.560454E2,0E0,5.1916626E1,2.9916595E1,3.7026978E1,1.4587402E-1,0E0,2.005869E0,8.8874817E-1,5.0927124E0,0E0,0E0,0E0,0E0,0E0,0E0,0E0,0E0,0E0],"parents":[2147483647,0,0,1,1,2,2,4,4,5,5,6,6,7,7,9,9,10,10,11,11],"right_children":[2,4,6,-1,8,10,12,14,-1,16,18,20,-1,-1,-1,-1,-1,-1,-1,-1,-1],"split_conditions":[6.129373E1,1.9661749E1,8.631539E1,-7.674155E-1,4.3695652E1,7.441431E1,9.753094E1,4.5017952E1,-1.2580131E-1,6.690918E1,3E0,9.88839E1,4.466593E-1,-3.7097397E-1,-1.0741711E-1,-1.0001119E-2,4.2619213E-2,6.164055E-2,1.5945852E-1,2.8507587E-1,1.05180494E-1],"split_indices":[0,0,1,0,1,0,1,0,0,0,2,0,0,0,0,0,0,0,0,0,0],"split_type":[0,0,0,0,0,0,0,0,0,0,0,0,0,0,0,0,0,0,0,0,0],"sum_hessian":[8.5E1,3.2E1,5.3E1,3E0,2.9E1,2.4E1,2.9E1,2.5E1,4E0,8E0,1.6E1,2E1,9E0,2.4E1,1E0,2E0,6E0,2E0,1.4E1,1.8E1,2E0],"tree_param":{"num_deleted":"0","num_feature":"4","num_nodes":"21","size_leaf_vector":"1"}},{"base_weights":[-3.5112914E-2,-7.825035E0,4.4978437E0,-8.031608E-1,-6.740382E0,2.029674E0,6.486996E0,-3.8683906E-1,-4.315986E0,3.5912782E-1,2.8929555E0,5.2046666E0,4.2655945E-1,-5.3912163E-2,-4.531936E0,-5.299263E-1,8.158547E-1,9.291398E-2,3.2883897E0,2.7157244E-1,1.0167452E-1,-2.3776565E-1,-6.303864E-2,-3.334999E-2,-2.9676438E-3,4.9891815E-1,5.360654E-2,1.721679E-1,4.346771E-2,4.3258667E-2,-1.6821543E-3],"categories":[],"categories_nodes":[],"categories_segments":[],"categories_sizes":[],"default_left":[0,0,0,0,0,0,0,0,0,0,0,0,0,0,0,0,0,0,0,0,0,0,0,0,0,0,0,0,0,0,0],"id":30,"left_children":[1,3,5,-1,7,9,11,-1,13,15,17,19,-1,-1,21,23,25,-1,27,-1,-1,-1,-1,-1,-1,29,-1,-1,-1,-1,-1],"loss_changes":[3.0719746E3,1.7766602E2,2.5685962E2,0E0,3.9078125E1,3.6457016E1,3.4237915E1,0E0,2.8045654E0,4.4928927E0,8.447418E-1,4.0577393E0,0E0,0E0,1.3116455E0,2.184242E-1,3.365755E-2,0E0,1.1301117E0,0E0,0E0,0E0,0E0,0E0,0E0,1.0043737E0,0E0,0E0,0E0,0E0,0E0],"parents":[2147483647,0,0,1,1,2,2,4,4,5,5,6,6,8,8,9,9,10,10,11,11,14,14,15,15,16,16,18,18,25,25],"right_children":[2,4,6,-1,8,10,12,-1,14,16,18,20,-1,-1,22,24,26,-1,28,-1,-1,-1,-1,-1,-1,30,-1,-1,-1,-1,-1],"split_conditions":[5.777197E1,9.025367E0,8.631539E1,-8.031608E-1,3.9126457E1,7.441431E1,9.753094E1,-3.8683906E-1,3.8880886E1,6.690918E1,7.866391E1,9.88839E1,4.2655945E-1,-5.3912163E-2,5.556649E1,6.618914E1,5E0,9.291398E-2,8.64084E1,2.7157244E-1,1.0167452E-1,-2.3776565E-1,-6.303864E-2,-3.334999E-2,-2.9676438E-3,3E0,5.360654E-2,1.721679E-1,4.346771E-2,4.3258667E-2,-1.6821543E-3],"split_indices":[0,0,1,0,1,0,1,0,0,0,1,0,0,0,0,0,2,0,0,0,0,0,0,0,0,2,0,0,0,0,0],"split_type":[0,0,0,0,0,0,0,0,0,0,0,0,0,0,0,0,0,0,0,0,0,0,0,0,0,0,0,0,0,0,0],"sum_hessian":[8.5E1,3.1E1,5.4E1,2E0,2.9E1,2.5E1,2.9E1,1.9E1,1E1,9E0,1.6E1,2E1,9E0,1E0,9E0,3E0,6E0,6E0,1E1,1.8E1,2E0,8E0,1E0,2E0,1E0,4E0,2E0,9E0,1E0,2E0,2E0],"tree_param":{"num_deleted":"0","num_feature":"4","num_nodes":"31","size_leaf_vector":"1"}},{"base_weights":[-3.7746586E-2,-7.482054E0,4.2941732E0,-7.7638876E-1,-6.4280806E0,2.377758E0,6.6704698E0,-3.684641E-1,-4.1324334E0,4.683061E-1,3.224404E0,3.982711E-1,4.962016E0,-5.2564334E-2,-4.3354197E0,-5.125103E-1,9.0017605E-1,2.1065707E0,3.7126966E0,2.7047515E0,2.8323585E-1,-2.2719827E-1,-6.146269E-2,-3.223839E-2,-2.8934479E-3,4.8228607E-1,5.9874725E-2,1.1275277E-1,2.2967339E-2,1.9421029E-1,3.707695E-2,-1.1810303E-2,1.7495213E-1,4.181671E-2,-1.6262055E-3],"categories":[],"categories_nodes":[],"categories_segments":[],"categories_sizes":[],"default_left":[0,0,0,0,0,0,0,0,0,0,0,0,0,0,0,0,0,0,0,0,0,0,0,0,0,0,0,0,0,0,0,0,0,0,0],"id":31,"left_children":[1,3,5,-1,7,9,11,-1,13,15,17,-1,19,-1,21,23,25,27,29,31,-1,-1,-1,-1,-1,33,-1,-1,-1,-1,-1,-1,-1,-1,-1],"loss_changes":[2.8054697E3,1.7154565E2,2.346076E2,0E0,3.436682E1,5.0222153E1,1.3572266E1,0E0,2.3219452E0,5.1207857E0,4.187195E0,0E0,5.2986755E0,0E0,8.9208984E-1,2.0320678E-1,4.164362E-1,1.165432E0,4.25383E0,1.2506374E1,0E0,0E0,0E0,0E0,0E0,9.385389E-1,0E0,0E0,0E0,0E0,0E0,0E0,0E0,0E0,0E0],"parents":[2147483647,0,0,1,1,2,2,4,4,5,5,6,6,8,8,9,9,10,10,12,12,14,14,15,15,16,16,17,17,18,18,19,19,25,25],"right_children":[2,4,6,-1,8,10,12,-1,14,16,18,-1,20,-1,22,24,26,28,30,32,-1,-1,-1,-1,-1,34,-1,-1,-1,-1,-1,-1,-1,-1,-1],"split_conditions":[5.777197E1,9.025367E0,8.974788E1,-7.7638876E-1,3.9126457E1,7.583093E1,7E0,-3.684641E-1,3.8880886E1,6.690918E1,8.041516E1,3.982711E-1,9E0,-5.2564334E-2,5.556649E1,6.618914E1,5E0,7.953626E1,9.110202E1,9.0699875E1,2.8323585E-1,-2.2719827E-1,-6.146269E-2,-3.223839E-2,-2.8934479E-3,3E0,5.9874725E-2,1.1275277E-1,2.2967339E-2,1.9421029E-1,3.707695E-2,-1.1810303E-2,1.7495213E-1,4.181671E-2,-1.6262055E-3],"split_indices":[0,0,1,0,1,0,2,0,0,0,0,0,2,0,0,0,2,1,0,0,0,0,0,0,0,2,0,0,0,0,0,0,0,0,0],"split_type":[0,0,0,0,0,0,0,0,0,0,0,0,0,0,0,0,0,0,0,0,0,0,0,0,0,0,0,0,0,0,0,0,0,0,0],"sum_hessian":[8.5E1,3.1E1,5.4E1,2E0,2.9E1,3.1E1,2.3E1,1.9E1,1E1,1E1,2.1E1,1.1E1,1.2E1,1E0,9E0,3E0,7E0,8E0,1.3E1,4E0,8E0,8E0,1E0,2E0,1E0,4E0,3E0,7E0,1E0,1.2E1,1E0,1E0,3E0,2E0,2E0],"tree_param":{"num_deleted":"0","num_feature":"4","num_nodes":"35","size_leaf_vector":"1"}},{"base_weights":[-3.8295034E-2,-6.9822593E0,4.205948E0,-6.8970746E-1,-5.841265E0,2.3932188E0,6.372142E0,-6.318502E0,-1.09569095E-1,1.0272707E0,3.3226662E0,3.800171E-1,4.748254E0,-7.0935154E0,-2.3084001E-1,1.0285187E-1,1.3867531E0,3.4330583E0,3.614998E-2,2.6021438E0,2.706477E-1,-9.0140246E-2,-3.6630213E-1,2.9012108E-2,-8.077812E-3,7.126961E-1,1.573821E0,4.001928E0,2.292839E0,-1.1515046E-2,1.6839151E-1,4.6791587E-2,1.0822297E-3,2.2672653E-2,8.424867E-2,5.6422997E-2,2.097909E-1,2.2393227E-2,1.2462131E-1],"categories":[],"categories_nodes":[],"categories_segments":[],"categories_sizes":[],"default_left":[0,0,0,0,0,0,0,0,0,0,0,0,0,0,0,0,0,0,0,0,0,0,0,0,0,0,0,0,0,0,0,0,0,0,0,0,0,0,0],"id":32,"left_children":[1,3,5,-1,7,9,11,13,-1,15,17,-1,19,21,-1,23,25,27,-1,29,-1,-1,-1,-1,-1,31,33,35,37,-1,-1,-1,-1,-1,-1,-1,-1,-1,-1],"loss_changes":[2.5639478E3,1.759115E2,1.9679315E2,0E0,3.8409424E1,3.5943604E1,1.1778748E1,1.5405273E0,0E0,4.509741E0,2.6835938E0,0E0,4.4594727E0,6.4763184E0,0E0,7.2487104E-1,1.3928795E-1,1.8510284E0,0E0,1.1619431E1,0E0,0E0,0E0,0E0,0E0,5.965371E-1,1.0766411E-1,8.365631E-1,1.8295937E0,0E0,0E0,0E0,0E0,0E0,0E0,0E0,0E0,0E0,0E0],"parents":[2147483647,0,0,1,1,2,2,4,4,5,5,6,6,7,7,9,9,10,10,12,12,13,13,15,15,16,16,17,17,19,19,25,25,26,26,27,27,28,28],"right_children":[2,4,6,-1,8,10,12,14,-1,16,18,-1,20,22,-1,24,26,28,-1,30,-1,-1,-1,-1,-1,32,34,36,38,-1,-1,-1,-1,-1,-1,-1,-1,-1,-1],"split_conditions":[6.129373E1,1.9661749E1,8.974788E1,-6.8970746E-1,4.3695652E1,7.833418E1,7E0,3.8230007E1,-1.09569095E-1,6.8322624E1,9.110202E1,3.800171E-1,9E0,2.2581327E1,-2.3084001E-1,2E0,7.208314E1,9E0,3.614998E-2,9.0699875E1,2.706477E-1,-9.0140246E-2,-3.6630213E-1,2.9012108E-2,-8.077812E-3,7.128439E1,3E0,7.866391E1,7.8800224E1,-1.1515046E-2,1.6839151E-1,4.6791587E-2,1.0822297E-3,2.2672653E-2,8.424867E-2,5.6422997E-2,2.097909E-1,2.2393227E-2,1.2462131E-1],"split_indices":[0,0,1,0,1,1,2,1,0,0,0,0,2,1,0,2,0,2,0,0,0,0,0,0,0,0,2,1,0,0,0,0,0,0,0,0,0,0,0],"split_type":[0,0,0,0,0,0,0,0,0,0,0,0,0,0,0,0,0,0,0,0,0,0,0,0,0,0,0,0,0,0,0,0,0,0,0,0,0,0,0],"sum_hessian":[8.5E1,3.2E1,5.3E1,3E0,2.9E1,3E1,2.3E1,2.5E1,4E0,1.3E1,1.7E1,1.1E1,1.2E1,1.5E1,1E1,4E0,9E0,1.6E1,1E0,4E0,8E0,1E0,1.4E1,1E0,3E0,3E0,6E0,9E0,7E0,1E0,3E0,2E0,1E0,1E0,5E0,1E0,8E0,1E0,6E0],"tree_param":{"num_deleted":"0","num_feature":"4","num_nodes":"39","size_leaf_vector":"1"}},{"base_weights":[-3.7007377E-2,-6.8442473E0,3.9242413E0,-7.275189E-1,-5.8454924E0,1.7754285E0,5.655738E0,-3.4627712E-1,-4.1164684E0,3.2636872E-1,2.5233796E0,4.50212E0,3.7563807E-1,-2.12858E-1,-5.718689E-2,-4.642353E-1,7.315183E-1,6.881577E-2,2.770452E0,2.3097177E-1,5.389557E-2,-2.9202906E-2,-2.6191713E-3,4.524475E-1,4.7639847E-2,2.8866222E0,3.4410287E-2,3.9159395E-2,-1.4554341E-3,3.8416672E-2,1.5046726E-1],"categories":[],"categories_nodes":[],"categories_segments":[],"categories_sizes":[],"default_left":[0,0,0,0,0,0,0,0,0,0,0,0,0,0,0,0,0,0,0,0,0,0,0,0,0,0,0,0,0,0,0],"id":33,"left_children":[1,3,5,-1,7,9,11,-1,13,15,17,19,-1,-1,-1,21,23,-1,25,-1,-1,-1,-1,27,-1,29,-1,-1,-1,-1,-1],"loss_changes":[2.3458633E3,1.6123499E2,1.9459503E2,0E0,2.751416E1,2.7355919E1,3.0445496E1,0E0,9.8625183E-1,3.5427258E0,1.0049286E0,3.4565735E0,0E0,0E0,0E0,1.6680205E-1,1.1761189E-3,0E0,1.1580429E0,0E0,0E0,0E0,0E0,8.1914794E-1,0E0,8.0737305E-1,0E0,0E0,0E0,0E0,0E0],"parents":[2147483647,0,0,1,1,2,2,4,4,5,5,6,6,8,8,9,9,10,10,11,11,15,15,16,16,18,18,23,23,25,25],"right_children":[2,4,6,-1,8,10,12,-1,14,16,18,20,-1,-1,-1,22,24,-1,26,-1,-1,-1,-1,28,-1,30,-1,-1,-1,-1,-1],"split_conditions":[5.777197E1,9.025367E0,8.631539E1,-7.275189E-1,3.8230007E1,7.441431E1,9.753094E1,-3.4627712E-1,5.556649E1,6.690918E1,4E0,9.994227E1,3.7563807E-1,-2.12858E-1,-5.718689E-2,6.618914E1,5E0,6.881577E-2,8.64084E1,2.3097177E-1,5.389557E-2,-2.9202906E-2,-2.6191713E-3,3E0,4.7639847E-2,7.583093E1,3.4410287E-2,3.9159395E-2,-1.4554341E-3,3.8416672E-2,1.5046726E-1],"split_indices":[0,0,1,0,1,0,1,0,0,0,2,0,0,0,0,0,2,0,0,0,0,0,0,2,0,0,0,0,0,0,0],"split_type":[0,0,0,0,0,0,0,0,0,0,0,0,0,0,0,0,0,0,0,0,0,0,0,0,0,0,0,0,0,0,0],"sum_hessian":[8.5E1,3.1E1,5.4E1,2E0,2.9E1,2.5E1,2.9E1,1.6E1,1.3E1,9E0,1.6E1,2E1,9E0,1.2E1,1E0,3E0,6E0,4E0,1.2E1,1.9E1,1E0,2E0,1E0,4E0,2E0,1.1E1,1E0,2E0,2E0,1E0,1E1],"tree_param":{"num_deleted":"0","num_feature":"4","num_nodes":"31","size_leaf_vector":"1"}},{"base_weights":[-3.908472E-2,-6.544031E0,3.7463222E0,-7.032683E-1,-5.5737634E0,2.3496284E0,3.1345123E-1,-6.3802614E0,-3.6006975E0,7.9248583E-1,3.2629986E0,-2.589224E-1,-4.16071E-1,-4.015789E-2,-3.8001359E0,-4.4897938E-1,1.140267E0,3.7032597E0,1.7276503E0,-3.9745631E0,-5.5757236E-2,-3.338213E-2,-7.677206E-3,6.0583496E-1,1.4354564E0,2.3124485E0,4.4455824E0,7.424984E-1,2.2808895E0,-5.6027126E-2,-2.095624E-1,3.5913467E-2,1.0915756E-3,2.038536E-2,7.693984E-2,1.3875864E-1,-2.3165513E-2,2.34827E-1,5.467415E-2,6.0834248E-2,-1.7001534E-2,1.3241133E-1,2.947197E-2],"categories":[],"categories_nodes":[],"categories_segments":[],"categories_sizes":[],"default_left":[0,0,0,0,0,0,0,0,0,0,0,0,0,0,0,0,0,0,0,0,0,0,0,0,0,0,0,0,0,0,0,0,0,0,0,0,0,0,0,0,0,0,0],"id":34,"left_children":[1,3,5,-1,7,9,-1,11,13,15,17,-1,-1,-1,19,21,23,25,27,29,-1,-1,-1,31,33,35,37,39,41,-1,-1,-1,-1,-1,-1,-1,-1,-1,-1,-1,-1,-1,-1],"loss_changes":[2.142169E3,1.5512964E2,1.7905945E2,0E0,2.4764832E1,5.0037262E1,0E0,3.566162E0,3.085205E0,6.988332E0,9.149017E0,0E0,0E0,0E0,2.511444E-1,1.5589076E-1,1.0234537E0,7.2711487E0,2.1216145E0,8.6932373E-1,0E0,0E0,0E0,3.782916E-1,1.1607647E-1,1.1561047E1,3.2767487E0,2.4669933E0,9.2435837E-1,0E0,0E0,0E0,0E0,0E0,0E0,0E0,0E0,0E0,0E0,0E0,0E0,0E0,0E0],"parents":[2147483647,0,0,1,1,2,2,4,4,5,5,7,7,8,8,9,9,10,10,14,14,15,15,16,16,17,17,18,18,19,19,23,23,24,24,25,25,26,26,27,27,28,28],"right_children":[2,4,6,-1,8,10,-1,12,14,16,18,-1,-1,-1,20,22,24,26,28,30,-1,-1,-1,32,34,36,38,40,42,-1,-1,-1,-1,-1,-1,-1,-1,-1,-1,-1,-1,-1,-1],"split_conditions":[5.777197E1,9.025367E0,9.117351E1,-7.032683E-1,3.9126457E1,7.833418E1,3.1345123E-1,8E0,3.8880886E1,6.690918E1,8.9318596E1,-2.589224E-1,-4.16071E-1,-4.015789E-2,5.556649E1,6.129373E1,7.208314E1,8.296301E1,9.0699875E1,3.917961E1,-5.5757236E-2,-3.338213E-2,-7.677206E-3,7.128439E1,3E0,8.240646E1,9.172752E1,9.05712E1,9.110202E1,-5.6027126E-2,-2.095624E-1,3.5913467E-2,1.0915756E-3,2.038536E-2,7.693984E-2,1.3875864E-1,-2.3165513E-2,2.34827E-1,5.467415E-2,6.0834248E-2,-1.7001534E-2,1.3241133E-1,2.947197E-2],"split_indices":[0,0,0,0,1,1,0,2,0,0,0,0,0,0,0,0,0,0,0,1,0,0,0,0,2,0,1,0,0,0,0,0,0,0,0,0,0,0,0,0,0,0,0],"split_type":[0,0,0,0,0,0,0,0,0,0,0,0,0,0,0,0,0,0,0,0,0,0,0,0,0,0,0,0,0,0,0,0,0,0,0,0,0,0,0,0,0,0,0],"sum_hessian":[8.5E1,3.1E1,5.4E1,2E0,2.9E1,3.6E1,1.8E1,1.9E1,1E1,1.4E1,2.2E1,1.4E1,5E0,1E0,9E0,3E0,1.1E1,1.6E1,6E0,8E0,1E0,1E0,2E0,5E0,6E0,7E0,9E0,3E0,3E0,1E0,7E0,4E0,1E0,1E0,5E0,6E0,1E0,8E0,1E0,2E0,1E0,2E0,1E0],"tree_param":{"num_deleted":"0","num_feature":"4","num_nodes":"43","size_leaf_vector":"1"}},{"base_weights":[-4.552859E-2,-6.120612E0,3.6678655E0,-6.79826E-1,-5.199698E0,2.3498735E0,5.9720683E0,-6.0949974E0,-3.274224E0,9.787343E-1,3.1779287E0,3.439805E-1,4.1992884E0,-2.4683933E-1,-3.987346E-1,-3.5814252E0,-5.794061E-2,8.942566E-2,1.2939897E0,3.63874E0,1.6706554E0,2.3924947E-1,7.164447E-2,-3.915396E-2,-3.8053436E0,2.6409913E-2,-7.6158526E-3,6.4946556E-1,7.2725154E-2,2.2424698E0,4.2522554E0,7.163296E-1,2.2073174E0,-5.4626465E-2,-2.0039396E-1,4.258817E-2,1.0643005E-3,1.3833956E-1,-2.258644E-2,2.2439031E-1,5.3307343E-2,5.8806356E-2,-1.6576577E-2,1.2799773E-1,2.873516E-2],"categories":[],"categories_nodes":[],"categories_segments":[],"categories_sizes":[],"default_left":[0,0,0,0,0,0,0,0,0,0,0,0,0,0,0,0,0,0,0,0,0,0,0,0,0,0,0,0,0,0,0,0,0,0,0,0,0,0,0,0,0,0,0,0,0],"id":35,"left_children":[1,3,5,-1,7,9,11,13,15,17,19,-1,21,-1,-1,23,-1,25,27,29,31,-1,-1,-1,33,-1,-1,35,-1,37,39,41,43,-1,-1,-1,-1,-1,-1,-1,-1,-1,-1,-1,-1],"loss_changes":[1.9625391E3,1.5649634E2,1.4996014E2,0E0,3.3483826E1,3.776329E1,1.6791382E0,4.1723022E0,3.6480713E0,4.089675E0,9.201431E0,0E0,7.726181E0,0E0,0E0,3.2861328E0,0E0,6.108039E-1,1.9335175E-1,4.170578E0,2.0038853E0,0E0,0E0,0E0,5.6625366E-1,0E0,0E0,4.9018693E-1,0E0,1.1138222E1,2.7202759E0,2.3171391E0,8.3166695E-1,0E0,0E0,0E0,0E0,0E0,0E0,0E0,0E0,0E0,0E0,0E0,0E0],"parents":[2147483647,0,0,1,1,2,2,4,4,5,5,6,6,7,7,8,8,9,9,10,10,12,12,15,15,17,17,18,18,19,19,20,20,24,24,27,27,29,29,30,30,31,31,32,32],"right_children":[2,4,6,-1,8,10,12,14,16,18,20,-1,22,-1,-1,24,-1,26,28,30,32,-1,-1,-1,34,-1,-1,36,-1,38,40,42,44,-1,-1,-1,-1,-1,-1,-1,-1,-1,-1,-1,-1],"split_conditions":[6.129373E1,9.025367E0,9.117351E1,-6.79826E-1,3.9126457E1,7.866391E1,7E0,8E0,5.556649E1,6.8322624E1,8.9318596E1,3.439805E-1,9.9164955E1,-2.4683933E-1,-3.987346E-1,3.8880886E1,-5.794061E-2,2E0,7.208314E1,8.296301E1,9.0699875E1,2.3924947E-1,7.164447E-2,-3.915396E-2,3.917961E1,2.6409913E-2,-7.6158526E-3,7.128439E1,7.2725154E-2,8.240646E1,9.172752E1,9.05712E1,9.110202E1,-5.4626465E-2,-2.0039396E-1,4.258817E-2,1.0643005E-3,1.3833956E-1,-2.258644E-2,2.2439031E-1,5.3307343E-2,5.8806356E-2,-1.6576577E-2,1.2799773E-1,2.873516E-2],"split_indices":[0,0,0,0,1,1,2,2,0,0,0,0,0,0,0,0,0,2,0,0,0,0,0,0,1,0,0,0,0,0,1,0,0,0,0,0,0,0,0,0,0,0,0,0,0],"split_type":[0,0,0,0,0,0,0,0,0,0,0,0,0,0,0,0,0,0,0,0,0,0,0,0,0,0,0,0,0,0,0,0,0,0,0,0,0,0,0,0,0,0,0,0,0],"sum_hessian":[8.5E1,3.2E1,5.3E1,2E0,3E1,3.5E1,1.8E1,1.9E1,1.1E1,1.4E1,2.1E1,1E1,8E0,1.4E1,5E0,9E0,2E0,4E0,1E1,1.5E1,6E0,6E0,2E0,1E0,8E0,1E0,3E0,3E0,7E0,6E0,9E0,3E0,3E0,1E0,7E0,2E0,1E0,5E0,1E0,8E0,1E0,2E0,1E0,2E0,1E0],"tree_param":{"num_deleted":"0","num_feature":"4","num_nodes":"45","size_leaf_vector":"1"}},{"base_weights":[-4.668278E-2,-5.865416E0,3.5100741E0,-6.5716517E-1,-4.971897E0,1.9936427E0,5.322545E0,-5.3779597E0,-8.9239046E-2,8.6870956E-1,2.7578328E0,3.1931573E-1,3.9311776E0,-3.016365E-1,-1.9385685E-1,8.8711545E-2,1.1718376E0,2.8541362E0,2.8016854E-2,2.1340881E-1,6.925621E-2,2.5749588E-2,-1.4660645E-1,3.4079283E-2,6.9253735E-2,3.3449454E0,1.8838577E0,-8.326086E-3,-2.1715164E-3,4.8005104E-2,1.7516251E-1,1.1144447E-2,1.0446489E-1],"categories":[],"categories_nodes":[],"categories_segments":[],"categories_sizes":[],"default_left":[0,0,0,0,0,0,0,0,0,0,0,0,0,0,0,0,0,0,0,0,0,0,0,0,0,0,0,0,0,0,0,0,0],"id":36,"left_children":[1,3,5,-1,7,9,11,13,-1,15,17,-1,19,-1,-1,21,23,25,-1,-1,-1,-1,27,-1,-1,29,31,-1,-1,-1,-1,-1,-1],"loss_changes":[1.8004286E3,1.4924927E2,1.3780707E2,0E0,3.0520752E1,2.4253784E1,1.0416504E1,3.1430054E0,0E0,3.2061949E0,2.2100067E0,0E0,5.2422485E0,0E0,0E0,5.770581E-1,1.01350784E-1,1.7943726E0,0E0,0E0,0E0,0E0,9.870231E-4,0E0,0E0,4.1183472E-1,2.2641544E0,0E0,0E0,0E0,0E0,0E0,0E0],"parents":[2147483647,0,0,1,1,2,2,4,4,5,5,6,6,7,7,9,9,10,10,12,12,15,15,16,16,17,17,22,22,25,25,26,26],"right_children":[2,4,6,-1,8,10,12,14,-1,16,18,-1,20,-1,-1,22,24,26,-1,-1,-1,-1,28,-1,-1,30,32,-1,-1,-1,-1,-1,-1],"split_conditions":[6.129373E1,9.025367E0,8.974788E1,-6.5716517E-1,4.5017952E1,7.833418E1,7E0,3.8230007E1,-8.9239046E-2,6.8322624E1,9.110202E1,3.1931573E-1,9.9164955E1,-3.016365E-1,-1.9385685E-1,2E0,4E0,9E0,2.8016854E-2,2.1340881E-1,6.925621E-2,2.5749588E-2,1.2E1,3.4079283E-2,6.9253735E-2,7.866391E1,7.8800224E1,-8.326086E-3,-2.1715164E-3,4.8005104E-2,1.7516251E-1,1.1144447E-2,1.0446489E-1],"split_indices":[0,0,1,0,0,1,2,1,0,0,0,0,0,0,0,2,2,2,0,0,0,0,2,0,0,1,0,0,0,0,0,0,0],"split_type":[0,0,0,0,0,0,0,0,0,0,0,0,0,0,0,0,0,0,0,0,0,0,0,0,0,0,0,0,0,0,0,0,0],"sum_hessian":[8.5E1,3.2E1,5.3E1,2E0,3E1,3E1,2.3E1,2.6E1,4E0,1.3E1,1.7E1,1.1E1,1.2E1,1.6E1,1E1,4E0,9E0,1.6E1,1E0,1E1,2E0,1E0,3E0,4E0,5E0,9E0,7E0,2E0,1E0,1E0,8E0,1E0,6E0],"tree_param":{"num_deleted":"0","num_feature":"4","num_nodes":"33","size_leaf_vector":"1"}},{"base_weights":[-4.6145618E-2,-5.749E0,3.2727177E0,-6.352596E-1,-4.8617473E0,1.8138578E0,5.081501E0,-5.7488375E0,-3.437299E0,3.6649668E-1,2.4550903E0,3.905242E0,3.16887E-1,-4.4486613E0,-3.695525E-1,-1.772878E-1,-5.0683882E-2,-3.9356995E-1,7.007179E-1,1.596572E0,2.8316312E0,2.0985298E-1,6.694756E-2,-2.5793234E-1,-1.21147655E-1,-2.4826558E-2,-2.117157E-3,3.8599244E-1,4.5947265E-2,8.709073E-2,1.0865784E-2,1.6249745E-1,7.1433485E-2,3.450979E-2,-2.34375E-3],"categories":[],"categories_nodes":[],"categories_segments":[],"categories_sizes":[],"default_left":[0,0,0,0,0,0,0,0,0,0,0,0,0,0,0,0,0,0,0,0,0,0,0,0,0,0,0,0,0,0,0,0,0,0,0],"id":37,"left_children":[1,3,5,-1,7,9,11,13,15,17,19,21,-1,23,-1,-1,-1,25,27,29,31,-1,-1,-1,-1,-1,-1,33,-1,-1,-1,-1,-1,-1,-1],"loss_changes":[1.6465364E3,1.3573132E2,1.3591473E2,0E0,1.814795E1,2.879927E1,1.0713501E1,3.4175415E0,8.578491E-2,3.070116E0,2.590973E0,5.613678E0,0E0,4.759491E0,0E0,0E0,0E0,1.2362623E-1,1.9474792E-1,1.4244156E0,3.573265E0,0E0,0E0,0E0,0E0,0E0,0E0,6.9075143E-1,0E0,0E0,0E0,0E0,0E0,0E0,0E0],"parents":[2147483647,0,0,1,1,2,2,4,4,5,5,6,6,7,7,8,8,9,9,10,10,11,11,13,13,17,17,18,18,19,19,20,20,27,27],"right_children":[2,4,6,-1,8,10,12,14,16,18,20,22,-1,24,-1,-1,-1,26,28,30,32,-1,-1,-1,-1,-1,-1,34,-1,-1,-1,-1,-1,-1,-1],"split_conditions":[5.777197E1,9.025367E0,8.974788E1,-6.352596E-1,3.8230007E1,7.583093E1,9.753094E1,8E0,5.556649E1,6.690918E1,8.041516E1,9.88839E1,3.16887E-1,6E0,-3.695525E-1,-1.772878E-1,-5.0683882E-2,6.618914E1,5E0,7.953626E1,8.8288086E1,2.0985298E-1,6.694756E-2,-2.5793234E-1,-1.21147655E-1,-2.4826558E-2,-2.117157E-3,3E0,4.5947265E-2,8.709073E-2,1.0865784E-2,1.6249745E-1,7.1433485E-2,3.450979E-2,-2.34375E-3],"split_indices":[0,0,1,0,1,0,1,2,0,0,0,0,0,2,0,0,0,0,2,1,0,0,0,0,0,0,0,2,0,0,0,0,0,0,0],"split_type":[0,0,0,0,0,0,0,0,0,0,0,0,0,0,0,0,0,0,0,0,0,0,0,0,0,0,0,0,0,0,0,0,0,0,0],"sum_hessian":[8.5E1,3.1E1,5.4E1,2E0,2.9E1,3.1E1,2.3E1,1.6E1,1.3E1,1E1,2.1E1,1.4E1,9E0,1.1E1,5E0,1.2E1,1E0,3E0,7E0,8E0,1.3E1,1.2E1,2E0,7E0,4E0,2E0,1E0,4E0,3E0,7E0,1E0,9E0,4E0,2E0,2E0],"tree_param":{"num_deleted":"0","num_feature":"4","num_nodes":"35","size_leaf_vector":"1"}},{"base_weights":[-5.1223576E-2,-5.511921E0,3.1268408E0,-6.140843E-1,-4.6512136E0,2.0461001E0,2.7111277E-1,-5.505433E0,-1.6408588E-1,6.6793007E-1,2.7911582E0,-4.257819E0,-3.5415447E-1,-3.8062668E-1,9.617882E-1,2.9999106E0,1.3561661E0,-2.4664783E-1,-1.1630177E-1,-2.3999024E-2,-2.0641328E-3,5.556117E-1,6.376813E-2,7.467491E-2,3.2665079E0,-2.6743699E-2,9.813223E-2,3.3624902E-2,-3.6426545E-3,9.771996E-2,1.9022654E-1],"categories":[],"categories_nodes":[],"categories_segments":[],"categories_sizes":[],"default_left":[0,0,0,0,0,0,0,0,0,0,0,0,0,0,0,0,0,0,0,0,0,0,0,0,0,0,0,0,0,0,0],"id":38,"left_children":[1,3,5,-1,7,9,-1,11,-1,13,15,17,-1,19,21,23,25,-1,-1,-1,-1,27,-1,-1,29,-1,-1,-1,-1,-1,-1],"loss_changes":[1.5097174E3,1.2933234E2,1.2534668E2,0E0,1.702826E1,3.818155E1,0E0,3.3026733E0,0E0,4.987986E0,3.420578E0,4.176407E0,0E0,1.1504555E-1,8.197918E-1,3.5551758E0,6.7841434E0,0E0,0E0,0E0,0E0,5.632062E-1,0E0,0E0,4.5654907E0,0E0,0E0,0E0,0E0,0E0,0E0],"parents":[2147483647,0,0,1,1,2,2,4,4,5,5,7,7,9,9,10,10,11,11,13,13,14,14,15,15,16,16,21,21,24,24],"right_children":[2,4,6,-1,8,10,-1,12,-1,14,16,18,-1,20,22,24,26,-1,-1,-1,-1,28,-1,-1,30,-1,-1,-1,-1,-1,-1],"split_conditions":[5.777197E1,9.025367E0,9.409551E1,-6.140843E-1,3.8230007E1,7.833418E1,2.7111277E-1,8E0,-1.6408588E-1,6.690918E1,9.172752E1,6E0,-3.5415447E-1,6.618914E1,5E0,4E0,9.1889755E1,-2.4664783E-1,-1.1630177E-1,-2.3999024E-2,-2.0641328E-3,4E0,6.376813E-2,7.467491E-2,8.296301E1,-2.6743699E-2,9.813223E-2,3.3624902E-2,-3.6426545E-3,9.771996E-2,1.9022654E-1],"split_indices":[0,0,0,0,1,1,0,2,0,0,1,2,0,0,2,2,1,0,0,0,0,2,0,0,0,0,0,0,0,0,0],"split_type":[0,0,0,0,0,0,0,0,0,0,0,0,0,0,0,0,0,0,0,0,0,0,0,0,0,0,0,0,0,0,0],"sum_hessian":[8.5E1,3.1E1,5.4E1,2E0,2.9E1,3.8E1,1.6E1,1.6E1,1.3E1,1.4E1,2.4E1,1.1E1,5E0,3E0,1.1E1,2E1,4E0,7E0,4E0,2E0,1E0,6E0,5E0,4E0,1.6E1,1E0,3E0,5E0,1E0,6E0,1E1],"tree_param":{"num_deleted":"0","num_feature":"4","num_nodes":"31","size_leaf_vector":"1"}},{"base_weights":[-5.7062127E-2,-5.156472E0,3.0603008E0,-5.936148E-1,-4.340216E0,2.0354366E0,2.5855777E-1,-4.702704E0,-7.573689E-2,8.268031E-1,2.706023E0,-2.3948649E-1,-6.100092E-2,8.549957E-2,1.0885953E0,2.9620917E0,6.8515587E-1,2.3402596E-2,-6.3575744E-3,5.412712E-1,6.1309148E-2,3.108541E0,1.0472158E0,-2.6075173E-2,6.306051E-2,3.6482368E-2,-5.9642794E-4,6.822939E-2,1.6751228E-1,8.151245E-3,7.038994E-2],"categories":[],"categories_nodes":[],"categories_segments":[],"categories_sizes":[],"default_left":[0,0,0,0,0,0,0,0,0,0,0,0,0,0,0,0,0,0,0,0,0,0,0,0,0,0,0,0,0,0,0],"id":39,"left_children":[1,3,5,-1,7,9,-1,11,-1,13,15,-1,-1,17,19,21,23,-1,-1,25,-1,27,29,-1,-1,-1,-1,-1,-1,-1,-1],"loss_changes":[1.3828976E3,1.2937213E2,1.0629477E2,0E0,2.4626953E1,2.856137E1,0E0,2.3396606E0,0E0,2.8179379E0,1.039006E1,0E0,0E0,4.662643E-1,1.646576E-1,2.6337585E0,3.4381304E0,0E0,0E0,4.25542E-1,0E0,3.4371948E0,7.269664E-1,0E0,0E0,0E0,0E0,0E0,0E0,0E0,0E0],"parents":[2147483647,0,0,1,1,2,2,4,4,5,5,7,7,9,9,10,10,13,13,14,14,15,15,16,16,19,19,21,21,22,22],"right_children":[2,4,6,-1,8,10,-1,12,-1,14,16,-1,-1,18,20,22,24,-1,-1,26,-1,28,30,-1,-1,-1,-1,-1,-1,-1,-1],"split_conditions":[6.129373E1,9.025367E0,9.253734E1,-5.936148E-1,4.3695652E1,7.866391E1,2.5855777E-1,4.5017952E1,-7.573689E-2,6.8322624E1,9.187017E1,-2.3948649E-1,-6.100092E-2,2E0,7.208314E1,1.2E1,9.1889755E1,2.3402596E-2,-6.3575744E-3,7.128439E1,6.1309148E-2,4E0,7.8800224E1,-2.6075173E-2,6.306051E-2,3.6482368E-2,-5.9642794E-4,6.822939E-2,1.6751228E-1,8.151245E-3,7.038994E-2],"split_indices":[0,0,1,0,1,1,0,0,0,0,1,0,0,2,0,2,1,0,0,0,0,2,0,0,0,0,0,0,0,0,0],"split_type":[0,0,0,0,0,0,0,0,0,0,0,0,0,0,0,0,0,0,0,0,0,0,0,0,0,0,0,0,0,0,0],"sum_hessian":[8.5E1,3.2E1,5.3E1,2E0,3E1,3.7E1,1.6E1,2.6E1,4E0,1.4E1,2.3E1,2.5E1,1E0,4E0,1E1,2E1,3E0,1E0,3E0,3E0,7E0,1.8E1,2E0,1E0,2E0,2E0,1E0,3E0,1.5E1,1E0,1E0],"tree_param":{"num_deleted":"0","num_feature":"4","num_nodes":"31","size_leaf_vector":"1"}},{"base_weights":[-5.7067007E-2,-5.049846E0,2.8488603E0,-5.738277E-1,-4.2388473E0,1.2766227E0,4.116504E0,-5.0469456E0,-2.9548104E0,2.4107094E-1,1.8106753E0,3.2255595E0,2.7879187E-1,-3.855645E0,-3.2941946E-1,-1.5242498E-1,-4.342127E-2,-3.459978E-1,2.7105004E-2,1.9377782E0,2.8580094E-2,1.7082404E-1,4.7060266E-2,-2.253795E-1,-1.02070205E-1,-2.1830814E-2,-1.8535614E-3,1.3644645E0,1.285169E-1,7.403747E-2,7.947541E-3],"categories":[],"categories_nodes":[],"categories_segments":[],"categories_sizes":[],"default_left":[0,0,0,0,0,0,0,0,0,0,0,0,0,0,0,0,0,0,0,0,0,0,0,0,0,0,0,0,0,0,0],"id":40,"left_children":[1,3,5,-1,7,9,11,13,15,17,19,21,-1,23,-1,-1,-1,25,-1,27,-1,-1,-1,-1,-1,-1,-1,29,-1,-1,-1],"loss_changes":[1.2621305E3,1.18138306E2,1.0436182E2,0E0,1.6216064E1,1.3942516E1,2.1020355E1,5.814972E0,8.919525E-2,1.9548135E0,1.5696945E0,5.943161E0,0E0,4.9916077E0,0E0,0E0,0E0,9.579188E-2,0E0,1.9326859E0,0E0,0E0,0E0,0E0,0E0,0E0,0E0,1.1664639E0,0E0,0E0,0E0],"parents":[2147483647,0,0,1,1,2,2,4,4,5,5,6,6,7,7,8,8,9,9,10,10,11,11,13,13,17,17,19,19,27,27],"right_children":[2,4,6,-1,8,10,12,14,16,18,20,22,-1,24,-1,-1,-1,26,-1,28,-1,-1,-1,-1,-1,-1,-1,30,-1,-1,-1],"split_conditions":[5.777197E1,9.025367E0,8.631539E1,-5.738277E-1,3.8230007E1,7.441431E1,9.753094E1,8E0,5.556649E1,6.690918E1,8.604449E1,9.88839E1,2.7879187E-1,6E0,-3.2941946E-1,-1.5242498E-1,-4.342127E-2,6.618914E1,2.7105004E-2,8.041516E1,2.8580094E-2,1.7082404E-1,4.7060266E-2,-2.253795E-1,-1.02070205E-1,-2.1830814E-2,-1.8535614E-3,7.953626E1,1.285169E-1,7.403747E-2,7.947541E-3],"split_indices":[0,0,1,0,1,0,1,2,0,0,1,0,0,2,0,0,0,0,0,0,0,0,0,0,0,0,0,1,0,0,0],"split_type":[0,0,0,0,0,0,0,0,0,0,0,0,0,0,0,0,0,0,0,0,0,0,0,0,0,0,0,0,0,0,0],"sum_hessian":[8.5E1,3.1E1,5.4E1,2E0,2.9E1,2.5E1,2.9E1,1.6E1,1.3E1,9E0,1.6E1,2E1,9E0,1.1E1,5E0,1.2E1,1E0,3E0,6E0,1.4E1,2E0,1.8E1,2E0,7E0,4E0,2E0,1E0,9E0,5E0,8E0,1E0],"tree_param":{"num_deleted":"0","num_feature":"4","num_nodes":"31","size_leaf_vector":"1"}},{"base_weights":[-6.2206123E-2,-4.8419337E0,2.7198572E0,-5.0769037E-1,-3.9422982E0,1.4961407E0,4.238152E0,-4.523397E0,-2.5801919E0,3.0253255E-1,2.0249383E0,3.6031606E0,3.2561588E-1,-3.4329503E0,-3.1569365E-1,-1.6894269E0,-1.858337E-1,-3.3461952E-1,5.83292E-1,1.163463E0,2.2752752E0,3.9003673E0,1.8720261E0,-4.456978E-2,-1.7799428E-1,-1.4996625E-2,-9.225393E-2,-2.5208283E-2,-5.5024466E-3,3.214081E-1,3.8241196E-2,7.922554E-2,3.390709E-2,1.4931312E-1,1.3904784E0,2.6722946E0,2.2463945E-1,1.0445299E-1,2.5097275E-2,3.0337144E-2,-3.553136E-3,9.29509E-2,3.2192152E-2,1.9883823E-1,5.471298E-2],"categories":[],"categories_nodes":[],"categories_segments":[],"categories_sizes":[],"default_left":[0,0,0,0,0,0,0,0,0,0,0,0,0,0,0,0,0,0,0,0,0,0,0,0,0,0,0,0,0,0,0,0,0,0,0,0,0,0,0,0,0,0,0,0,0],"id":41,"left_children":[1,3,5,-1,7,9,11,13,15,17,19,21,-1,23,-1,25,-1,27,29,31,33,35,37,-1,-1,-1,-1,-1,-1,39,-1,-1,-1,-1,41,43,-1,-1,-1,-1,-1,-1,-1,-1,-1],"loss_changes":[1.1567548E3,1.12890625E2,9.5847015E1,0E0,1.1282806E1,1.958506E1,1.1192902E1,1.5420715E1,4.856674E0,2.1629324E0,2.0973053E0,3.5029907E0,0E0,1.3433228E0,0E0,1.1768169E0,0E0,9.6817404E-2,1.345017E-1,3.558817E-1,5.9129333E0,3.6206055E-1,4.381752E-1,0E0,0E0,0E0,0E0,0E0,0E0,6.030447E-1,0E0,0E0,0E0,0E0,1.9515362E0,1.2116383E1,0E0,0E0,0E0,0E0,0E0,0E0,0E0,0E0,0E0],"parents":[2147483647,0,0,1,1,2,2,4,4,5,5,6,6,7,7,8,8,9,9,10,10,11,11,13,13,15,15,17,17,18,18,19,19,20,20,21,21,22,22,29,29,34,34,35,35],"right_children":[2,4,6,-1,8,10,12,14,16,18,20,22,-1,24,-1,26,-1,28,30,32,34,36,38,-1,-1,-1,-1,-1,-1,40,-1,-1,-1,-1,42,44,-1,-1,-1,-1,-1,-1,-1,-1,-1],"split_conditions":[5.777197E1,1.9661749E1,8.974788E1,-5.0769037E-1,3.9126457E1,7.583093E1,1.0209448E2,8E0,1E1,6.690918E1,4E0,9.9164955E1,3.2561588E-1,2.327333E1,-3.1569365E-1,3.8880886E1,-1.858337E-1,6.129373E1,5E0,2E0,9E0,9.409551E1,8E0,-4.456978E-2,-1.7799428E-1,-1.4996625E-2,-9.225393E-2,-2.5208283E-2,-5.5024466E-3,3E0,3.8241196E-2,7.922554E-2,3.390709E-2,1.4931312E-1,8.173604E1,9.172752E1,2.2463945E-1,1.0445299E-1,2.5097275E-2,3.0337144E-2,-3.553136E-3,9.29509E-2,3.2192152E-2,1.9883823E-1,5.471298E-2],"split_indices":[0,0,1,0,1,0,0,2,2,0,2,0,0,0,0,0,0,0,2,2,2,0,2,0,0,0,0,0,0,2,0,0,0,0,0,1,0,0,0,0,0,0,0,0,0],"split_type":[0,0,0,0,0,0,0,0,0,0,0,0,0,0,0,0,0,0,0,0,0,0,0,0,0,0,0,0,0,0,0,0,0,0,0,0,0,0,0,0,0,0,0,0,0],"sum_hessian":[8.5E1,3.1E1,5.4E1,3E0,2.8E1,3.1E1,2.3E1,1.8E1,1E1,1E1,2.1E1,2E1,3E0,1.3E1,5E0,7E0,3E0,3E0,7E0,6E0,1.5E1,1.6E1,4E0,1E0,1.2E1,1E0,6E0,1E0,2E0,4E0,3E0,2E0,4E0,7E0,8E0,7E0,9E0,3E0,1E0,2E0,2E0,4E0,4E0,3E0,4E0],"tree_param":{"num_deleted":"0","num_feature":"4","num_nodes":"45","size_leaf_vector":"1"}},{"base_weights":[-5.8906723E-2,-4.5308166E0,2.6750178E0,-5.3777707E-1,-3.7822683E0,1.771126E0,4.538128E0,-4.4505553E0,-2.3532677E0,8.5914105E-1,2.468488E0,3.7196965E0,3.1340533E-1,-3.5137558E0,-3.0253977E-1,-1.4621735E-2,-2.5140312E0,2.9040337E-1,1.1946647E0,2.7707922E0,4.909973E-1,2.1527043E-1,1.8043334E0,-1.976643E-1,-9.220188E-2,-2.7855606E0,-4.307162E-2,-1.0638174E-1,4.4039536E-1,6.4621545E-2,5.425072E-3,1.1841011E0,1.5045951E-1,-3.1061554E-2,5.3440858E-2,1.0053597E-1,2.4469757E-2,-2.7775956E-2,-1.497438E-1,-6.308937E-3,-1.669693E-3,2.6891861E-2,-1.1703492E-3,6.771355E-2,1.6839791E-2],"categories":[],"categories_nodes":[],"categories_segments":[],"categories_sizes":[],"default_left":[0,0,0,0,0,0,0,0,0,0,0,0,0,0,0,0,0,0,0,0,0,0,0,0,0,0,0,0,0,0,0,0,0,0,0,0,0,0,0,0,0,0,0,0,0],"id":42,"left_children":[1,3,5,-1,7,9,11,13,15,17,19,21,-1,23,-1,-1,25,27,29,31,33,-1,35,-1,-1,37,-1,39,41,-1,-1,43,-1,-1,-1,-1,-1,-1,-1,-1,-1,-1,-1,-1,-1],"loss_changes":[1.0635443E3,1.13083374E2,8.290109E1,0E0,1.9131104E1,2.2046608E1,7.543335E-1,8.721069E0,3.2404861E0,3.0879145E0,1.1193436E1,7.9375E0,0E0,3.7183685E0,0E0,0E0,2.5364532E0,5.229667E-1,1.0278578E0,3.2455597E0,3.234653E0,0E0,3.7288666E-1,0E0,0E0,2.537323E0,0E0,1.2123212E-4,2.8375173E-1,0E0,0E0,1.2063074E-1,0E0,0E0,0E0,0E0,0E0,0E0,0E0,0E0,0E0,0E0,0E0,0E0,0E0],"parents":[2147483647,0,0,1,1,2,2,4,4,5,5,6,6,7,7,8,8,9,9,10,10,11,11,13,13,16,16,17,17,18,18,19,19,20,20,22,22,25,25,27,27,28,28,31,31],"right_children":[2,4,6,-1,8,10,12,14,16,18,20,22,-1,24,-1,-1,26,28,30,32,34,-1,36,-1,-1,38,-1,40,42,-1,-1,44,-1,-1,-1,-1,-1,-1,-1,-1,-1,-1,-1,-1,-1],"split_conditions":[6.129373E1,9.025367E0,9.253734E1,-5.3777707E-1,3.9126457E1,8.041516E1,1.0209448E2,8E0,3.8880886E1,7.208314E1,9.187017E1,9.9164955E1,3.1340533E-1,6E0,-3.0253977E-1,-1.4621735E-2,5.556649E1,6.690918E1,7.953626E1,4E0,9.1889755E1,2.1527043E-1,8E0,-1.976643E-1,-9.220188E-2,3.917961E1,-4.307162E-2,6.618914E1,7.128439E1,6.4621545E-2,5.425072E-3,8.587437E1,1.5045951E-1,-3.1061554E-2,5.3440858E-2,1.0053597E-1,2.4469757E-2,-2.7775956E-2,-1.497438E-1,-6.308937E-3,-1.669693E-3,2.6891861E-2,-1.1703492E-3,6.771355E-2,1.6839791E-2],"split_indices":[0,0,1,0,1,0,0,2,0,0,1,0,0,2,0,0,0,0,1,2,1,0,2,0,0,1,0,0,0,0,0,0,0,0,0,0,0,0,0,0,0,0,0,0,0],"split_type":[0,0,0,0,0,0,0,0,0,0,0,0,0,0,0,0,0,0,0,0,0,0,0,0,0,0,0,0,0,0,0,0,0,0,0,0,0,0,0,0,0,0,0,0,0],"sum_hessian":[8.5E1,3.2E1,5.3E1,2E0,3E1,3.7E1,1.6E1,1.9E1,1.1E1,1.7E1,2E1,1.3E1,3E0,1.4E1,5E0,1E0,1E1,7E0,1E1,1.7E1,3E0,9E0,4E0,1E1,4E0,8E0,2E0,2E0,5E0,9E0,1E0,3E0,1.4E1,1E0,2E0,3E0,1E0,1E0,7E0,1E0,1E0,4E0,1E0,2E0,1E0],"tree_param":{"num_deleted":"0","num_feature":"4","num_nodes":"45","size_leaf_vector":"1"}},{"base_weights":[-6.022339E-2,-4.345651E0,2.5597644E0,-5.1985115E-1,-3.6198523E0,1.6916534E0,4.3496737E0,-3.9260142E0,-6.213039E-2,8.21061E-1,2.3573205E0,3.5580177E0,3.0165252E-1,-4.4216E0,-1.4015992E-1,2.781E-1,1.1412998E0,2.6453094E0,4.7204018E-1,2.0558324E-1,1.7391205E0,-3.364594E0,-2.8993395E-1,-1.0372162E-1,4.2266083E-1,6.1713602E-2,5.289459E-3,1.1460361E0,2.8687618E0,-3.0285073E-2,5.1659394E-2,9.6765995E-2,2.385807E-2,-1.970234E-1,-8.8513836E-2,-6.1511993E-3,-1.627922E-3,2.5816116E-2,-1.1411667E-3,2.5877252E-2,7.578774E-2,1.6155045E-1,8.934447E-2],"categories":[],"categories_nodes":[],"categories_segments":[],"categories_sizes":[],"default_left":[0,0,0,0,0,0,0,0,0,0,0,0,0,0,0,0,0,0,0,0,0,0,0,0,0,0,0,0,0,0,0,0,0,0,0,0,0,0,0,0,0,0,0],"id":43,"left_children":[1,3,5,-1,7,9,11,13,-1,15,17,19,-1,21,-1,23,25,27,29,-1,31,33,-1,35,37,-1,-1,39,41,-1,-1,-1,-1,-1,-1,-1,-1,-1,-1,-1,-1,-1,-1],"loss_changes":[9.76712E2,1.0730298E2,7.6549194E1,0E0,1.768396E1,2.0086433E1,1.1894531E0,2.6295776E0,0E0,2.812395E0,1.0153046E1,6.947693E0,0E0,5.23468E0,0E0,4.8541057E-1,9.2843723E-1,2.7425842E0,3.0448923E0,0E0,3.1451797E-1,4.041794E0,0E0,1.1538714E-4,2.621324E-1,0E0,0E0,1.4498806E-1,1.0512543E-1,0E0,0E0,0E0,0E0,0E0,0E0,0E0,0E0,0E0,0E0,0E0,0E0,0E0,0E0],"parents":[2147483647,0,0,1,1,2,2,4,4,5,5,6,6,7,7,9,9,10,10,11,11,13,13,15,15,16,16,17,17,18,18,20,20,21,21,23,23,24,24,27,27,28,28],"right_children":[2,4,6,-1,8,10,12,14,-1,16,18,20,-1,22,-1,24,26,28,30,-1,32,34,-1,36,38,-1,-1,40,42,-1,-1,-1,-1,-1,-1,-1,-1,-1,-1,-1,-1,-1,-1],"split_conditions":[6.129373E1,9.025367E0,9.253734E1,-5.1985115E-1,4.3695652E1,8.041516E1,1.0209448E2,3.8230007E1,-6.213039E-2,7.208314E1,9.187017E1,9.9164955E1,3.0165252E-1,8E0,-1.4015992E-1,6.690918E1,7.953626E1,4E0,9.1889755E1,2.0558324E-1,8E0,6E0,-2.8993395E-1,6.618914E1,7.128439E1,6.1713602E-2,5.289459E-3,8.734476E1,8.9318596E1,-3.0285073E-2,5.1659394E-2,9.6765995E-2,2.385807E-2,-1.970234E-1,-8.8513836E-2,-6.1511993E-3,-1.627922E-3,2.5816116E-2,-1.1411667E-3,2.5877252E-2,7.578774E-2,1.6155045E-1,8.934447E-2],"split_indices":[0,0,1,0,1,0,0,1,0,0,1,0,0,2,0,0,1,2,1,0,2,2,0,0,0,0,0,1,0,0,0,0,0,0,0,0,0,0,0,0,0,0,0],"split_type":[0,0,0,0,0,0,0,0,0,0,0,0,0,0,0,0,0,0,0,0,0,0,0,0,0,0,0,0,0,0,0,0,0,0,0,0,0,0,0,0,0,0,0],"sum_hessian":[8.5E1,3.2E1,5.3E1,2E0,3E1,3.7E1,1.6E1,2.6E1,4E0,1.7E1,2E1,1.3E1,3E0,1.6E1,1E1,7E0,1E1,1.7E1,3E0,9E0,4E0,1.1E1,5E0,2E0,5E0,9E0,1E0,3E0,1.4E1,1E0,2E0,3E0,1E0,7E0,4E0,1E0,1E0,4E0,1E0,2E0,1E0,9E0,5E0],"tree_param":{"num_deleted":"0","num_feature":"4","num_nodes":"43","size_leaf_vector":"1"}},{"base_weights":[-5.9676625E-2,-4.2704954E0,2.3913393E0,-5.0252277E-1,-3.5501497E0,1.2964375E0,3.7515695E0,-4.234371E0,-2.4657273E0,2.59595E-1,1.7559298E0,3.1814485E0,2.9034063E-1,-3.2201586E0,-2.7785337E-1,-1.9164265E0,-1.6799365E-1,-2.9532814E-1,5.046072E-1,1.9188741E0,8.181442E-1,1.7184989E-1,1.6762909E0,-1.8840356E-1,-8.4973335E-2,-1.2776448E-1,-1.1863207E0,-1.8630346E-2,-1.5872956E-3,2.7953187E-1,3.298998E-2,1.3211638E0,1.3346978E-1,9.703827E-3,4.62821E-2,9.313736E-2,2.3261642E-2,-1.0752201E-2,-6.561797E-2,2.7568946E-2,-4.274623E-3,8.063521E-2,-4.714451E-2],"categories":[],"categories_nodes":[],"categories_segments":[],"categories_sizes":[],"default_left":[0,0,0,0,0,0,0,0,0,0,0,0,0,0,0,0,0,0,0,0,0,0,0,0,0,0,0,0,0,0,0,0,0,0,0,0,0,0,0,0,0,0,0],"id":44,"left_children":[1,3,5,-1,7,9,11,13,15,17,19,21,-1,23,-1,25,-1,27,29,31,33,-1,35,-1,-1,-1,37,-1,-1,39,-1,41,-1,-1,-1,-1,-1,-1,-1,-1,-1,-1,-1],"loss_changes":[8.977997E2,9.755365E1,7.704883E1,0E0,1.1818756E1,1.4789646E1,9.647614E0,4.9107666E0,4.372177E-1,1.6446168E0,1.791832E0,2.3160706E0,0E0,3.5947647E0,0E0,2.0994186E0,0E0,6.9648474E-2,9.50048E-2,4.5479965E0,1.5578413E-1,0E0,2.624359E-1,0E0,0E0,0E0,5.747137E-1,0E0,0E0,5.4329264E-1,0E0,9.441359E0,0E0,0E0,0E0,0E0,0E0,0E0,0E0,0E0,0E0,0E0,0E0],"parents":[2147483647,0,0,1,1,2,2,4,4,5,5,6,6,7,7,8,8,9,9,10,10,11,11,13,13,15,15,17,17,18,18,19,19,20,20,22,22,26,26,29,29,31,31],"right_children":[2,4,6,-1,8,10,12,14,16,18,20,22,-1,24,-1,26,-1,28,30,32,34,-1,36,-1,-1,-1,38,-1,-1,40,-1,42,-1,-1,-1,-1,-1,-1,-1,-1,-1,-1,-1],"split_conditions":[5.777197E1,9.025367E0,8.974788E1,-5.0252277E-1,3.8230007E1,7.583093E1,1.0209448E2,8E0,1E1,6.690918E1,8.8288086E1,9.9164955E1,2.9034063E-1,6E0,-2.7785337E-1,6E0,-1.6799365E-1,6.618914E1,5E0,8.296301E1,8.944845E1,1.7184989E-1,8E0,-1.8840356E-1,-8.4973335E-2,-1.2776448E-1,3.8880886E1,-1.8630346E-2,-1.5872956E-3,3E0,3.298998E-2,8.240646E1,1.3346978E-1,9.703827E-3,4.62821E-2,9.313736E-2,2.3261642E-2,-1.0752201E-2,-6.561797E-2,2.7568946E-2,-4.274623E-3,8.063521E-2,-4.714451E-2],"split_indices":[0,0,1,0,1,0,0,2,2,0,0,0,0,2,0,2,0,0,2,0,0,0,2,0,0,0,0,0,0,2,0,0,0,0,0,0,0,0,0,0,0,0,0],"split_type":[0,0,0,0,0,0,0,0,0,0,0,0,0,0,0,0,0,0,0,0,0,0,0,0,0,0,0,0,0,0,0,0,0,0,0,0,0,0,0,0,0,0,0],"sum_hessian":[8.5E1,3.1E1,5.4E1,2E0,2.9E1,3.1E1,2.3E1,1.6E1,1.3E1,1E1,2.1E1,2E1,3E0,1.1E1,5E0,1E1,3E0,3E0,7E0,1.7E1,4E0,1.6E1,4E0,7E0,4E0,4E0,6E0,2E0,1E0,4E0,3E0,1.1E1,6E0,1E0,3E0,3E0,1E0,1E0,5E0,2E0,2E0,1E1,1E0],"tree_param":{"num_deleted":"0","num_feature":"4","num_nodes":"43","size_leaf_vector":"1"}},{"base_weights":[-6.353378E-2,-4.101529E0,2.2870007E0,-4.8577198E-1,-3.4034207E0,1.4106629E0,3.8731847E0,-4.0550776E0,-2.3690212E0,4.675059E-1,1.9644321E0,2.5173628E-1,2.9498022E0,-3.081932E0,-2.6627615E-1,-1.839163E0,-1.6169381E-1,-2.8561592E-1,6.7958766E-1,2.3468802E0,7.549962E-1,1.6815919E-1,1.6157547E0,-1.8016088E-1,-8.157444E-2,-1.2265384E-1,-1.1379155E0,-2.1482278E-2,-4.7195437E-3,3.6500332E-1,4.666691E-2,1.441113E0,2.9918833E0,4.7790527E-2,1.2734528E0,8.9644626E-2,2.2680093E-2,-1.0483361E-2,-6.288395E-2,2.3022717E-2,-5.192566E-3,9.049737E-2,5.006409E-3,1.6209312E-1,2.4801254E-2,2.5735473E-2,-3.3824157E-2,7.515361E-2,1.4614868E-2],"categories":[],"categories_nodes":[],"categories_segments":[],"categories_sizes":[],"default_left":[0,0,0,0,0,0,0,0,0,0,0,0,0,0,0,0,0,0,0,0,0,0,0,0,0,0,0,0,0,0,0,0,0,0,0,0,0,0,0,0,0,0,0,0,0,0,0,0,0],"id":45,"left_children":[1,3,5,-1,7,9,11,13,15,17,19,-1,21,23,-1,25,-1,27,29,31,33,-1,35,-1,-1,-1,37,-1,-1,39,-1,41,43,45,47,-1,-1,-1,-1,-1,-1,-1,-1,-1,-1,-1,-1,-1,-1],"loss_changes":[8.2564465E2,9.234613E1,7.098807E1,0E0,1.0615631E1,1.8406395E1,5.5269165E0,4.6046753E0,4.6788788E-1,2.589952E0,8.866684E0,0E0,1.7350388E0,3.1945267E0,0E0,1.9441681E0,0E0,6.9613665E-2,6.1723995E-1,5.6201477E0,2.505729E0,0E0,2.1604729E-1,0E0,0E0,0E0,5.1449776E-1,0E0,0E0,3.6108732E-1,0E0,4.2701855E0,4.007164E0,1.7009008E0,4.6182537E-1,0E0,0E0,0E0,0E0,0E0,0E0,0E0,0E0,0E0,0E0,0E0,0E0,0E0,0E0],"parents":[2147483647,0,0,1,1,2,2,4,4,5,5,6,6,7,7,8,8,9,9,10,10,12,12,13,13,15,15,17,17,18,18,19,19,20,20,22,22,26,26,29,29,31,31,32,32,33,33,34,34],"right_children":[2,4,6,-1,8,10,12,14,16,18,20,-1,22,24,-1,26,-1,28,30,32,34,-1,36,-1,-1,-1,38,-1,-1,40,-1,42,44,46,48,-1,-1,-1,-1,-1,-1,-1,-1,-1,-1,-1,-1,-1,-1],"split_conditions":[5.777197E1,9.025367E0,9.117351E1,-4.8577198E-1,3.8230007E1,7.833418E1,5E0,8E0,1E1,6.690918E1,8.9318596E1,2.5173628E-1,9.9164955E1,6E0,-2.6627615E-1,6E0,-1.6169381E-1,6.129373E1,5E0,8.432142E1,9.0699875E1,1.6815919E-1,8E0,-1.8016088E-1,-8.157444E-2,-1.2265384E-1,3.8880886E1,-2.1482278E-2,-4.7195437E-3,4E0,4.666691E-2,8.240646E1,9.172752E1,9.05712E1,9.110202E1,8.9644626E-2,2.2680093E-2,-1.0483361E-2,-6.288395E-2,2.3022717E-2,-5.192566E-3,9.049737E-2,5.006409E-3,1.6209312E-1,2.4801254E-2,2.5735473E-2,-3.3824157E-2,7.515361E-2,1.4614868E-2],"split_indices":[0,0,0,0,1,1,2,2,2,0,0,0,0,2,0,2,0,0,2,1,0,0,2,0,0,0,0,0,0,2,0,0,1,0,0,0,0,0,0,0,0,0,0,0,0,0,0,0,0],"split_type":[0,0,0,0,0,0,0,0,0,0,0,0,0,0,0,0,0,0,0,0,0,0,0,0,0,0,0,0,0,0,0,0,0,0,0,0,0,0,0,0,0,0,0,0,0,0,0,0,0],"sum_hessian":[8.5E1,3.1E1,5.4E1,2E0,2.9E1,3.6E1,1.8E1,1.6E1,1.3E1,1.4E1,2.2E1,6E0,1.2E1,1.1E1,5E0,1E1,3E0,3E0,1.1E1,1.6E1,6E0,8E0,4E0,7E0,4E0,4E0,6E0,1E0,2E0,6E0,5E0,8E0,8E0,3E0,3E0,3E0,1E0,1E0,5E0,5E0,1E0,6E0,2E0,7E0,1E0,2E0,1E0,2E0,1E0],"tree_param":{"num_deleted":"0","num_feature":"4","num_nodes":"49","size_leaf_vector":"1"}},{"base_weights":[-6.5438315E-2,-3.8453274E0,2.2457058E0,-4.2796323E-1,-3.088625E0,1.4692471E0,3.8492188E0,-3.3513927E0,-5.5225372E-2,7.0320934E-1,2.0558867E0,3.131123E0,2.7001247E-1,-2.5679517E0,-4.3481035E0,8.5975593E-1,-5.964279E-2,2.3351772E0,2.8510857E-1,1.8024285E-1,1.557431E0,-1.5125959E-1,-7.4129075E-2,-2.5162753E-1,-2.0632954E0,4.1390774E-1,1.1109984E0,-9.124247E-2,8.789063E-4,9.5114326E-1,2.5485742E0,-3.297863E-2,4.099299E-2,8.6282924E-2,2.2113038E-2,-1.022129E-2,-1.3073884E-1,9.157435E-3,2.347908E-2,2.2777684E-2,6.1659463E-2,-5.4136277E-3,-1.4295578E-3,1.9073613E-2,6.6503905E-2,1.4431465E-1,7.804737E-2],"categories":[],"categories_nodes":[],"categories_segments":[],"categories_sizes":[],"default_left":[0,0,0,0,0,0,0,0,0,0,0,0,0,0,0,0,0,0,0,0,0,0,0,0,0,0,0,0,0,0,0,0,0,0,0,0,0,0,0,0,0,0,0,0,0,0,0],"id":46,"left_children":[1,3,5,-1,7,9,11,13,-1,15,17,19,-1,21,23,25,27,29,31,-1,33,-1,-1,-1,35,37,39,41,-1,43,45,-1,-1,-1,-1,-1,-1,-1,-1,-1,-1,-1,-1,-1,-1,-1,-1],"loss_changes":[7.5992017E2,9.1276245E1,6.157785E1,0E0,1.1939209E1,1.5631035E1,2.0255737E0,9.136749E0,0E0,2.2008724E0,9.720009E0,4.82283E0,0E0,3.9515762E0,5.254669E0,1.2203884E0,1.1364496E-2,2.8922195E0,2.5614347E0,0E0,1.7481995E-1,0E0,0E0,0E0,3.566E0,3.9275885E-3,1.5901947E-1,1.0523386E-4,0E0,3.5608482E-1,4.977417E-1,0E0,0E0,0E0,0E0,0E0,0E0,0E0,0E0,0E0,0E0,0E0,0E0,0E0,0E0,0E0,0E0],"parents":[2147483647,0,0,1,1,2,2,4,4,5,5,6,6,7,7,9,9,10,10,11,11,13,13,14,14,15,15,16,16,17,17,18,18,20,20,24,24,25,25,26,26,27,27,29,29,30,30],"right_children":[2,4,6,-1,8,10,12,14,-1,16,18,20,-1,22,24,26,28,30,32,-1,34,-1,-1,-1,36,38,40,42,-1,44,46,-1,-1,-1,-1,-1,-1,-1,-1,-1,-1,-1,-1,-1,-1,-1,-1],"split_conditions":[6.129373E1,1.9661749E1,9.253734E1,-4.2796323E-1,4.5017952E1,8.041516E1,1.0209448E2,8E0,-5.5225372E-2,1.1E1,9.187017E1,9.9164955E1,2.7001247E-1,6E0,4.0564056E1,7.441431E1,6.690918E1,4E0,9.1889755E1,1.8024285E-1,8E0,-1.5125959E-1,-7.4129075E-2,-2.5162753E-1,3.8880886E1,6.8322624E1,3E0,6.618914E1,8.789063E-4,8.734476E1,8.9318596E1,-3.297863E-2,4.099299E-2,8.6282924E-2,2.2113038E-2,-1.022129E-2,-1.3073884E-1,9.157435E-3,2.347908E-2,2.2777684E-2,6.1659463E-2,-5.4136277E-3,-1.4295578E-3,1.9073613E-2,6.6503905E-2,1.4431465E-1,7.804737E-2],"split_indices":[0,0,1,0,0,0,0,2,0,2,1,0,0,2,1,0,0,2,1,0,2,0,0,0,0,0,2,0,0,1,0,0,0,0,0,0,0,0,0,0,0,0,0,0,0,0,0],"split_type":[0,0,0,0,0,0,0,0,0,0,0,0,0,0,0,0,0,0,0,0,0,0,0,0,0,0,0,0,0,0,0,0,0,0,0,0,0,0,0,0,0,0,0,0,0,0,0],"sum_hessian":[8.5E1,3.2E1,5.3E1,3E0,2.9E1,3.7E1,1.6E1,2.5E1,4E0,1.7E1,2E1,1.3E1,3E0,1.6E1,9E0,1.4E1,3E0,1.7E1,3E0,9E0,4E0,1E1,6E0,6E0,3E0,6E0,8E0,2E0,1E0,3E0,1.4E1,1E0,2E0,3E0,1E0,1E0,2E0,2E0,4E0,2E0,6E0,1E0,1E0,2E0,1E0,9E0,5E0],"tree_param":{"num_deleted":"0","num_feature":"4","num_nodes":"47","size_leaf_vector":"1"}},{"base_weights":[-6.350928E-2,-3.7771752E0,2.0983238E0,-4.5531422E-1,-3.1183584E0,1.1261897E0,3.3070724E0,-3.713374E0,-2.1730998E0,2.2400527E-1,1.5260915E0,2.7894654E0,2.5988704E-1,-2.8136442E0,-2.4469689E-1,-1.6805524E0,-1.4921652E-1,-2.6236725E-1,4.3919086E-1,8.4985787E-1,1.726563E0,1.5021345E-1,1.5012405E0,-1.6393183E-1,-7.5346395E-2,-1.1169727E-1,-1.0451927E0,-1.656189E-2,-1.3938904E-3,2.4438325E-1,2.8645134E-2,6.2821075E-2,2.179741E-2,1.1780019E-1,9.752197E-1,8.304739E-2,2.1560287E-2,-1.8985113E-2,-6.1772425E-2,2.5338491E-2,-4.973221E-3,7.438675E-2,1.3383026E-2],"categories":[],"categories_nodes":[],"categories_segments":[],"categories_sizes":[],"default_left":[0,0,0,0,0,0,0,0,0,0,0,0,0,0,0,0,0,0,0,0,0,0,0,0,0,0,0,0,0,0,0,0,0,0,0,0,0,0,0,0,0,0,0],"id":47,"left_children":[1,3,5,-1,7,9,11,13,15,17,19,21,-1,23,-1,25,-1,27,29,31,33,-1,35,-1,-1,-1,37,-1,-1,39,-1,-1,-1,-1,41,-1,-1,-1,-1,-1,-1,-1,-1],"loss_changes":[6.9836176E2,8.395233E1,6.090422E1,0E0,8.803772E0,1.1203274E1,8.988007E0,4.2874146E0,5.786514E-1,1.2664933E0,1.51511E0,1.3008881E0,0E0,2.3506927E0,0E0,1.5327358E0,0E0,5.5363476E-2,6.837678E-2,6.30229E-1,5.2691956E0,0E0,1.382513E-1,0E0,0E0,0E0,4.1719103E-1,0E0,0E0,5.015106E-1,0E0,0E0,0E0,0E0,2.8655062E0,0E0,0E0,0E0,0E0,0E0,0E0,0E0,0E0],"parents":[2147483647,0,0,1,1,2,2,4,4,5,5,6,6,7,7,8,8,9,9,10,10,11,11,13,13,15,15,17,17,18,18,19,19,20,20,22,22,26,26,29,29,34,34],"right_children":[2,4,6,-1,8,10,12,14,16,18,20,22,-1,24,-1,26,-1,28,30,32,34,-1,36,-1,-1,-1,38,-1,-1,40,-1,-1,-1,-1,42,-1,-1,-1,-1,-1,-1,-1,-1],"split_conditions":[5.777197E1,9.025367E0,8.974788E1,-4.5531422E-1,3.8230007E1,7.583093E1,1.0209448E2,8E0,1E1,6.690918E1,4E0,9.9164955E1,2.5988704E-1,6E0,-2.4469689E-1,6E0,-1.4921652E-1,6.618914E1,5E0,2E0,9E0,1.5021345E-1,8E0,-1.6393183E-1,-7.5346395E-2,-1.1169727E-1,3.9773384E1,-1.656189E-2,-1.3938904E-3,3E0,2.8645134E-2,6.2821075E-2,2.179741E-2,1.1780019E-1,8.173604E1,8.304739E-2,2.1560287E-2,-1.8985113E-2,-6.1772425E-2,2.5338491E-2,-4.973221E-3,7.438675E-2,1.3383026E-2],"split_indices":[0,0,1,0,1,0,0,2,2,0,2,0,0,2,0,2,0,0,2,2,2,0,2,0,0,0,0,0,0,2,0,0,0,0,0,0,0,0,0,0,0,0,0],"split_type":[0,0,0,0,0,0,0,0,0,0,0,0,0,0,0,0,0,0,0,0,0,0,0,0,0,0,0,0,0,0,0,0,0,0,0,0,0,0,0,0,0,0,0],"sum_hessian":[8.5E1,3.1E1,5.4E1,2E0,2.9E1,3.1E1,2.3E1,1.6E1,1.3E1,1E1,2.1E1,2E1,3E0,1.1E1,5E0,1E1,3E0,3E0,7E0,6E0,1.5E1,1.6E1,4E0,7E0,4E0,4E0,6E0,2E0,1E0,4E0,3E0,2E0,4E0,7E0,8E0,3E0,1E0,2E0,4E0,2E0,2E0,4E0,4E0],"tree_param":{"num_deleted":"0","num_feature":"4","num_nodes":"43","size_leaf_vector":"1"}},{"base_weights":[-6.5508224E-2,-3.628346E0,2.0086067E0,-4.4013706E-1,-2.9899616E0,1.2848679E0,3.550795E0,-3.5561736E0,-2.08885E0,4.0351614E-1,1.7622843E0,1.5188263E-1,2.9402694E-1,-2.6929011E0,-2.3450115E-1,-1.6140206E0,-1.4362092E-1,-2.537365E-1,5.88974E-1,1.9583893E0,5.8618623E-1,-1.5675978E-1,-7.2332494E-2,-1.0722935E-1,-1.0044702E0,-1.9150544E-2,-4.148738E-3,3.1586674E-1,4.047184E-2,1.583594E0,1.5776853E-1,-3.5909463E-2,5.459137E-2,-9.491158E-3,-5.5430382E-2,2.014796E-2,-5.1671984E-3,8.97262E-2,3.3813555E-2],"categories":[],"categories_nodes":[],"categories_segments":[],"categories_sizes":[],"default_left":[0,0,0,0,0,0,0,0,0,0,0,0,0,0,0,0,0,0,0,0,0,0,0,0,0,0,0,0,0,0,0,0,0,0,0,0,0,0,0],"id":48,"left_children":[1,3,5,-1,7,9,11,13,15,17,19,-1,-1,21,-1,23,-1,25,27,29,31,-1,-1,-1,33,-1,-1,35,-1,37,-1,-1,-1,-1,-1,-1,-1,-1,-1],"loss_changes":[6.428051E2,7.938425E1,5.6825485E1,0E0,7.8782654E0,1.569899E1,2.4602966E0,4.010193E0,5.7271576E-1,1.9778342E0,4.6179886E0,0E0,0E0,2.0789871E0,0E0,1.4033031E0,0E0,5.6520253E-2,4.668455E-1,4.4242554E0,4.081868E0,0E0,0E0,0E0,3.8340664E-1,0E0,0E0,2.972141E-1,0E0,2.231289E0,0E0,0E0,0E0,0E0,0E0,0E0,0E0,0E0,0E0],"parents":[2147483647,0,0,1,1,2,2,4,4,5,5,6,6,7,7,8,8,9,9,10,10,13,13,15,15,17,17,18,18,19,19,20,20,24,24,27,27,29,29],"right_children":[2,4,6,-1,8,10,12,14,16,18,20,-1,-1,22,-1,24,-1,26,28,30,32,-1,-1,-1,34,-1,-1,36,-1,38,-1,-1,-1,-1,-1,-1,-1,-1,-1],"split_conditions":[5.777197E1,9.025367E0,9.409551E1,-4.4013706E-1,3.8230007E1,7.833418E1,1.04918205E2,8E0,1E1,6.690918E1,9.172752E1,1.5188263E-1,2.9402694E-1,6E0,-2.3450115E-1,6E0,-1.4362092E-1,6.129373E1,5E0,8.974788E1,9.1889755E1,-1.5675978E-1,-7.2332494E-2,-1.0722935E-1,3.8880886E1,-1.9150544E-2,-4.148738E-3,4E0,4.047184E-2,8.8288086E1,1.5776853E-1,-3.5909463E-2,5.459137E-2,-9.491158E-3,-5.5430382E-2,2.014796E-2,-5.1671984E-3,8.97262E-2,3.3813555E-2],"split_indices":[0,0,0,0,1,1,1,2,2,0,1,0,0,2,0,2,0,0,2,1,1,0,0,0,0,0,0,2,0,0,0,0,0,0,0,0,0,0,0],"split_type":[0,0,0,0,0,0,0,0,0,0,0,0,0,0,0,0,0,0,0,0,0,0,0,0,0,0,0,0,0,0,0,0,0,0,0,0,0,0,0],"sum_hessian":[8.5E1,3.1E1,5.4E1,2E0,2.9E1,3.8E1,1.6E1,1.6E1,1.3E1,1.4E1,2.4E1,1.5E1,1E0,1.1E1,5E0,1E1,3E0,3E0,1.1E1,2E1,4E0,7E0,4E0,4E0,6E0,1E0,2E0,6E0,5E0,1.7E1,3E0,1E0,3E0,1E0,5E0,5E0,1E0,1.3E1,4E0],"tree_param":{"num_deleted":"0","num_feature":"4","num_nodes":"39","size_leaf_vector":"1"}},{"base_weights":[-6.736682E-2,-3.4850376E0,1.922321E0,-4.254658E-1,-2.8664417E0,1.2277292E0,3.4027185E0,-3.4056344E0,-2.006962E0,5.298249E-1,1.8007032E0,1.449349E-1,2.8667623E-1,-2.577346E0,-4.4946055E0,-1.5489686E0,-1.382352E-1,-8.195114E-2,7.5417E-1,2.0692914E0,1.4188004E-1,-1.499015E-1,-6.943914E-2,-2.4245372E-1,-6.805649E-2,-1.02940105E-1,-9.635206E-1,1.7432785E-2,-2.3780365E-1,8.2217056E-1,-3.245926E-3,8.4505844E-1,2.2578008E0,-3.5011675E-2,3.2799784E-2,-1.7270215E-2,-5.708431E-2,-1.86718E-2,-5.526829E-3,2.2023011E-2,5.02841E-2,1.5652211E-2,6.1027527E-2,5.3194523E-2,1.2338104E-1],"categories":[],"categories_nodes":[],"categories_segments":[],"categories_sizes":[],"default_left":[0,0,0,0,0,0,0,0,0,0,0,0,0,0,0,0,0,0,0,0,0,0,0,0,0,0,0,0,0,0,0,0,0,0,0,0,0,0,0,0,0,0,0,0,0],"id":49,"left_children":[1,3,5,-1,7,9,11,13,15,17,19,-1,-1,21,23,25,-1,27,29,31,33,-1,-1,-1,-1,-1,35,-1,37,39,-1,41,43,-1,-1,-1,-1,-1,-1,-1,-1,-1,-1,-1,-1],"loss_changes":[5.9150775E2,7.506442E1,5.2377335E1,0E0,7.0677795E0,1.46413E1,3.35141E0,3.7495422E0,5.761299E-1,2.6695356E0,9.062759E0,0E0,0E0,1.8365021E0,6.409454E-2,1.299593E0,0E0,4.8557857E-1,8.331523E-1,2.2460556E0,2.1911252E0,0E0,0E0,0E0,0E0,0E0,3.765459E-1,0E0,4.5029312E-2,4.6766376E-1,0E0,4.1698217E-1,1.1323166E0,0E0,0E0,0E0,0E0,0E0,0E0,0E0,0E0,0E0,0E0,0E0,0E0],"parents":[2147483647,0,0,1,1,2,2,4,4,5,5,6,6,7,7,8,8,9,9,10,10,13,13,14,14,15,15,17,17,18,18,19,19,20,20,26,26,28,28,29,29,31,31,32,32],"right_children":[2,4,6,-1,8,10,12,14,16,18,20,-1,-1,22,24,26,-1,28,30,32,34,-1,-1,-1,-1,-1,36,-1,38,40,-1,42,44,-1,-1,-1,-1,-1,-1,-1,-1,-1,-1,-1,-1],"split_conditions":[5.777197E1,9.025367E0,9.253734E1,-4.254658E-1,3.8230007E1,8.041516E1,1.04918205E2,8E0,1E1,6.8322624E1,9.187017E1,1.449349E-1,2.8667623E-1,6E0,1.2E1,6E0,-1.382352E-1,2E0,7.953626E1,4E0,9.1889755E1,-1.499015E-1,-6.943914E-2,-2.4245372E-1,-6.805649E-2,-1.02940105E-1,3.9773384E1,1.7432785E-2,6.129373E1,4E0,-3.245926E-3,8.734476E1,8.296301E1,-3.5011675E-2,3.2799784E-2,-1.7270215E-2,-5.708431E-2,-1.86718E-2,-5.526829E-3,2.2023011E-2,5.02841E-2,1.5652211E-2,6.1027527E-2,5.3194523E-2,1.2338104E-1],"split_indices":[0,0,1,0,1,0,1,2,2,0,1,0,0,2,2,2,0,2,1,2,1,0,0,0,0,0,0,0,0,2,0,1,0,0,0,0,0,0,0,0,0,0,0,0,0],"split_type":[0,0,0,0,0,0,0,0,0,0,0,0,0,0,0,0,0,0,0,0,0,0,0,0,0,0,0,0,0,0,0,0,0,0,0,0,0,0,0,0,0,0,0,0,0],"sum_hessian":[8.5E1,3.1E1,5.4E1,2E0,2.9E1,3.8E1,1.6E1,1.6E1,1.3E1,1.8E1,2E1,1.5E1,1E0,1.1E1,5E0,1E1,3E0,5E0,1.3E1,1.7E1,3E0,7E0,4E0,4E0,1E0,4E0,6E0,1E0,4E0,1.2E1,1E0,3E0,1.4E1,1E0,2E0,2E0,4E0,1E0,3E0,5E0,7E0,2E0,1E0,3E0,1.1E1],"tree_param":{"num_deleted":"0","num_feature":"4","num_nodes":"45","size_leaf_vector":"1"}},{"base_weights":[-7.011418E-2,-3.2710357E0,1.887303E0,-4.1128355E-1,-2.6860375E0,1.2244436E0,3.2579708E0,-2.9090855E0,-4.7218554E-2,5.75211E-1,1.7226217E0,1.3814104E-1,2.7950937E-1,-3.2665198E0,-2.0922248E0,7.139979E-1,-4.452133E-3,1.9798957E0,1.3423347E-1,-2.4667566E0,-2.160813E-1,-1.0909472E0,-1.1656678E-1,3.7541676E-1,9.633293E-1,2.3046703E0,1.1402969E0,-3.4136392E-2,3.1706493E-2,-1.4334325E-1,-6.666159E-2,-6.6848375E-2,-8.822155E-3,1.0699463E-2,2.4167348E-2,1.8042501E-2,5.5200703E-2,5.859192E-2,1.3623033E-1,9.72875E-3,7.398354E-2],"categories":[],"categories_nodes":[],"categories_segments":[],"categories_sizes":[],"default_left":[0,0,0,0,0,0,0,0,0,0,0,0,0,0,0,0,0,0,0,0,0,0,0,0,0,0,0,0,0,0,0,0,0,0,0,0,0,0,0,0,0],"id":50,"left_children":[1,3,5,-1,7,9,11,13,-1,15,17,-1,-1,19,21,23,-1,25,27,29,-1,31,-1,33,35,37,39,-1,-1,-1,-1,-1,-1,-1,-1,-1,-1,-1,-1,-1,-1],"loss_changes":[5.4500977E2,7.355444E1,4.5073044E1,0E0,9.295471E0,1.1299606E1,4.186859E0,1.0490112E0,0E0,1.7229915E0,8.315903E0,0E0,0E0,3.6847992E0,9.0213776E-2,9.046335E-1,0E0,2.2802353E0,2.0665221E0,1.6202011E0,0E0,6.640477E-1,0E0,3.595209E-2,2.796936E-1,2.5158043E0,1.958765E0,0E0,0E0,0E0,0E0,0E0,0E0,0E0,0E0,0E0,0E0,0E0,0E0,0E0,0E0],"parents":[2147483647,0,0,1,1,2,2,4,4,5,5,6,6,7,7,9,9,10,10,13,13,14,14,15,15,17,17,18,18,19,19,21,21,23,23,24,24,25,25,26,26],"right_children":[2,4,6,-1,8,10,12,14,-1,16,18,-1,-1,20,22,24,-1,26,28,30,-1,32,-1,34,36,38,40,-1,-1,-1,-1,-1,-1,-1,-1,-1,-1,-1,-1,-1,-1],"split_conditions":[6.129373E1,9.025367E0,9.253734E1,-4.1128355E-1,4.3695652E1,8.041516E1,1.04918205E2,3.8230007E1,-4.7218554E-2,1.1E1,9.187017E1,1.3814104E-1,2.7950937E-1,8E0,3.8880886E1,7.583093E1,-4.452133E-3,8.9318596E1,9.1889755E1,6E0,-2.160813E-1,3.79367E1,-1.1656678E-1,5E0,3E0,8.432142E1,8.734476E1,-3.4136392E-2,3.1706493E-2,-1.4334325E-1,-6.666159E-2,-6.6848375E-2,-8.822155E-3,1.0699463E-2,2.4167348E-2,1.8042501E-2,5.5200703E-2,5.859192E-2,1.3623033E-1,9.72875E-3,7.398354E-2],"split_indices":[0,0,1,0,1,0,1,1,0,2,1,0,0,2,0,0,0,0,1,2,0,0,0,2,2,1,1,0,0,0,0,0,0,0,0,0,0,0,0,0,0],"split_type":[0,0,0,0,0,0,0,0,0,0,0,0,0,0,0,0,0,0,0,0,0,0,0,0,0,0,0,0,0,0,0,0,0,0,0,0,0,0,0,0,0],"sum_hessian":[8.5E1,3.2E1,5.3E1,2E0,3E1,3.7E1,1.6E1,2.6E1,4E0,1.7E1,2E1,1.5E1,1E0,1.6E1,1E1,1.4E1,3E0,1.7E1,3E0,1.1E1,5E0,3E0,7E0,7E0,7E0,1.1E1,6E0,1E0,2E0,7E0,4E0,2E0,1E0,4E0,3E0,2E0,5E0,4E0,7E0,2E0,4E0],"tree_param":{"num_deleted":"0","num_feature":"4","num_nodes":"41","size_leaf_vector":"1"}},{"base_weights":[-6.985664E-2,-3.2169628E0,1.762457E0,-3.9757413E-1,-2.6362789E0,1.0729148E0,3.0124888E0,-3.128257E0,-1.8505709E0,3.4784776E-1,1.4991362E0,1.287123E-1,2.725216E-1,-2.3609183E0,-4.141558E0,-1.4194169E0,-1.286801E-1,-2.2541142E-1,5.099468E-1,1.8332995E0,4.7343445E-1,-2.7414386E0,-6.3995115E-2,-2.643143E-1,-1.1238115E-1,-9.5154226E-2,-8.711662E-1,-2.871386E-1,-1.0057449E-3,2.7134922E-1,3.5165977E-2,9.95162E-1,2.3204796E0,-1.0490608E-1,9.3341637E-1,-3.7795592E-2,-1.4585489E-1,-1.4604759E-2,-5.2218784E-2,-1.7024517E-2,-4.5108795E-3,1.7551167E-2,-5.167389E-3,7.26011E-2,-5.507145E-2,1.2526584E-1,1.6423607E-2,1.5194957E-2,-3.3283044E-2,5.4395933E-2,1.1747742E-2],"categories":[],"categories_nodes":[],"categories_segments":[],"categories_sizes":[],"default_left":[0,0,0,0,0,0,0,0,0,0,0,0,0,0,0,0,0,0,0,0,0,0,0,0,0,0,0,0,0,0,0,0,0,0,0,0,0,0,0,0,0,0,0,0,0,0,0,0,0,0,0],"id":51,"left_children":[1,3,5,-1,7,9,11,13,15,17,19,-1,-1,21,23,25,-1,27,29,31,33,35,-1,-1,-1,-1,37,39,-1,41,-1,43,45,47,49,-1,-1,-1,-1,-1,-1,-1,-1,-1,-1,-1,-1,-1,-1,-1,-1],"loss_changes":[5.0158752E2,6.701401E1,4.417511E1,0E0,5.80748E0,1.0912975E1,6.269058E0,3.440384E0,7.1131134E-1,1.5088198E0,7.0153465E0,0E0,0E0,1.4274063E0,1.1266708E0,1.2589798E0,0E0,4.4913754E-2,3.628137E-1,4.6322517E0,1.9601045E0,5.8514404E-1,0E0,0E0,0E0,0E0,3.9704704E-1,8.0001354E-4,0E0,2.4525309E-1,0E0,9.262089E0,2.859047E0,1.1192517E0,1.7604351E-1,0E0,0E0,0E0,0E0,0E0,0E0,0E0,0E0,0E0,0E0,0E0,0E0,0E0,0E0,0E0,0E0],"parents":[2147483647,0,0,1,1,2,2,4,4,5,5,6,6,7,7,8,8,9,9,10,10,13,13,14,14,15,15,17,17,18,18,19,19,20,20,21,21,26,26,27,27,29,29,31,31,32,32,33,33,34,34],"right_children":[2,4,6,-1,8,10,12,14,16,18,20,-1,-1,22,24,26,-1,28,30,32,34,36,-1,-1,-1,-1,38,40,-1,42,-1,44,46,48,50,-1,-1,-1,-1,-1,-1,-1,-1,-1,-1,-1,-1,-1,-1,-1,-1],"split_conditions":[5.777197E1,9.025367E0,9.117351E1,-3.9757413E-1,3.8230007E1,7.833418E1,1.04918205E2,8E0,1E1,6.690918E1,8.9318596E1,1.287123E-1,2.725216E-1,6E0,1E1,6E0,-1.286801E-1,6.618914E1,5E0,8.296301E1,9.0699875E1,2E0,-6.3995115E-2,-2.643143E-1,-1.1238115E-1,-9.5154226E-2,3.9773384E1,6.129373E1,-1.0057449E-3,4E0,3.5165977E-2,8.240646E1,9.172752E1,9.05712E1,9.110202E1,-3.7795592E-2,-1.4585489E-1,-1.4604759E-2,-5.2218784E-2,-1.7024517E-2,-4.5108795E-3,1.7551167E-2,-5.167389E-3,7.26011E-2,-5.507145E-2,1.2526584E-1,1.6423607E-2,1.5194957E-2,-3.3283044E-2,5.4395933E-2,1.1747742E-2],"split_indices":[0,0,0,0,1,1,1,2,2,0,0,0,0,2,2,2,0,0,2,0,0,2,0,0,0,0,0,0,0,2,0,0,1,0,0,0,0,0,0,0,0,0,0,0,0,0,0,0,0,0,0],"split_type":[0,0,0,0,0,0,0,0,0,0,0,0,0,0,0,0,0,0,0,0,0,0,0,0,0,0,0,0,0,0,0,0,0,0,0,0,0,0,0,0,0,0,0,0,0,0,0,0,0,0,0],"sum_hessian":[8.5E1,3.1E1,5.4E1,2E0,2.9E1,3.6E1,1.8E1,1.6E1,1.3E1,1.4E1,2.2E1,1.7E1,1E0,1.1E1,5E0,1E1,3E0,3E0,1.1E1,1.6E1,6E0,7E0,4E0,2E0,3E0,4E0,6E0,2E0,1E0,6E0,5E0,7E0,9E0,3E0,3E0,1E0,6E0,2E0,4E0,1E0,1E0,5E0,1E0,6E0,1E0,8E0,1E0,2E0,1E0,2E0,1E0],"tree_param":{"num_deleted":"0","num_feature":"4","num_nodes":"51","size_leaf_vector":"1"}},{"base_weights":[-7.42604E-2,-3.0971322E0,1.6858517E0,-3.8432166E-1,-2.5349646E0,1.0722269E0,2.9944112E0,-3.00857E0,-1.7788031E0,4.59608E-1,1.5754427E0,1.2586454E-1,2.6570854E-1,-2.2635095E0,-3.997263E0,-1.363171E0,-1.2385454E-1,-7.1500145E-2,6.543966E-1,1.8160281E0,9.8947525E-2,-2.627323E0,-6.14353E-2,-2.5550383E-1,-1.08166866E-1,-9.1348074E-2,-8.371533E-1,1.6290857E-2,-2.1612701E-1,7.197148E-1,-4.8685074E-3,6.8585587E-1,1.996339E0,-3.245106E-2,2.8230539E-2,-3.685069E-2,-1.3960397E-1,-1.4117877E-2,-5.0130006E-2,-1.3017654E-2,-9.80568E-4,1.8976338E-2,4.4244576E-2,1.0414124E-2,5.29644E-2,1.1545261E-1,5.7121344E-2],"categories":[],"categories_nodes":[],"categories_segments":[],"categories_sizes":[],"default_left":[0,0,0,0,0,0,0,0,0,0,0,0,0,0,0,0,0,0,0,0,0,0,0,0,0,0,0,0,0,0,0,0,0,0,0,0,0,0,0,0,0,0,0,0,0,0,0],"id":52,"left_children":[1,3,5,-1,7,9,11,13,15,17,19,-1,-1,21,23,25,-1,27,29,31,33,35,-1,-1,-1,-1,37,-1,39,41,-1,43,45,-1,-1,-1,-1,-1,-1,-1,-1,-1,-1,-1,-1,-1,-1],"loss_changes":[4.6279236E2,6.307376E1,4.0952362E1,0E0,5.3920135E0,1.1298813E1,5.4383698E0,3.4749756E0,