{"learner":{"attributes":{"best_iteration":"76","best_score":"3.4629448074237246","scikit_learn":"{\"_estimator_type\": \"regressor\"}"},"feature_names":["produccion_mes_anterior","produccion_promedio_3m","mes","trimestre","produccion_lag_6","produccion_lag_12","produccion_roll_mean_6","produccion_roll_std_6","año"],"feature_types":["float","float","int","int","float","float","float","float","int"],"gradient_booster":{"model":{"gbtree_model_param":{"num_parallel_tree":"1","num_trees":"82"},"iteration_indptr":[0,1,2,3,4,5,6,7,8,9,10,11,12,13,14,15,16,17,18,19,20,21,22,23,24,25,26,27,28,29,30,31,32,33,34,35,36,37,38,39,40,41,42,43,44,45,46,47,48,49,50,51,52,53,54,55,56,57,58,59,60,61,62,63,64,65,66,67,68,69,70,71,72,73,74,75,76,77,78,79,80,81,82],"tree_info":[0,0,0,0,0,0,0,0,0,0,0,0,0,0,0,0,0,0,0,0,0,0,0,0,0,0,0,0,0,0,0,0,0,0,0,0,0,0,0,0,0,0,0,0,0,0,0,0,0,0,0,0,0,0,0,0,0,0,0,0,0,0,0,0,0,0,0,0,0,0,0,0,0,0,0,0,0,0,0,0,0,0],"trees":[{"base_weights":[-3.6190718E-6,-3.1365253E1,1.2882153E1,-1.6843203E0,-5.9590906E-1,2.921242E0,2.0261547E1,-3.8557527E0,6.337225E0,8.4712356E-1,1.2528871E0,-4.713706E0,-5.6861115E-1,3.1956906E0,7.760272E0,-1.0423636E-1,-2.674176E-1,-5.0462533E-2,7.816697E-3,4.3232348E-2,1.720045E-1,4.2979965E-1,1.3331757E-1],"categories":[],"categories_nodes":[],"categories_segments":[],"categories_sizes":[],"default_left":[0,0,0,0,0,0,0,0,0,0,0,0,0,0,0,0,0,0,0,0,0,0,0],"id":0,"left_children":[1,3,5,-1,-1,7,9,11,13,-1,-1,15,17,19,21,-1,-1,-1,-1,-1,-1,-1,-1],"loss_changes":[3.1920113E4,6.367285E2,4.0571191E3,0E0,0E0,6.0318726E2,8.486621E1,2.2701675E1,5.119989E1,0E0,0E0,5.294342E-1,1.1160984E0,1.0134735E0,2.3908142E1,0E0,0E0,0E0,0E0,0E0,0E0,0E0,0E0],"parents":[2147483647,0,0,1,1,2,2,5,5,6,6,7,7,8,8,11,11,12,12,13,13,14,14],"right_children":[2,4,6,-1,-1,8,10,12,14,-1,-1,16,18,20,22,-1,-1,-1,-1,-1,-1,-1,-1],"split_conditions":[6.129373E1,4.806501E1,8.631539E1,-1.6843203E0,-5.9590906E-1,7.441431E1,9.753094E1,6.618914E1,7.866391E1,8.4712356E-1,1.2528871E0,3E0,7.06647E1,7.583093E1,8.2801E0,-1.0423636E-1,-2.674176E-1,-5.0462533E-2,7.816697E-3,4.3232348E-2,1.720045E-1,4.2979965E-1,1.3331757E-1],"split_indices":[0,0,1,0,0,0,1,4,1,0,0,2,0,0,7,0,0,0,0,0,0,0,0],"split_type":[0,0,0,0,0,0,0,0,0,0,0,0,0,0,0,0,0,0,0,0,0,0,0],"sum_hessian":[7.7E1,2.2E1,5.5E1,1.9E1,3E0,2.4E1,3.1E1,8E0,1.6E1,2.1E1,1E1,6E0,2E0,6E0,1E1,2E0,4E0,1E0,1E0,1E0,5E0,8E0,2E0],"tree_param":{"num_deleted":"0","num_feature":"9","num_nodes":"23","size_leaf_vector":"1"}},{"base_weights":[2.3533748E-3,-2.9896133E1,1.2282047E1,-1.6043152E0,-5.735625E-1,2.7897408E0,1.9314096E1,-3.7089996E0,6.0661483E0,8.066927E-1,1.1959379E0,-4.531115E0,-5.543976E-1,3.0666537E0,7.4234495E0,-1.0076193E-1,-2.5672087E-1,-4.920101E-2,7.621193E-3,4.215145E-2,1.6483764E-1,4.1069737E-1,1.2887369E-1],"categories":[],"categories_nodes":[],"categories_segments":[],"categories_sizes":[],"default_left":[0,0,0,0,0,0,0,0,0,0,0,0,0,0,0,0,0,0,0,0,0,0,0],"id":1,"left_children":[1,3,5,-1,-1,7,9,11,13,-1,-1,15,17,19,21,-1,-1,-1,-1,-1,-1,-1,-1],"loss_changes":[2.9004438E4,5.600625E2,3.6841396E3,0E0,0E0,5.548124E2,8.27041E1,2.0828987E1,4.6445557E1,0E0,0E0,2.7778625E-1,1.0609877E0,8.023224E-1,2.0966858E1,0E0,0E0,0E0,0E0,0E0,0E0,0E0,0E0],"parents":[2147483647,0,0,1,1,2,2,5,5,6,6,7,7,8,8,11,11,12,12,13,13,14,14],"right_children":[2,4,6,-1,-1,8,10,12,14,-1,-1,16,18,20,22,-1,-1,-1,-1,-1,-1,-1,-1],"split_conditions":[6.129373E1,4.806501E1,8.631539E1,-1.6043152E0,-5.735625E-1,7.441431E1,9.753094E1,6.618914E1,7.866391E1,8.066927E-1,1.1959379E0,3E0,7.06647E1,7.583093E1,8.2801E0,-1.0076193E-1,-2.5672087E-1,-4.920101E-2,7.621193E-3,4.215145E-2,1.6483764E-1,4.1069737E-1,1.2887369E-1],"split_indices":[0,0,1,0,0,0,1,4,1,0,0,2,0,0,7,0,0,0,0,0,0,0,0],"split_type":[0,0,0,0,0,0,0,0,0,0,0,0,0,0,0,0,0,0,0,0,0,0,0],"sum_hessian":[7.7E1,2.2E1,5.5E1,1.9E1,3E0,2.4E1,3.1E1,8E0,1.6E1,2.1E1,1E1,6E0,2E0,6E0,1E1,2E0,4E0,1E0,1E0,1E0,5E0,8E0,2E0],"tree_param":{"num_deleted":"0","num_feature":"9","num_nodes":"23","size_leaf_vector":"1"}},{"base_weights":[4.443731E-3,-2.8496016E1,1.170991E1,-1.5281101E0,-5.5205387E-1,2.6641529E0,1.8410973E1,-3.5678897E0,5.8067546E0,6.86492E-1,2.089123E1,-4.355628E0,-5.4053754E-1,3.6479974E0,7.779357E0,1.0730013E0,2.6632366E-1,-9.740321E-2,-2.4645202E-1,-4.797096E-2,7.430649E-3,4.109764E-2,1.935337E-1,4.1695014E-1,9.654599E-2],"categories":[],"categories_nodes":[],"categories_segments":[],"categories_sizes":[],"default_left":[0,0,0,0,0,0,0,0,0,0,0,0,0,0,0,0,0,0,0,0,0,0,0,0,0],"id":2,"left_children":[1,3,5,-1,-1,7,9,11,13,-1,15,17,19,21,23,-1,-1,-1,-1,-1,-1,-1,-1,-1,-1],"loss_changes":[2.6355357E4,4.920586E2,3.3454565E3,0E0,0E0,5.1033856E2,8.4700195E1,1.9108467E1,4.4013245E1,0E0,5.390332E1,6.159973E-2,1.0086E0,3.111435E0,1.00824585E1,0E0,0E0,0E0,0E0,0E0,0E0,0E0,0E0,0E0,0E0],"parents":[2147483647,0,0,1,1,2,2,5,5,6,6,7,7,8,8,10,10,11,11,12,12,13,13,14,14],"right_children":[2,4,6,-1,-1,8,10,12,14,-1,16,18,20,22,24,-1,-1,-1,-1,-1,-1,-1,-1,-1,-1],"split_conditions":[6.129373E1,4.806501E1,8.631539E1,-1.5281101E0,-5.5205387E-1,7.441431E1,9.253734E1,6.618914E1,8.041516E1,6.86492E-1,1.0266155E2,3E0,7.06647E1,7.583093E1,8.2801E0,1.0730013E0,2.6632366E-1,-9.740321E-2,-2.4645202E-1,-4.797096E-2,7.430649E-3,4.109764E-2,1.935337E-1,4.1695014E-1,9.654599E-2],"split_indices":[0,0,1,0,0,0,1,4,0,0,4,2,0,0,7,0,0,0,0,0,0,0,0,0,0],"split_type":[0,0,0,0,0,0,0,0,0,0,0,0,0,0,0,0,0,0,0,0,0,0,0,0,0],"sum_hessian":[7.7E1,2.2E1,5.5E1,1.9E1,3E0,2.4E1,3.1E1,8E0,1.6E1,1.3E1,1.8E1,6E0,2E0,9E0,7E0,1.7E1,1E0,2E0,4E0,1E0,1E0,1E0,8E0,6E0,1E0],"tree_param":{"num_deleted":"0","num_feature":"9","num_nodes":"25","size_leaf_vector":"1"}},{"base_weights":[8.188003E-3,-2.716166E1,1.1167087E1,-1.455525E0,-5.313518E-1,2.5454953E0,1.7553732E1,-3.4322052E0,5.5604253E0,7.302329E-1,1.0928043E0,-2.0934843E-1,-5.270233E-1,3.4890594E0,7.4545794E0,-4.6771623E-2,7.2448733E-3,4.0070154E-2,1.8493216E-1,3.99081E-1,9.413242E-2],"categories":[],"categories_nodes":[],"categories_segments":[],"categories_sizes":[],"default_left":[0,0,0,0,0,0,0,0,0,0,0,0,0,0,0,0,0,0,0,0,0],"id":3,"left_children":[1,3,5,-1,-1,7,9,11,13,-1,-1,-1,15,17,19,-1,-1,-1,-1,-1,-1],"loss_changes":[2.395179E4,4.3178125E2,3.0388472E3,0E0,0E0,4.696433E2,8.681543E1,1.7527878E1,4.068976E1,0E0,0E0,0E0,9.587975E-1,2.668785E0,8.466492E0,0E0,0E0,0E0,0E0,0E0,0E0],"parents":[2147483647,0,0,1,1,2,2,5,5,6,6,7,7,8,8,12,12,13,13,14,14],"right_children":[2,4,6,-1,-1,8,10,12,14,-1,-1,-1,16,18,20,-1,-1,-1,-1,-1,-1],"split_conditions":[6.129373E1,4.806501E1,8.631539E1,-1.455525E0,-5.313518E-1,7.441431E1,9.753094E1,6.618914E1,8.041516E1,7.302329E-1,1.0928043E0,-2.0934843E-1,7.06647E1,7.583093E1,8.2801E0,-4.6771623E-2,7.2448733E-3,4.0070154E-2,1.8493216E-1,3.99081E-1,9.413242E-2],"split_indices":[0,0,1,0,0,0,1,4,0,0,0,0,0,0,7,0,0,0,0,0,0],"split_type":[0,0,0,0,0,0,0,0,0,0,0,0,0,0,0,0,0,0,0,0,0],"sum_hessian":[7.7E1,2.2E1,5.5E1,1.9E1,3E0,2.4E1,3.1E1,8E0,1.6E1,2.1E1,1E1,6E0,2E0,9E0,7E0,1E0,1E0,1E0,8E0,6E0,1E0],"tree_param":{"num_deleted":"0","num_feature":"9","num_nodes":"21","size_leaf_vector":"1"}},{"base_weights":[1.169684E-2,-2.588996E1,1.0649669E1,-1.3863875E0,-5.114262E-1,2.4369962E0,1.6733017E1,-3.288247E0,5.3246546E0,6.953809E-1,1.0431315E0,-4.007525E0,-5.138499E-1,3.3371093E0,7.143504E0,-8.7178044E-2,-2.2821991E-1,-4.560242E-2,7.063675E-3,3.9068412E-2,3.534262E0,3.8197765E-1,9.1779135E-2,1.9418977E-1,7.70298E-2],"categories":[],"categories_nodes":[],"categories_segments":[],"categories_sizes":[],"default_left":[0,0,0,0,0,0,0,0,0,0,0,0,0,0,0,0,0,0,0,0,0,0,0,0,0],"id":4,"left_children":[1,3,5,-1,-1,7,9,11,13,-1,-1,15,17,19,21,-1,-1,-1,-1,-1,23,-1,-1,-1,-1],"loss_changes":[2.1767926E4,3.7838086E2,2.7570117E3,0E0,0E0,4.3082245E2,8.32207E1,1.590078E1,3.7617157E1,0E0,0E0,8.6688995E-1,9.114556E-1,2.2771454E0,7.040863E0,0E0,0E0,0E0,0E0,0E0,2.8832245E-1,0E0,0E0,0E0,0E0],"parents":[2147483647,0,0,1,1,2,2,5,5,6,6,7,7,8,8,11,11,12,12,13,13,14,14,20,20],"right_children":[2,4,6,-1,-1,8,10,12,14,-1,-1,16,18,20,22,-1,-1,-1,-1,-1,24,-1,-1,-1,-1],"split_conditions":[6.129373E1,4.806501E1,8.631539E1,-1.3863875E0,-5.114262E-1,7.441431E1,9.753094E1,6.618914E1,8.041516E1,6.953809E-1,1.0431315E0,3E0,7.06647E1,7.583093E1,8.2801E0,-8.7178044E-2,-2.2821991E-1,-4.560242E-2,7.063675E-3,3.9068412E-2,1.0266155E2,3.8197765E-1,9.1779135E-2,1.9418977E-1,7.70298E-2],"split_indices":[0,0,1,0,0,0,1,4,0,0,0,2,0,0,7,0,0,0,0,0,5,0,0,0,0],"split_type":[0,0,0,0,0,0,0,0,0,0,0,0,0,0,0,0,0,0,0,0,0,0,0,0,0],"sum_hessian":[7.7E1,2.2E1,5.5E1,1.9E1,3E0,2.4E1,3.1E1,8E0,1.6E1,2.1E1,1E1,6E0,2E0,9E0,7E0,2E0,4E0,1E0,1E0,1E0,8E0,6E0,1E0,6E0,2E0],"tree_param":{"num_deleted":"0","num_feature":"9","num_nodes":"25","size_leaf_vector":"1"}},{"base_weights":[1.4584663E-2,-2.4677973E1,1.01559105E1,-1.3416727E0,-5.7757777E-1,2.3323495E0,1.5950695E1,-3.1631613E0,5.104541E0,5.884299E-1,1.8192728E1,-3.8522055E0,-5.010045E-1,2.550148E0,6.266014E0,9.3528014E-1,2.2402516E-1,-8.4272005E-2,-2.1909118E-1,-4.4462394E-2,6.8870545E-3,3.809166E-2,1.3606142E-1,3.4614775E-1,1.1032601E-1],"categories":[],"categories_nodes":[],"categories_segments":[],"categories_sizes":[],"default_left":[0,0,0,0,0,0,0,0,0,0,0,0,0,0,0,0,0,0,0,0,0,0,0,0,0],"id":5,"left_children":[1,3,5,-1,-1,7,9,11,13,-1,15,17,19,21,23,-1,-1,-1,-1,-1,-1,-1,-1,-1,-1],"loss_changes":[1.9783018E4,3.407881E2,2.5016055E3,0E0,0E0,3.9701166E2,8.5941895E1,1.4579117E1,3.4457367E1,0E0,4.980957E1,6.476135E-1,8.664523E-1,6.849289E-2,1.4059692E1,0E0,0E0,0E0,0E0,0E0,0E0,0E0,0E0,0E0,0E0],"parents":[2147483647,0,0,1,1,2,2,5,5,6,6,7,7,8,8,10,10,11,11,12,12,13,13,14,14],"right_children":[2,4,6,-1,-1,8,10,12,14,-1,16,18,20,22,24,-1,-1,-1,-1,-1,-1,-1,-1,-1,-1],"split_conditions":[6.129373E1,4.3695652E1,8.631539E1,-1.3416727E0,-5.7757777E-1,7.441431E1,9.253734E1,6.618914E1,7.866391E1,5.884299E-1,1.0266155E2,3E0,7.06647E1,7.583093E1,8.2801E0,9.3528014E-1,2.2402516E-1,-8.4272005E-2,-2.1909118E-1,-4.4462394E-2,6.8870545E-3,3.809166E-2,1.3606142E-1,3.4614775E-1,1.1032601E-1],"split_indices":[0,1,1,0,0,0,1,4,1,0,4,2,0,0,7,0,0,0,0,0,0,0,0,0,0],"split_type":[0,0,0,0,0,0,0,0,0,0,0,0,0,0,0,0,0,0,0,0,0,0,0,0,0],"sum_hessian":[7.7E1,2.2E1,5.5E1,1.8E1,4E0,2.4E1,3.1E1,8E0,1.6E1,1.3E1,1.8E1,6E0,2E0,6E0,1E1,1.7E1,1E0,2E0,4E0,1E0,1E0,1E0,5E0,8E0,2E0],"tree_param":{"num_deleted":"0","num_feature":"9","num_nodes":"25","size_leaf_vector":"1"}},{"base_weights":[1.5370784E-2,-2.3527517E1,9.684497E0,-1.2781196E0,-5.544748E-1,1.0791789E0,1.4435252E1,-3.4568186E0,3.5940933E0,1.0562834E1,1.7344109E1,-3.702931E0,-4.3350793E-2,1.6508623E0,2.2451185E-1,5.417966E-1,1.4800434E-1,8.911142E-1,2.184246E-1,-8.146286E-2,-2.1032746E-1,6.714821E-3,9.636582E-2],"categories":[],"categories_nodes":[],"categories_segments":[],"categories_sizes":[],"default_left":[0,0,0,0,0,0,0,0,0,0,0,0,0,0,0,0,0,0,0,0,0,0,0],"id":6,"left_children":[1,3,5,-1,-1,7,9,11,13,15,17,19,-1,21,-1,-1,-1,-1,-1,-1,-1,-1,-1],"loss_changes":[1.7983709E4,2.9865137E2,2.2738008E3,0E0,0E0,2.5198466E2,2.2231201E2,1.8885651E0,1.6967026E1,5.2979736E0,4.003076E1,4.5682526E-1,0E0,2.256733E0,0E0,0E0,0E0,0E0,0E0,0E0,0E0,0E0,0E0],"parents":[2147483647,0,0,1,1,2,2,5,5,6,6,7,7,8,8,9,9,10,10,11,11,13,13],"right_children":[2,4,6,-1,-1,8,10,12,14,16,18,20,-1,22,-1,-1,-1,-1,-1,-1,-1,-1,-1],"split_conditions":[6.129373E1,4.3695652E1,8.296301E1,-1.2781196E0,-5.544748E-1,7.208314E1,9.253734E1,6.618914E1,7.797459E1,7.0969553E0,1.0266155E2,3E0,-4.3350793E-2,7.441431E1,2.2451185E-1,5.417966E-1,1.4800434E-1,8.911142E-1,2.184246E-1,-8.146286E-2,-2.1032746E-1,6.714821E-3,9.636582E-2],"split_indices":[0,1,0,0,0,0,1,4,1,7,4,2,0,0,0,0,0,0,0,0,0,0,0],"split_type":[0,0,0,0,0,0,0,0,0,0,0,0,0,0,0,0,0,0,0,0,0,0,0],"sum_hessian":[7.7E1,2.2E1,5.5E1,1.8E1,4E0,2E1,3.5E1,7E0,1.3E1,1.7E1,1.8E1,6E0,1E0,5E0,8E0,1.6E1,1E0,1.7E1,1E0,2E0,4E0,1E0,4E0],"tree_param":{"num_deleted":"0","num_feature":"9","num_nodes":"23","size_leaf_vector":"1"}},{"base_weights":[1.4079461E-2,-2.2430822E1,9.232269E0,-1.1998131E0,-4.4979578E-1,2.1107574E0,1.4507442E1,-2.9272325E0,4.6537666E0,5.987374E-1,9.126987E-1,-3.55947E0,-4.762675E-1,2.898378E0,6.266281E0,-7.874756E-2,-2.0191436E-1,-4.2267036E-2,6.546974E-3,3.4730148E-2,3.066064E0,3.3489788E-1,8.111363E-2,1.6851214E-1,6.671461E-2],"categories":[],"categories_nodes":[],"categories_segments":[],"categories_sizes":[],"default_left":[0,0,0,0,0,0,0,0,0,0,0,0,0,0,0,0,0,0,0,0,0,0,0,0,0],"id":7,"left_children":[1,3,5,-1,-1,7,9,11,13,-1,-1,15,17,19,21,-1,-1,-1,-1,-1,23,-1,-1,-1,-1],"loss_changes":[1.6345395E4,2.6785742E2,2.073142E3,0E0,0E0,3.3391403E2,8.5055176E1,1.2251068E1,2.9957947E1,0E0,0E0,2.914505E-1,7.83E-1,1.565712E0,5.171814E0,0E0,0E0,0E0,0E0,0E0,2.4402618E-1,0E0,0E0,0E0,0E0],"parents":[2147483647,0,0,1,1,2,2,5,5,6,6,7,7,8,8,11,11,12,12,13,13,14,14,20,20],"right_children":[2,4,6,-1,-1,8,10,12,14,-1,-1,16,18,20,22,-1,-1,-1,-1,-1,24,-1,-1,-1,-1],"split_conditions":[6.129373E1,4.806501E1,8.631539E1,-1.1998131E0,-4.4979578E-1,7.441431E1,9.753094E1,6.618914E1,8.041516E1,5.987374E-1,9.126987E-1,3E0,7.06647E1,7.583093E1,8.2801E0,-7.874756E-2,-2.0191436E-1,-4.2267036E-2,6.546974E-3,3.4730148E-2,1.0266155E2,3.3489788E-1,8.111363E-2,1.6851214E-1,6.671461E-2],"split_indices":[0,0,1,0,0,0,1,4,0,0,0,2,0,0,7,0,0,0,0,0,5,0,0,0,0],"split_type":[0,0,0,0,0,0,0,0,0,0,0,0,0,0,0,0,0,0,0,0,0,0,0,0,0],"sum_hessian":[7.7E1,2.2E1,5.5E1,1.9E1,3E0,2.4E1,3.1E1,8E0,1.6E1,2.1E1,1E1,6E0,2E0,9E0,7E0,2E0,4E0,1E0,1E0,1E0,8E0,6E0,1E0,6E0,2E0],"tree_param":{"num_deleted":"0","num_feature":"9","num_nodes":"25","size_leaf_vector":"1"}},{"base_weights":[1.634231E-2,-2.0743168E1,9.07474E0,-1.142822E0,-4.0707275E-1,2.8105257E0,1.4201236E1,-1.9907489E0,5.0550227E0,5.859259E-1,8.712124E-1,-2.7895072E0,5.366033E-1,2.9388988E0,6.454032E0,-1.4898448E-1,-4.1210365E-2,6.3833236E-3,3.3861924E-2,1.6129026E-1,6.449089E-2,3.4098274E-1,7.908573E-2],"categories":[],"categories_nodes":[],"categories_segments":[],"categories_sizes":[],"default_left":[0,0,0,0,0,0,0,0,0,0,0,0,0,0,0,0,0,0,0,0,0,0,0],"id":8,"left_children":[1,3,5,-1,-1,7,9,11,13,-1,-1,15,17,19,21,-1,-1,-1,-1,-1,-1,-1,-1],"loss_changes":[1.4855978E4,4.530547E2,1.7263276E3,0E0,0E0,2.9025092E2,3.586914E1,1.966555E1,3.432083E1,0E0,0E0,1.6047287E-1,8.607203E-2,9.7480774E-2,7.027527E0,0E0,0E0,0E0,0E0,0E0,0E0,0E0,0E0],"parents":[2147483647,0,0,1,1,2,2,5,5,6,6,7,7,8,8,11,11,12,12,13,13,14,14],"right_children":[2,4,6,-1,-1,8,10,12,14,-1,-1,16,18,20,22,-1,-1,-1,-1,-1,-1,-1,-1],"split_conditions":[6.618914E1,4.806501E1,8.734476E1,-1.142822E0,-4.0707275E-1,7.583093E1,9.753094E1,7.208314E1,8.041516E1,5.859259E-1,8.712124E-1,6.618914E1,7.441431E1,1.0266155E2,8.2801E0,-1.4898448E-1,-4.1210365E-2,6.3833236E-3,3.3861924E-2,1.6129026E-1,6.449089E-2,3.4098274E-1,7.908573E-2],"split_indices":[0,0,1,0,0,0,1,0,0,0,0,4,0,5,7,0,0,0,0,0,0,0,0],"split_type":[0,0,0,0,0,0,0,0,0,0,0,0,0,0,0,0,0,0,0,0,0,0,0],"sum_hessian":[7.7E1,2.3E1,5.4E1,1.9E1,4E0,2.5E1,2.9E1,8E0,1.7E1,1.9E1,1E1,6E0,2E0,8E0,9E0,5E0,1E0,1E0,1E0,6E0,2E0,8E0,1E0],"tree_param":{"num_deleted":"0","num_feature":"9","num_nodes":"23","size_leaf_vector":"1"}},{"base_weights":[2.0694489E-2,-2.0383835E1,8.400757E0,-1.1066102E0,-4.8316327E-1,1.9372537E0,1.3187844E1,-2.684154E0,4.269925E0,5.433101E-1,8.3161175E-1,-3.257019E0,-4.5275116E-1,2.6673965E0,5.7393456E0,-7.1156316E-2,-1.8529755E-1,-4.0180016E-2,6.2236786E-3,3.301544E-2,1.4085193E-1,3.059316E-1,7.710858E-2],"categories":[],"categories_nodes":[],"categories_segments":[],"categories_sizes":[],"default_left":[0,0,0,0,0,0,0,0,0,0,0,0,0,0,0,0,0,0,0,0,0,0,0],"id":9,"left_children":[1,3,5,-1,-1,7,9,11,13,-1,-1,15,17,19,21,-1,-1,-1,-1,-1,-1,-1,-1],"loss_changes":[1.3508555E4,2.1723145E2,1.707168E3,0E0,0E0,2.809668E2,7.5163086E1,1.0030014E1,2.472226E1,0E0,0E0,4.890213E-1,7.075835E-1,1.1433334E0,3.299469E0,0E0,0E0,0E0,0E0,0E0,0E0,0E0,0E0],"parents":[2147483647,0,0,1,1,2,2,5,5,6,6,7,7,8,8,11,11,12,12,13,13,14,14],"right_children":[2,4,6,-1,-1,8,10,12,14,-1,-1,16,18,20,22,-1,-1,-1,-1,-1,-1,-1,-1],"split_conditions":[6.129373E1,4.3695652E1,8.631539E1,-1.1066102E0,-4.8316327E-1,7.441431E1,9.753094E1,6.618914E1,8.041516E1,5.433101E-1,8.3161175E-1,3E0,7.06647E1,7.583093E1,8.2801E0,-7.1156316E-2,-1.8529755E-1,-4.0180016E-2,6.2236786E-3,3.301544E-2,1.4085193E-1,3.059316E-1,7.710858E-2],"split_indices":[0,1,1,0,0,0,1,4,0,0,0,2,0,0,7,0,0,0,0,0,0,0,0],"split_type":[0,0,0,0,0,0,0,0,0,0,0,0,0,0,0,0,0,0,0,0,0,0,0],"sum_hessian":[7.7E1,2.2E1,5.5E1,1.8E1,4E0,2.4E1,3.1E1,8E0,1.6E1,2.1E1,1E1,6E0,2E0,9E0,7E0,2E0,4E0,1E0,1E0,1E0,8E0,6E0,1E0],"tree_param":{"num_deleted":"0","num_feature":"9","num_nodes":"23","size_leaf_vector":"1"}},{"base_weights":[2.0320844E-2,-1.9433764E1,8.010029E0,-1.054192E0,-4.6383676E-1,2.259565E0,1.2918445E1,-2.5822153E0,4.4341154E0,5.3228724E-1,7.938112E-1,-3.1308048E0,-4.4143423E-1,2.551412E0,5.873407E0,-6.8784334E-2,-1.7788576E-1,-3.9175607E-2,6.068039E-3,3.2190133E-2,2.6918352E0,3.0959353E-1,7.518082E-2,1.483411E-1,5.7646055E-2],"categories":[],"categories_nodes":[],"categories_segments":[],"categories_sizes":[],"default_left":[0,0,0,0,0,0,0,0,0,0,0,0,0,0,0,0,0,0,0,0,0,0,0,0,0],"id":10,"left_children":[1,3,5,-1,-1,7,9,11,13,-1,-1,15,17,19,21,-1,-1,-1,-1,-1,23,-1,-1,-1,-1],"loss_changes":[1.2279396E4,1.8988672E2,1.551447E3,0E0,0E0,2.957246E2,3.265088E1,9.187649E0,3.649994E1,0E0,0E0,3.5064697E-1,6.726468E-1,9.4571686E-1,4.606018E0,0E0,0E0,0E0,0E0,0E0,3.8811493E-1,0E0,0E0,0E0,0E0],"parents":[2147483647,0,0,1,1,2,2,5,5,6,6,7,7,8,8,11,11,12,12,13,13,14,14,20,20],"right_children":[2,4,6,-1,-1,8,10,12,14,-1,-1,16,18,20,22,-1,-1,-1,-1,-1,24,-1,-1,-1,-1],"split_conditions":[6.129373E1,4.3695652E1,8.734476E1,-1.054192E0,-4.6383676E-1,7.441431E1,9.753094E1,6.618914E1,8.041516E1,5.3228724E-1,7.938112E-1,3E0,7.06647E1,7.583093E1,8.2801E0,-6.8784334E-2,-1.7788576E-1,-3.9175607E-2,6.068039E-3,3.2190133E-2,1.0266155E2,3.0959353E-1,7.518082E-2,1.483411E-1,5.7646055E-2],"split_indices":[0,1,1,0,0,0,1,4,0,0,0,2,0,0,7,0,0,0,0,0,5,0,0,0,0],"split_type":[0,0,0,0,0,0,0,0,0,0,0,0,0,0,0,0,0,0,0,0,0,0,0,0,0],"sum_hessian":[7.7E1,2.2E1,5.5E1,1.8E1,4E0,2.6E1,2.9E1,8E0,1.8E1,1.9E1,1E1,6E0,2E0,9E0,9E0,2E0,4E0,1E0,1E0,1E0,8E0,8E0,1E0,6E0,2E0],"tree_param":{"num_deleted":"0","num_feature":"9","num_nodes":"25","size_leaf_vector":"1"}},{"base_weights":[2.1244489E-2,-1.7977022E1,7.8746476E0,-9.8893434E-1,-3.58748E-1,2.4463E0,1.2316727E1,-2.1318693E0,4.2451973E0,1.0140072E1,7.57729E-1,-1.2351151E-1,5.916405E-3,2.447661E0,5.6182146E0,5.2708507E-1,2.1751355E-1,3.138542E-2,2.5801325E0,3.2171148E-1,1.3928175E-1,1.4198373E-1,5.572446E-2],"categories":[],"categories_nodes":[],"categories_segments":[],"categories_sizes":[],"default_left":[0,0,0,0,0,0,0,0,0,0,0,0,0,0,0,0,0,0,0,0,0,0,0],"id":11,"left_children":[1,3,5,-1,-1,7,9,11,13,15,-1,-1,-1,17,19,-1,-1,-1,21,-1,-1,-1,-1],"loss_changes":[1.1166679E4,3.2516895E2,1.296093E3,0E0,0E0,2.2317734E2,3.164209E1,6.3833275E0,3.314142E1,6.479492E-1,0E0,0E0,0E0,7.913475E-1,5.190857E0,0E0,0E0,0E0,2.5877762E-1,0E0,0E0,0E0,0E0],"parents":[2147483647,0,0,1,1,2,2,5,5,6,6,7,7,8,8,9,9,13,13,14,14,18,18],"right_children":[2,4,6,-1,-1,8,10,12,14,16,-1,-1,-1,18,20,-1,-1,-1,22,-1,-1,-1,-1],"split_conditions":[6.618914E1,4.806501E1,8.734476E1,-9.8893434E-1,-3.58748E-1,7.441431E1,9.753094E1,7.208314E1,8.041516E1,9.994227E1,7.57729E-1,-1.2351151E-1,5.916405E-3,7.583093E1,4.3210974E0,5.2708507E-1,2.1751355E-1,3.138542E-2,1.0266155E2,3.2171148E-1,1.3928175E-1,1.4198373E-1,5.572446E-2],"split_indices":[0,0,1,0,0,0,1,0,0,0,0,0,0,0,7,0,0,0,5,0,0,0,0],"split_type":[0,0,0,0,0,0,0,0,0,0,0,0,0,0,0,0,0,0,0,0,0,0,0],"sum_hessian":[7.7E1,2.3E1,5.4E1,1.9E1,4E0,2.5E1,2.9E1,7E0,1.8E1,1.9E1,1E1,6E0,1E0,9E0,9E0,1.7E1,2E0,1E0,8E0,6E0,3E0,6E0,2E0],"tree_param":{"num_deleted":"0","num_feature":"9","num_nodes":"23","size_leaf_vector":"1"}},{"base_weights":[2.9504923E-2,-1.6637644E1,7.745231E0,-9.2680997E-1,-2.6680914E-1,2.6285365E0,1.1750969E1,-1.2973099E0,4.2273273E0,4.2378575E-1,1.3201078E1,-9.861043E-2,4.8492432E-1,2.4730937E0,5.3834047E0,1.3598872E1,1.5101968E-1,5.7685855E-3,3.060074E-2,1.3589875E-1,5.386696E-2,3.0792394E-1,1.3405867E-1,1.925848E-1,6.9728327E-1],"categories":[],"categories_nodes":[],"categories_segments":[],"categories_sizes":[],"default_left":[0,0,0,0,0,0,0,0,0,0,0,0,0,0,0,0,0,0,0,0,0,0,0,0,0],"id":12,"left_children":[1,3,5,-1,-1,7,9,11,13,-1,15,-1,17,19,21,23,-1,-1,-1,-1,-1,-1,-1,-1,-1],"loss_changes":[1.0159596E4,4.3749854E2,1.0759036E3,0E0,0E0,1.6239935E2,3.0595703E1,1.0578991E1,2.3190887E1,0E0,3.587256E1,0E0,7.0290685E-2,1.4796829E-1,4.4323425E0,7.130127E0,0E0,0E0,0E0,0E0,0E0,0E0,0E0,0E0,0E0],"parents":[2147483647,0,0,1,1,2,2,5,5,6,6,7,7,8,8,10,10,12,12,13,13,14,14,15,15],"right_children":[2,4,6,-1,-1,8,10,12,14,-1,16,-1,18,20,22,24,-1,-1,-1,-1,-1,-1,-1,-1,-1],"split_conditions":[6.690918E1,5.556649E1,8.734476E1,-9.2680997E-1,-2.6680914E-1,7.583093E1,9.253734E1,7.208314E1,8.041516E1,4.2378575E-1,1.0266155E2,-9.861043E-2,7.441431E1,1.0266155E2,4.3210974E0,9.061704E1,1.5101968E-1,5.7685855E-3,3.060074E-2,1.3589875E-1,5.386696E-2,3.0792394E-1,1.3405867E-1,1.925848E-1,6.9728327E-1],"split_indices":[0,0,1,0,0,0,1,0,0,0,4,0,0,5,7,6,0,0,0,0,0,0,0,0,0],"split_type":[0,0,0,0,0,0,0,0,0,0,0,0,0,0,0,0,0,0,0,0,0,0,0,0,0],"sum_hessian":[7.7E1,2.4E1,5.3E1,2E1,4E0,2.4E1,2.9E1,7E0,1.7E1,1.1E1,1.8E1,5E0,2E0,8E0,9E0,1.7E1,1E0,1E0,1E0,6E0,2E0,6E0,3E0,1E0,1.6E1],"tree_param":{"num_deleted":"0","num_feature":"9","num_nodes":"25","size_leaf_vector":"1"}},{"base_weights":[3.8807403E-2,-1.6835217E1,6.968517E0,-9.135106E-1,-4.0075913E-1,7.971769E-1,1.0374895E1,-2.558484E0,2.6577563E0,7.4542127E0,1.259581E1,-2.7374496E0,-3.264313E-2,1.2508074E0,3.300416E0,3.973109E-1,1.87282E-1,1.2968369E1,1.4724426E-1,-5.9087373E-2,-1.5616906E-1,5.6243897E-3,7.279869E-2,1.7434554E-1,4.5211412E-2,1.8777028E-1,6.644701E-1],"categories":[],"categories_nodes":[],"categories_segments":[],"categories_sizes":[],"default_left":[0,0,0,0,0,0,0,0,0,0,0,0,0,0,0,0,0,0,0,0,0,0,0,0,0,0,0],"id":13,"left_children":[1,3,5,-1,-1,7,9,11,13,15,17,19,-1,21,23,-1,-1,25,-1,-1,-1,-1,-1,-1,-1,-1,-1],"loss_changes":[9.238019E3,1.4466602E2,1.1689563E3,0E0,0E0,1.3791278E2,1.3962549E2,9.4114685E-1,8.530457E0,3.079834E0,3.0124512E1,5.117111E-1,0E0,1.2374897E0,8.6893463E-1,0E0,0E0,3.3308105E0,0E0,0E0,0E0,0E0,0E0,0E0,0E0,0E0,0E0],"parents":[2147483647,0,0,1,1,2,2,5,5,6,6,7,7,8,8,9,9,10,10,11,11,13,13,14,14,17,17],"right_children":[2,4,6,-1,-1,8,10,12,14,16,18,20,-1,22,24,-1,-1,26,-1,-1,-1,-1,-1,-1,-1,-1,-1],"split_conditions":[6.129373E1,4.3695652E1,8.296301E1,-9.135106E-1,-4.0075913E-1,7.208314E1,9.253734E1,6.618914E1,7.797459E1,5.788458E0,1.0266155E2,3E0,-3.264313E-2,7.441431E1,1.2E1,3.973109E-1,1.87282E-1,9.061704E1,1.4724426E-1,-5.9087373E-2,-1.5616906E-1,5.6243897E-3,7.279869E-2,1.7434554E-1,4.5211412E-2,1.8777028E-1,6.644701E-1],"split_indices":[0,1,0,0,0,0,1,4,1,7,4,2,0,0,2,0,0,6,0,0,0,0,0,0,0,0,0],"split_type":[0,0,0,0,0,0,0,0,0,0,0,0,0,0,0,0,0,0,0,0,0,0,0,0,0,0,0],"sum_hessian":[7.7E1,2.2E1,5.5E1,1.8E1,4E0,2E1,3.5E1,7E0,1.3E1,1.7E1,1.8E1,6E0,1E0,5E0,8E0,1.4E1,3E0,1.7E1,1E0,2E0,4E0,1E0,4E0,7E0,1E0,1E0,1.6E1],"tree_param":{"num_deleted":"0","num_feature":"9","num_nodes":"27","size_leaf_vector":"1"}},{"base_weights":[4.096882E-2,-1.51191635E1,7.05879E0,-8.702392E-1,-6.75546E0,2.388965E0,1.0715018E1,-3.8472882E-1,-1.469223E-1,-1.192133E0,3.8478436E0,8.797247E0,6.613892E-1,-9.064204E-2,4.4666037E-1,2.2637448E0,4.888748E0,4.583032E-1,1.825962E-1,5.4838182E-3,2.8015709E-2,1.2425009E-1,4.9644854E-2,2.8088495E-1,1.19544886E-1],"categories":[],"categories_nodes":[],"categories_segments":[],"categories_sizes":[],"default_left":[0,0,0,0,0,0,0,0,0,0,0,0,0,0,0,0,0,0,0,0,0,0,0,0,0],"id":14,"left_children":[1,3,5,-1,7,9,11,-1,-1,13,15,17,-1,-1,19,21,23,-1,-1,-1,-1,-1,-1,-1,-1],"loss_changes":[8.405229E3,3.603286E2,8.963955E2,0E0,2.4822388E0,1.3519684E2,2.8199463E1,0E0,0E0,8.94742E0,1.861322E1,4.4799805E0,0E0,0E0,5.344534E-2,6.330109E-2,4.776764E0,0E0,0E0,0E0,0E0,0E0,0E0,0E0,0E0],"parents":[2147483647,0,0,1,1,2,2,4,4,5,5,6,6,9,9,10,10,11,11,14,14,15,15,16,16],"right_children":[2,4,6,-1,8,10,12,-1,-1,14,16,18,-1,-1,20,22,24,-1,-1,-1,-1,-1,-1,-1,-1],"split_conditions":[6.690918E1,4.3695652E1,8.734476E1,-8.702392E-1,6.129373E1,7.583093E1,9.753094E1,-3.8472882E-1,-1.469223E-1,7.208314E1,8.041516E1,9.994227E1,6.613892E-1,-9.064204E-2,7.441431E1,1.0266155E2,4.3210974E0,4.583032E-1,1.825962E-1,5.4838182E-3,2.8015709E-2,1.2425009E-1,4.9644854E-2,2.8088495E-1,1.19544886E-1],"split_indices":[0,1,1,0,0,0,1,0,0,0,0,0,0,0,0,5,7,0,0,0,0,0,0,0,0],"split_type":[0,0,0,0,0,0,0,0,0,0,0,0,0,0,0,0,0,0,0,0,0,0,0,0,0],"sum_hessian":[7.7E1,2.4E1,5.3E1,1.8E1,6E0,2.4E1,2.9E1,4E0,2E0,7E0,1.7E1,1.9E1,1E1,5E0,2E0,8E0,9E0,1.7E1,2E0,1E0,1E0,6E0,2E0,6E0,3E0],"tree_param":{"num_deleted":"0","num_feature":"9","num_nodes":"25","size_leaf_vector":"1"}},{"base_weights":[4.427313E-2,-1.4419282E1,6.7395434E0,-8.024893E-1,-2.3436542E-1,2.290204E0,1.0222674E1,-1.1396675E0,3.687358E0,7.3379397E0,1.15065775E1,-8.686517E-2,4.3549347E-1,1.0849389E-1,4.6843543E0,3.9285657E-1,1.5806605E-1,1.18369465E1,1.3899823E-1,5.3466796E-3,2.7315332E-2,2.6884708E-1,1.1506195E-1,1.7161846E-1,6.064715E-1],"categories":[],"categories_nodes":[],"categories_segments":[],"categories_sizes":[],"default_left":[0,0,0,0,0,0,0,0,0,0,0,0,0,0,0,0,0,0,0,0,0,0,0,0,0],"id":15,"left_children":[1,3,5,-1,-1,7,9,11,13,15,17,-1,19,-1,21,-1,-1,23,-1,-1,-1,-1,-1,-1,-1],"loss_changes":[7.6504976E3,3.214707E2,8.1346045E2,0E0,0E0,1.240038E2,2.6677002E1,8.287566E0,1.7068146E1,1.1826782E0,2.1870605E1,0E0,5.0807714E-2,0E0,4.1315155E0,0E0,0E0,2.614746E0,0E0,0E0,0E0,0E0,0E0,0E0,0E0],"parents":[2147483647,0,0,1,1,2,2,5,5,6,6,7,7,8,8,9,9,10,10,12,12,14,14,17,17],"right_children":[2,4,6,-1,-1,8,10,12,14,16,18,-1,20,-1,22,-1,-1,24,-1,-1,-1,-1,-1,-1,-1],"split_conditions":[6.690918E1,5.556649E1,8.734476E1,-8.024893E-1,-2.3436542E-1,7.583093E1,9.253734E1,7.208314E1,8.041516E1,5.788458E0,1.0266155E2,-8.686517E-2,7.441431E1,1.0849389E-1,4.3210974E0,3.9285657E-1,1.5806605E-1,9.061704E1,1.3899823E-1,5.3466796E-3,2.7315332E-2,2.6884708E-1,1.1506195E-1,1.7161846E-1,6.064715E-1],"split_indices":[0,0,1,0,0,0,1,0,0,7,4,0,0,0,7,0,0,6,0,0,0,0,0,0,0],"split_type":[0,0,0,0,0,0,0,0,0,0,0,0,0,0,0,0,0,0,0,0,0,0,0,0,0],"sum_hessian":[7.7E1,2.4E1,5.3E1,2E1,4E0,2.4E1,2.9E1,7E0,1.7E1,1.1E1,1.8E1,5E0,2E0,8E0,9E0,9E0,2E0,1.7E1,1E0,1E0,1E0,6E0,3E0,1E0,1.6E1],"tree_param":{"num_deleted":"0","num_feature":"9","num_nodes":"25","size_leaf_vector":"1"}},{"base_weights":[5.3206664E-2,-1.3739791E1,6.437868E0,-7.910046E-1,-6.1304317E0,2.1932223E0,9.760478E0,-3.4860256E-1,-1.3421275E-1,-1.0894575E0,3.5303454E0,7.999366E0,6.0375917E-1,-8.324566E-2,4.2460632E-1,4.266123E0,1.7646779E0,4.1706166E-1,1.6408525E-1,5.2129747E-3,2.66325E-2,9.99609E-2,4.7996225E0,1.8412972E-2,9.6801884E-2,1.0301399E-1,2.643983E-1],"categories":[],"categories_nodes":[],"categories_segments":[],"categories_sizes":[],"default_left":[0,0,0,0,0,0,0,0,0,0,0,0,0,0,0,0,0,0,0,0,0,0,0,0,0,0,0],"id":16,"left_children":[1,3,5,-1,7,9,11,-1,-1,13,15,17,-1,-1,19,21,23,-1,-1,-1,-1,-1,25,-1,-1,-1,-1],"loss_changes":[6.957418E3,2.9875977E2,7.401714E2,0E0,1.5877991E0,1.1357984E2,2.5699707E1,0E0,0E0,7.677146E0,1.5856155E1,4.8828125E0,0E0,0E0,4.8300564E-2,4.917221E0,9.6206474E-1,0E0,0E0,0E0,0E0,0E0,1.1449585E0,0E0,0E0,0E0,0E0],"parents":[2147483647,0,0,1,1,2,2,4,4,5,5,6,6,9,9,10,10,11,11,14,14,15,15,16,16,22,22],"right_children":[2,4,6,-1,8,10,12,-1,-1,14,16,18,-1,-1,20,22,24,-1,-1,-1,-1,-1,26,-1,-1,-1,-1],"split_conditions":[6.690918E1,4.3695652E1,8.734476E1,-7.910046E-1,6.129373E1,7.583093E1,9.753094E1,-3.4860256E-1,-1.3421275E-1,7.208314E1,8.296301E1,9.994227E1,6.0375917E-1,-8.324566E-2,7.441431E1,7.208314E1,8.8265205E1,4.1706166E-1,1.6408525E-1,5.2129747E-3,2.66325E-2,9.99609E-2,4E0,1.8412972E-2,9.6801884E-2,1.0301399E-1,2.643983E-1],"split_indices":[0,1,1,0,0,0,1,0,0,0,4,0,0,0,0,4,4,0,0,0,0,0,2,0,0,0,0],"split_type":[0,0,0,0,0,0,0,0,0,0,0,0,0,0,0,0,0,0,0,0,0,0,0,0,0,0,0],"sum_hessian":[7.7E1,2.4E1,5.3E1,1.8E1,6E0,2.4E1,2.9E1,4E0,2E0,7E0,1.7E1,1.9E1,1E1,5E0,2E0,1.1E1,6E0,1.7E1,2E0,1E0,1E0,3E0,8E0,1E0,5E0,2E0,6E0],"tree_param":{"num_deleted":"0","num_feature":"9","num_nodes":"27","size_leaf_vector":"1"}},{"base_weights":[5.6216754E-2,-1.3103754E1,6.1477547E0,-7.6584816E-1,-6.4860654E0,1.7981193E0,9.081938E0,-3.899052E-1,-1.6122504E-1,-1.3385642E0,2.983923E0,2.2390239E-1,9.768657E0,-7.9777144E-2,5.0827027E-3,7.417723E-2,3.6674438E0,5.237126E-1,5.553364E0,2.041957E-1,5.9777576E-2,6.111851E-2,3.087544E-1],"categories":[],"categories_nodes":[],"categories_segments":[],"categories_sizes":[],"default_left":[0,0,0,0,0,0,0,0,0,0,0,0,0,0,0,0,0,0,0,0,0,0,0],"id":17,"left_children":[1,3,5,-1,7,9,11,-1,-1,13,15,-1,17,-1,-1,-1,19,-1,21,-1,-1,-1,-1],"loss_changes":[6.333387E3,2.6681104E2,6.728513E2,0E0,9.0894165E0,8.954247E1,5.7426025E1,0E0,0E0,2.7529306E0,1.1993362E1,0E0,2.2138428E1,0E0,0E0,0E0,6.44162E0,0E0,8.607864E0,0E0,0E0,0E0,0E0],"parents":[2147483647,0,0,1,1,2,2,4,4,5,5,6,6,9,9,10,10,12,12,16,16,18,18],"right_children":[2,4,6,-1,8,10,12,-1,-1,14,16,-1,18,-1,-1,-1,20,-1,22,-1,-1,-1,-1],"split_conditions":[6.690918E1,3.790559E1,8.631539E1,-7.6584816E-1,5.777197E1,7.441431E1,8.041516E1,-3.899052E-1,-1.6122504E-1,7.208314E1,7.866391E1,2.2390239E-1,5.655571E0,-7.9777144E-2,5.0827027E-3,7.417723E-2,8.2801E0,5.237126E-1,9.1889755E1,2.041957E-1,5.9777576E-2,6.111851E-2,3.087544E-1],"split_indices":[0,5,1,0,0,0,4,0,0,0,1,0,7,0,0,0,7,0,1,0,0,0,0],"split_type":[0,0,0,0,0,0,0,0,0,0,0,0,0,0,0,0,0,0,0,0,0,0,0],"sum_hessian":[7.7E1,2.4E1,5.3E1,1.7E1,7E0,2.2E1,3.1E1,4E0,3E0,6E0,1.6E1,5E0,2.6E1,5E0,1E0,6E0,1E1,2.1E1,5E0,8E0,2E0,1E0,4E0],"tree_param":{"num_deleted":"0","num_feature":"9","num_nodes":"23","size_leaf_vector":"1"}},{"base_weights":[5.4227E-2,-1.2501245E1,5.865941E0,-7.192999E-1,-5.5995913E0,2.0027304E0,8.889751E0,-3.1735256E-1,-1.24364726E-1,-1.0014553E0,3.2266612E0,6.3109803E0,1.0050568E1,-7.6452956E-2,3.875707E-1,1.8831956E0,4.1131144E0,3.3883965E-1,1.3273062E-1,1.0334039E1,1.2370224E-1,4.955673E-3,2.411213E-2,1.0392805E-1,3.998057E-2,2.3611319E-1,1.0094118E-1,1.491827E-1,5.2954525E-1],"categories":[],"categories_nodes":[],"categories_segments":[],"categories_sizes":[],"default_left":[0,0,0,0,0,0,0,0,0,0,0,0,0,0,0,0,0,0,0,0,0,0,0,0,0,0,0,0,0],"id":18,"left_children":[1,3,5,-1,7,9,11,-1,-1,13,15,17,19,-1,21,23,25,-1,-1,27,-1,-1,-1,-1,-1,-1,-1,-1,-1],"loss_changes":[5.7648984E3,2.446416E2,6.1300354E2,0E0,4.9723816E-1,9.515425E1,2.6375244E1,0E0,0E0,6.4554615E0,1.369075E1,2.4484253E0,1.523999E1,0E0,3.412965E-2,2.4321175E-1,3.223938E0,0E0,0E0,2.38562E0,0E0,0E0,0E0,0E0,0E0,0E0,0E0,0E0,0E0],"parents":[2147483647,0,0,1,1,2,2,4,4,5,5,6,6,9,9,10,10,11,11,12,12,14,14,15,15,16,16,19,19],"right_children":[2,4,6,-1,8,10,12,-1,-1,14,16,18,20,-1,22,24,26,-1,-1,28,-1,-1,-1,-1,-1,-1,-1,-1,-1],"split_conditions":[6.690918E1,4.5017952E1,8.734476E1,-7.192999E-1,6.129373E1,7.583093E1,9.253734E1,-3.1735256E-1,-1.24364726E-1,7.208314E1,8.041516E1,5.788458E0,1.0266155E2,-7.6452956E-2,7.441431E1,1.0266155E2,4.3210974E0,3.3883965E-1,1.3273062E-1,9.061704E1,1.2370224E-1,4.955673E-3,2.411213E-2,1.0392805E-1,3.998057E-2,2.3611319E-1,1.0094118E-1,1.491827E-1,5.2954525E-1],"split_indices":[0,0,1,0,0,0,1,0,0,0,0,7,4,0,0,5,7,0,0,6,0,0,0,0,0,0,0,0,0],"split_type":[0,0,0,0,0,0,0,0,0,0,0,0,0,0,0,0,0,0,0,0,0,0,0,0,0,0,0,0,0],"sum_hessian":[7.7E1,2.4E1,5.3E1,1.8E1,6E0,2.4E1,2.9E1,4E0,2E0,7E0,1.7E1,1.1E1,1.8E1,5E0,2E0,8E0,9E0,9E0,2E0,1.7E1,1E0,1E0,1E0,6E0,2E0,6E0,3E0,1E0,1.6E1],"tree_param":{"num_deleted":"0","num_feature":"9","num_nodes":"29","size_leaf_vector":"1"}},{"base_weights":[5.8522347E-2,-1.1922623E1,5.604265E0,-6.968326E-1,-5.9007297E0,1.6443306E0,8.275335E0,-3.5357594E-1,-1.4810304E-1,-1.2284023E0,2.7304952E0,4.0487494E0,8.908082E0,-1.4653473E0,4.8316955E-3,6.802772E-2,3.354049E0,2.1895881E-1,5.9915353E-2,4.762774E-1,5.159359E0,-7.935997E-2,-2.1402169E-2,1.8684617E-1,5.43705E-2,5.6272317E-2,2.870526E-1],"categories":[],"categories_nodes":[],"categories_segments":[],"categories_sizes":[],"default_left":[0,0,0,0,0,0,0,0,0,0,0,0,0,0,0,0,0,0,0,0,0,0,0,0,0,0,0],"id":19,"left_children":[1,3,5,-1,7,9,11,-1,-1,13,15,17,19,21,-1,-1,23,-1,-1,-1,25,-1,-1,-1,-1,-1,-1],"loss_changes":[5.249477E3,2.2097046E2,5.575647E2,0E0,6.5782166E0,7.512015E1,4.951294E1,0E0,0E0,2.3393269E0,9.95858E0,4.035797E-1,1.33515625E1,7.899666E-2,0E0,0E0,5.4826508E0,0E0,0E0,0E0,7.617752E0,0E0,0E0,0E0,0E0,0E0,0E0],"parents":[2147483647,0,0,1,1,2,2,4,4,5,5,6,6,9,9,10,10,11,11,12,12,13,13,16,16,20,20],"right_children":[2,4,6,-1,8,10,12,-1,-1,14,16,18,20,22,-1,-1,24,-1,-1,-1,26,-1,-1,-1,-1,-1,-1],"split_conditions":[6.690918E1,3.790559E1,8.631539E1,-6.968326E-1,5.777197E1,7.441431E1,8.041516E1,-3.5357594E-1,-1.4810304E-1,7.208314E1,7.866391E1,9.110202E1,5.655571E0,5E0,4.8316955E-3,6.802772E-2,8.2801E0,2.1895881E-1,5.9915353E-2,4.762774E-1,9.1889755E1,-7.935997E-2,-2.1402169E-2,1.8684617E-1,5.43705E-2,5.6272317E-2,2.870526E-1],"split_indices":[0,5,1,0,0,0,4,0,0,0,1,0,7,2,0,0,7,0,0,0,1,0,0,0,0,0,0],"split_type":[0,0,0,0,0,0,0,0,0,0,0,0,0,0,0,0,0,0,0,0,0,0,0,0,0,0,0],"sum_hessian":[7.7E1,2.4E1,5.3E1,1.7E1,7E0,2.2E1,3.1E1,4E0,3E0,6E0,1.6E1,5E0,2.6E1,5E0,1E0,6E0,1E1,4E0,1E0,2.1E1,5E0,4E0,1E0,8E0,2E0,1E0,4E0],"tree_param":{"num_deleted":"0","num_feature":"9","num_nodes":"27","size_leaf_vector":"1"}},{"base_weights":[5.7047427E-2,-1.13744335E1,5.3483434E0,-6.540267E-1,-2.559336E-1,1.8313828E0,8.100865E0,-9.24057E-1,2.9542792E0,6.66191E0,5.156293E-1,-1.4088732E0,3.5359445E-1,1.8192581E0,3.8871603E0,3.4292388E-1,6.826401E-2,-7.618553E-2,-2.0867158E-2,4.7109607E-3,2.1808624E-2,1.0471033E-1,8.832836E-1,4.585518E0,9.339171E-2,4.995359E-2,1.339798E-2,6.5655135E-2,2.4886902E-1],"categories":[],"categories_nodes":[],"categories_segments":[],"categories_sizes":[],"default_left":[0,0,0,0,0,0,0,0,0,0,0,0,0,0,0,0,0,0,0,0,0,0,0,0,0,0,0,0,0],"id":20,"left_children":[1,3,5,-1,-1,7,9,11,13,15,-1,17,19,21,23,-1,-1,-1,-1,-1,-1,-1,25,27,-1,-1,-1,-1,-1],"loss_changes":[4.7788477E3,1.9986914E2,5.0791187E2,0E0,0E0,8.008176E1,2.6775513E1,5.453579E0,1.1987366E1,1.2500183E1,0E0,4.727745E-2,2.3160249E-2,7.2367096E-1,4.1269226E0,0E0,0E0,0E0,0E0,0E0,0E0,0E0,1.7278194E-2,1.1582184E0,0E0,0E0,0E0,0E0,0E0],"parents":[2147483647,0,0,1,1,2,2,5,5,6,6,7,7,8,8,9,9,11,11,12,12,13,13,14,14,22,22,23,23],"right_children":[2,4,6,-1,-1,8,10,12,14,16,-1,18,20,22,24,-1,-1,-1,-1,-1,-1,-1,26,28,-1,-1,-1,-1,-1],"split_conditions":[6.690918E1,4.5017952E1,8.734476E1,-6.540267E-1,-2.559336E-1,7.583093E1,9.801987E1,7.208314E1,8.1834274E1,1.00051674E2,5.156293E-1,5E0,7.441431E1,8.0543465E1,4.3210974E0,3.4292388E-1,6.826401E-2,-7.618553E-2,-2.0867158E-2,4.7109607E-3,2.1808624E-2,1.0471033E-1,7.8800224E1,4E0,9.339171E-2,4.995359E-2,1.339798E-2,6.5655135E-2,2.4886902E-1],"split_indices":[0,0,1,0,0,0,1,0,1,0,0,2,0,6,7,0,0,0,0,0,0,0,0,2,0,0,0,0,0],"split_type":[0,0,0,0,0,0,0,0,0,0,0,0,0,0,0,0,0,0,0,0,0,0,0,0,0,0,0,0,0],"sum_hessian":[7.7E1,2.4E1,5.3E1,1.8E1,6E0,2.4E1,2.9E1,7E0,1.7E1,2E1,9E0,5E0,2E0,9E0,8E0,1.9E1,1E0,4E0,1E0,1E0,1E0,6E0,3E0,5E0,3E0,2E0,1E0,1E0,4E0],"tree_param":{"num_deleted":"0","num_feature":"9","num_nodes":"29","size_leaf_vector":"1"}},{"base_weights":[6.089E-2,-1.0842111E1,5.107448E0,-6.674154E-1,-6.4389234E0,2.194797E0,8.159734E0,-3.7620017E-1,-1.3295165E-1,-8.8666916E-1,3.2155669E0,4.2321077E-1,1.501985E-1,-1.3546041E0,3.4475708E-1,1.7450988E0,4.0993447E0,-7.313805E-2,-2.0345498E-2,4.593277E-3,2.1263504E-2,1.0022261E-1,8.549557E-1,4.28725E0,4.611206E-2,4.8288345E-2,1.306305E-2,2.2365312E-1,5.6082726E-2],"categories":[],"categories_nodes":[],"categories_segments":[],"categories_sizes":[],"default_left":[0,0,0,0,0,0,0,0,0,0,0,0,0,0,0,0,0,0,0,0,0,0,0,0,0,0,0,0,0],"id":21,"left_children":[1,3,5,-1,7,9,11,-1,-1,13,15,-1,-1,17,19,21,23,-1,-1,-1,-1,-1,25,27,-1,-1,-1,-1,-1],"loss_changes":[4.3471406E3,1.8993262E2,4.6216418E2,0E0,2.5109772E1,9.40697E1,1.5389526E1,0E0,0E0,5.0768275E0,2.1436707E1,0E0,0E0,1.9784927E-2,2.2015482E-2,5.9490013E-1,3.8070679E0,0E0,0E0,0E0,0E0,0E0,1.0834694E-2,2.041275E0,0E0,0E0,0E0,0E0,0E0],"parents":[2147483647,0,0,1,1,2,2,4,4,5,5,6,6,9,9,10,10,13,13,14,14,15,15,16,16,22,22,23,23],"right_children":[2,4,6,-1,8,10,12,-1,-1,14,16,-1,-1,18,20,22,24,-1,-1,-1,-1,-1,26,28,-1,-1,-1,-1,-1],"split_conditions":[6.690918E1,4.0564056E1,8.974788E1,-6.674154E-1,5.777197E1,7.583093E1,1.0266155E2,-3.7620017E-1,-1.3295165E-1,7.208314E1,8.1834274E1,4.2321077E-1,1.501985E-1,5E0,7.441431E1,8.0543465E1,8.2801E0,-7.313805E-2,-2.0345498E-2,4.593277E-3,2.1263504E-2,1.0022261E-1,7.8800224E1,9.110202E1,4.611206E-2,4.8288345E-2,1.306305E-2,2.2365312E-1,5.6082726E-2],"split_indices":[0,1,1,0,0,0,4,0,0,0,1,0,0,2,0,6,7,0,0,0,0,0,0,0,0,0,0,0,0],"split_type":[0,0,0,0,0,0,0,0,0,0,0,0,0,0,0,0,0,0,0,0,0,0,0,0,0,0,0,0,0],"sum_hessian":[7.7E1,2.4E1,5.3E1,1.4E1,1E1,2.8E1,2.5E1,7E0,3E0,7E0,2.1E1,2.3E1,2E0,5E0,2E0,9E0,1.2E1,4E0,1E0,1E0,1E0,6E0,3E0,1.1E1,1E0,2E0,1E0,1E1,1E0],"tree_param":{"num_deleted":"0","num_feature":"9","num_nodes":"29","size_leaf_vector":"1"}},{"base_weights":[5.5494748E-2,-1.0347068E1,4.870468E0,-6.7316645E-1,-6.93691E0,1.4396561E0,7.184162E0,-3.9490664E-1,-1.2796603E-1,-1.0907996E0,2.3969228E0,5.034327E0,8.390138E0,-6.51228E-2,4.4784546E-3,5.95223E-2,2.9467788E0,2.6826996E-1,1.0159645E-1,8.631578E0,1.0110512E-1,1.6388232E-1,4.8595812E-2,1.1912327E-1,4.429514E-1],"categories":[],"categories_nodes":[],"categories_segments":[],"categories_sizes":[],"default_left":[0,0,0,0,0,0,0,0,0,0,0,0,0,0,0,0,0,0,0,0,0,0,0,0,0],"id":22,"left_children":[1,3,5,-1,7,9,11,-1,-1,13,15,17,19,-1,-1,-1,21,-1,-1,23,-1,-1,-1,-1,-1],"loss_changes":[3.957264E3,1.722793E2,4.1830127E2,0E0,3.8695923E1,5.832795E1,4.0726074E1,0E0,0E0,1.865488E0,7.769623E0,3.0140076E0,1.1758667E1,0E0,0E0,0E0,4.001999E0,0E0,0E0,4.4781494E0,0E0,0E0,0E0,0E0,0E0],"parents":[2147483647,0,0,1,1,2,2,4,4,5,5,6,6,9,9,10,10,11,11,12,12,16,16,19,19],"right_children":[2,4,6,-1,8,10,12,-1,-1,14,16,18,20,-1,-1,-1,22,-1,-1,24,-1,-1,-1,-1,-1],"split_conditions":[6.690918E1,3.9126457E1,8.631539E1,-6.7316645E-1,5.777197E1,7.441431E1,9.253734E1,-3.9490664E-1,-1.2796603E-1,7.208314E1,7.866391E1,5.788458E0,1.0266155E2,-6.51228E-2,4.4784546E-3,5.95223E-2,8.2801E0,2.6826996E-1,1.0159645E-1,9.061704E1,1.0110512E-1,1.6388232E-1,4.8595812E-2,1.1912327E-1,4.429514E-1],"split_indices":[0,1,1,0,0,0,1,0,0,0,1,7,4,0,0,0,7,0,0,6,0,0,0,0,0],"split_type":[0,0,0,0,0,0,0,0,0,0,0,0,0,0,0,0,0,0,0,0,0,0,0,0,0],"sum_hessian":[7.7E1,2.4E1,5.3E1,1.1E1,1.3E1,2.2E1,3.1E1,1E1,3E0,6E0,1.6E1,1.3E1,1.8E1,5E0,1E0,6E0,1E1,1.1E1,2E0,1.7E1,1E0,8E0,2E0,1E0,1.6E1],"tree_param":{"num_deleted":"0","num_feature":"9","num_nodes":"25","size_leaf_vector":"1"}},{"base_weights":[5.33393E-2,-9.877556E0,4.649988E0,-5.7871604E-1,-4.8251386E0,1.9942267E0,7.4333377E0,-2.726489E-1,-9.8054E-2,-8.180876E-1,2.9262397E0,8.19332E0,4.699211E0,-1.2481855E0,3.1480408E-1,1.5902176E0,3.7288537E0,1.1130486E-1,4.2005807E-1,3.3172227E-2,5.1809716E0,-6.7607656E-2,-1.8208696E-2,4.3664933E-3,1.9243812E-2,8.793626E-2,3.0539576E-2,3.8937771E0,4.3744277E-2,2.8725556E-1,4.4903375E-2,2.0366533E-1,4.7973823E-2],"categories":[],"categories_nodes":[],"categories_segments":[],"categories_sizes":[],"default_left":[0,0,0,0,0,0,0,0,0,0,0,0,0,0,0,0,0,0,0,0,0,0,0,0,0,0,0,0,0,0,0,0,0],"id":23,"left_children":[1,3,5,-1,7,9,11,-1,-1,13,15,17,19,21,23,25,27,-1,-1,-1,29,-1,-1,-1,-1,-1,-1,31,-1,-1,-1,-1,-1],"loss_changes":[3.6065396E3,1.5847119E2,3.843396E2,0E0,3.6916504E0,7.8406235E1,1.5522949E1,0E0,0E0,4.290969E0,1.7661133E1,4.862549E0,1.2116882E1,5.9031487E-2,1.4207631E-2,5.7619286E-1,2.7122955E0,0E0,0E0,0E0,1.1753586E1,0E0,0E0,0E0,0E0,0E0,0E0,2.4132843E0,0E0,0E0,0E0,0E0,0E0],"parents":[2147483647,0,0,1,1,2,2,4,4,5,5,6,6,9,9,10,10,11,11,12,12,13,13,14,14,15,15,16,16,20,20,27,27],"right_children":[2,4,6,-1,8,10,12,-1,-1,14,16,18,20,22,24,26,28,-1,-1,-1,30,-1,-1,-1,-1,-1,-1,32,-1,-1,-1,-1,-1],"split_conditions":[6.690918E1,3.790559E1,8.974788E1,-5.7871604E-1,6.129373E1,7.583093E1,5.032267E0,-2.726489E-1,-9.8054E-2,7.208314E1,8.1834274E1,2.2668912E0,9.1889755E1,5E0,7.441431E1,1.0266155E2,8.2801E0,1.1130486E-1,4.2005807E-1,3.3172227E-2,1.00051674E2,-6.7607656E-2,-1.8208696E-2,4.3664933E-3,1.9243812E-2,8.793626E-2,3.0539576E-2,9.110202E1,4.3744277E-2,2.8725556E-1,4.4903375E-2,2.0366533E-1,4.7973823E-2],"split_indices":[0,5,1,0,0,0,7,0,0,0,1,7,1,2,0,5,7,0,0,0,0,0,0,0,0,0,0,0,0,0,0,0,0],"split_type":[0,0,0,0,0,0,0,0,0,0,0,0,0,0,0,0,0,0,0,0,0,0,0,0,0,0,0,0,0,0,0,0,0],"sum_hessian":[7.7E1,2.4E1,5.3E1,1.7E1,7E0,2.8E1,2.5E1,5E0,2E0,7E0,2.1E1,1.8E1,7E0,5E0,2E0,9E0,1.2E1,1E0,1.7E1,1E0,6E0,4E0,1E0,1E0,1E0,7E0,2E0,1.1E1,1E0,5E0,1E0,1E1,1E0],"tree_param":{"num_deleted":"0","num_feature":"9","num_nodes":"33","size_leaf_vector":"1"}},{"base_weights":[5.450425E-2,-9.421654E0,4.440605E0,-6.157884E-1,-6.26801E0,1.9066404E0,7.096158E0,-3.56216E-1,-1.1730776E-1,-7.849598E-1,2.7987387E0,7.8116198E0,4.5099173E0,-1.2000809E0,3.0693564E-1,1.522554E0,3.5651317E0,1.0852223E-1,4.002219E-1,3.234291E-2,4.9693747E0,-6.490349E-2,-1.7753411E-2,4.257393E-3,1.876278E-2,8.7781526E-2,7.340317E-1,3.9535089E0,8.514529E-2,2.752866E-1,4.378071E-2,4.194552E-2,1.0484886E-2,2.0924504E-1,4.6774484E-2],"categories":[],"categories_nodes":[],"categories_segments":[],"categories_sizes":[],"default_left":[0,0,0,0,0,0,0,0,0,0,0,0,0,0,0,0,0,0,0,0,0,0,0,0,0,0,0,0,0,0,0,0,0,0,0],"id":24,"left_children":[1,3,5,-1,7,9,11,-1,-1,13,15,17,19,21,23,25,27,-1,-1,-1,29,-1,-1,-1,-1,-1,31,33,-1,-1,-1,-1,-1,-1,-1],"loss_changes":[3.2837822E3,1.5097974E2,3.4984045E2,0E0,3.0301758E1,7.183089E1,1.2879395E1,0E0,0E0,3.9944978E0,1.6089172E1,3.293579E0,1.0984802E1,3.590679E-2,1.3505369E-2,5.4917145E-1,2.669754E0,0E0,0E0,0E0,1.0549149E1,0E0,0E0,0E0,0E0,0E0,4.404831E-2,3.068512E0,0E0,0E0,0E0,0E0,0E0,0E0,0E0],"parents":[2147483647,0,0,1,1,2,2,4,4,5,5,6,6,9,9,10,10,11,11,12,12,13,13,14,14,15,15,16,16,20,20,26,26,27,27],"right_children":[2,4,6,-1,8,10,12,-1,-1,14,16,18,20,22,24,26,28,-1,-1,-1,30,-1,-1,-1,-1,-1,32,34,-1,-1,-1,-1,-1,-1,-1],"split_conditions":[6.690918E1,3.9126457E1,8.974788E1,-6.157884E-1,5.777197E1,7.583093E1,5.032267E0,-3.56216E-1,-1.1730776E-1,7.208314E1,8.1834274E1,2.2668912E0,9.1889755E1,5E0,7.441431E1,8.0543465E1,8.691781E1,1.0852223E-1,4.002219E-1,3.234291E-2,1.00051674E2,-6.490349E-2,-1.7753411E-2,4.257393E-3,1.876278E-2,8.7781526E-2,7.8800224E1,9.110202E1,8.514529E-2,2.752866E-1,4.378071E-2,4.194552E-2,1.0484886E-2,2.0924504E-1,4.6774484E-2],"split_indices":[0,1,1,0,0,0,7,0,0,0,1,7,1,2,0,6,6,0,0,0,0,0,0,0,0,0,0,0,0,0,0,0,0,0,0],"split_type":[0,0,0,0,0,0,0,0,0,0,0,0,0,0,0,0,0,0,0,0,0,0,0,0,0,0,0,0,0,0,0,0,0,0,0],"sum_hessian":[7.7E1,2.4E1,5.3E1,1.1E1,1.3E1,2.8E1,2.5E1,1E1,3E0,7E0,2.1E1,1.8E1,7E0,5E0,2E0,9E0,1.2E1,1E0,1.7E1,1E0,6E0,4E0,1E0,1E0,1E0,6E0,3E0,9E0,3E0,5E0,1E0,2E0,1E0,8E0,1E0],"tree_param":{"num_deleted":"0","num_feature":"9","num_nodes":"35","size_leaf_vector":"1"}},{"base_weights":[5.4248124E-2,-8.994144E0,4.242314E0,-5.5550987E-1,-5.290968E0,1.8258512E0,6.7744336E0,-3.072997E-1,-1.12908654E-1,-7.531662E-1,2.6806824E0,4.277698E-1,5.5075946E0,-1.153853E0,2.99263E-1,1.4604461E0,3.4131193E0,5.7311325E0,4.2686272E-2,-6.2307358E-2,-1.730957E-2,4.150963E-3,1.8293763E-2,1.6164293E0,2.7883783E-2,3.7814362E0,8.1952386E-2,3.0015174E-1,1.2306227E-1,8.566099E-2,2.3472404E-2,1.9994532E-1,4.560509E-2],"categories":[],"categories_nodes":[],"categories_segments":[],"categories_sizes":[],"default_left":[0,0,0,0,0,0,0,0,0,0,0,0,0,0,0,0,0,0,0,0,0,0,0,0,0,0,0,0,0,0,0,0,0],"id":25,"left_children":[1,3,5,-1,7,9,11,-1,-1,13,15,-1,17,19,21,23,25,27,-1,-1,-1,-1,-1,29,-1,31,-1,-1,-1,-1,-1,-1,-1],"loss_changes":[2.9939863E3,1.3711926E2,3.1804462E2,0E0,1.4645569E1,6.595311E1,1.1541382E1,0E0,0E0,3.7188625E0,1.4677734E1,0E0,1.3832886E1,1.5848637E-2,1.2838781E-2,5.067272E-1,2.2965088E0,3.3953857E-1,0E0,0E0,0E0,0E0,0E0,8.386803E-2,0E0,2.5925598E0,0E0,0E0,0E0,0E0,0E0,0E0,0E0],"parents":[2147483647,0,0,1,1,2,2,4,4,5,5,6,6,9,9,10,10,12,12,13,13,14,14,15,15,16,16,17,17,23,23,25,25],"right_children":[2,4,6,-1,8,10,12,-1,-1,14,16,-1,18,20,22,24,26,28,-1,-1,-1,-1,-1,30,-1,32,-1,-1,-1,-1,-1,-1,-1],"split_conditions":[6.690918E1,4.0564056E1,8.974788E1,-5.5550987E-1,5.777197E1,7.583093E1,5E0,-3.072997E-1,-1.12908654E-1,7.208314E1,8.1834274E1,4.277698E-1,2.023E3,5E0,7.441431E1,1.0266155E2,8.691781E1,1.0266155E2,4.2686272E-2,-6.2307358E-2,-1.730957E-2,4.150963E-3,1.8293763E-2,1.1E1,2.7883783E-2,9.110202E1,8.1952386E-2,3.0015174E-1,1.2306227E-1,8.566099E-2,2.3472404E-2,1.9994532E-1,4.560509E-2],"split_indices":[0,1,1,0,0,0,2,0,0,0,1,0,8,2,0,5,6,4,0,0,0,0,0,2,0,0,0,0,0,0,0,0,0],"split_type":[0,0,0,0,0,0,0,0,0,0,0,0,0,0,0,0,0,0,0,0,0,0,0,0,0,0,0,0,0,0,0,0,0],"sum_hessian":[7.7E1,2.4E1,5.3E1,1.4E1,1E1,2.8E1,2.5E1,7E0,3E0,7E0,2.1E1,8E0,1.7E1,5E0,2E0,9E0,1.2E1,1.6E1,1E0,4E0,1E0,1E0,1E0,7E0,2E0,9E0,3E0,1.4E1,2E0,6E0,1E0,8E0,1E0],"tree_param":{"num_deleted":"0","num_feature":"9","num_nodes":"33","size_leaf_vector":"1"}},{"base_weights":[5.5706855E-2,-8.583465E0,4.0542917E0,-5.6210387E-1,-5.691549E0,1.1959723E0,5.982012E0,-3.2267144E-1,-1.0867462E-1,-9.2781174E-1,2.0001202E0,4.8402863E0,4.00489E-1,-5.547142E-2,4.0472033E-3,4.975891E-2,2.4577997E0,4.984628E0,4.161911E-2,1.4768732E-1,6.3595735E-2,1.4374924E-1,5.4359946E0,2.84571E-1,1.1734366E-1],"categories":[],"categories_nodes":[],"categories_segments":[],"categories_sizes":[],"default_left":[0,0,0,0,0,0,0,0,0,0,0,0,0,0,0,0,0,0,0,0,0,0,0,0,0],"id":26,"left_children":[1,3,5,-1,7,9,11,-1,-1,13,15,17,-1,-1,-1,-1,19,21,-1,-1,-1,-1,23,-1,-1],"loss_changes":[2.7292678E3,1.282273E2,2.9038794E2,0E0,2.34982E1,4.113598E1,3.5315308E1,0E0,0E0,1.3722501E0,5.3730545E0,9.156616E0,0E0,0E0,0E0,0E0,2.7125778E0,5.3204346E0,0E0,0E0,0E0,0E0,5.6610107E-2,0E0,0E0],"parents":[2147483647,0,0,1,1,2,2,4,4,5,5,6,6,9,9,10,10,11,11,16,16,17,17,22,22],"right_children":[2,4,6,-1,8,10,12,-1,-1,14,16,18,-1,-1,-1,-1,20,22,-1,-1,-1,-1,24,-1,-1],"split_conditions":[6.690918E1,3.9126457E1,8.631539E1,-5.6210387E-1,5.777197E1,7.441431E1,9.801987E1,-3.2267144E-1,-1.0867462E-1,7.208314E1,7.866391E1,1.00051674E2,4.00489E-1,-5.547142E-2,4.0472033E-3,4.975891E-2,8.218934E1,8.041516E1,4.161911E-2,1.4768732E-1,6.3595735E-2,1.4374924E-1,9.88839E1,2.84571E-1,1.1734366E-1],"split_indices":[0,1,1,0,0,0,1,0,0,0,1,0,0,0,0,0,6,4,0,0,0,0,0,0,0],"split_type":[0,0,0,0,0,0,0,0,0,0,0,0,0,0,0,0,0,0,0,0,0,0,0,0,0],"sum_hessian":[7.7E1,2.4E1,5.3E1,1.1E1,1.3E1,2.2E1,3.1E1,1E1,3E0,6E0,1.6E1,2.2E1,9E0,5E0,1E0,6E0,1E1,2.1E1,1E0,6E0,4E0,5E0,1.6E1,1.4E1,2E0],"tree_param":{"num_deleted":"0","num_feature":"9","num_nodes":"25","size_leaf_vector":"1"}},{"base_weights":[5.5536173E-2,-8.194031E0,3.8737514E0,-5.3634083E-1,-5.4377832E0,1.1452869E0,5.7137804E0,-3.0800462E-1,-1.0459938E-1,-8.8876563E-1,1.9154681E0,4.6238084E0,3.8246697E-1,-1.0632006E0,3.946114E-3,4.7626387E-2,2.3541148E0,4.760202E0,4.0578652E-2,-1.151921E0,-1.548996E-2,2.6186795E0,3.8785808E-2,2.7551956E0,2.59392E-1,-2.5081381E-2,-7.091205E-2,1.3794723E-1,3.741398E-2,1.4896324E-1,4.087124E-2],"categories":[],"categories_nodes":[],"categories_segments":[],"categories_sizes":[],"default_left":[0,0,0,0,0,0,0,0,0,0,0,0,0,0,0,0,0,0,0,0,0,0,0,0,0,0,0,0,0,0,0],"id":27,"left_children":[1,3,5,-1,7,9,11,-1,-1,13,15,17,-1,19,-1,-1,21,23,-1,25,-1,27,-1,29,-1,-1,-1,-1,-1,-1,-1],"loss_changes":[2.488634E3,1.1619458E2,2.645606E2,0E0,2.09469E1,3.7733948E1,3.214148E1,0E0,0E0,1.2655005E0,4.938286E0,8.095917E0,0E0,4.41885E-2,0E0,0E0,2.5621185E0,4.5696106E0,0E0,1.5450191E-1,0E0,2.9670715E-1,0E0,1.6984177E-1,0E0,0E0,0E0,0E0,0E0,0E0,0E0],"parents":[2147483647,0,0,1,1,2,2,4,4,5,5,6,6,9,9,10,10,11,11,13,13,16,16,17,17,19,19,21,21,23,23],"right_children":[2,4,6,-1,8,10,12,-1,-1,14,16,18,-1,20,-1,-1,22,24,-1,26,-1,28,-1,30,-1,-1,-1,-1,-1,-1,-1],"split_conditions":[6.690918E1,3.9126457E1,8.631539E1,-5.3634083E-1,5.777197E1,7.441431E1,9.801987E1,-3.0800462E-1,-1.0459938E-1,7.208314E1,7.866391E1,1.00051674E2,3.8246697E-1,5E0,3.946114E-3,4.7626387E-2,8.2801E0,8.041516E1,4.0578652E-2,3E0,-1.548996E-2,8.629156E1,3.8785808E-2,9.110202E1,2.59392E-1,-2.5081381E-2,-7.091205E-2,1.3794723E-1,3.741398E-2,1.4896324E-1,4.087124E-2],"split_indices":[0,1,1,0,0,0,1,0,0,0,1,0,0,2,0,0,7,4,0,2,0,1,0,0,0,0,0,0,0,0,0],"split_type":[0,0,0,0,0,0,0,0,0,0,0,0,0,0,0,0,0,0,0,0,0,0,0,0,0,0,0,0,0,0,0],"sum_hessian":[7.7E1,2.4E1,5.3E1,1.1E1,1.3E1,2.2E1,3.1E1,1E1,3E0,6E0,1.6E1,2.2E1,9E0,5E0,1E0,6E0,1E1,2.1E1,1E0,4E0,1E0,8E0,2E0,5E0,1.6E1,2E0,2E0,7E0,1E0,4E0,1E0],"tree_param":{"num_deleted":"0","num_feature":"9","num_nodes":"31","size_leaf_vector":"1"}},{"base_weights":[5.375417E-2,-7.822285E0,3.6990733E0,-5.1175845E-1,-5.195365E0,7.81675E-1,5.26047E0,-2.9400435E-1,-1.0067692E-1,-8.5969E-1,1.5465235E0,3.655825E0,6.419338E0,-1.0286217E0,3.8475038E-3,1.8520406E0,8.304939E-1,4.018006E0,1.4742355E0,6.615926E0,7.20192E-2,-1.1135238E0,-1.5102768E-2,1.540184E-2,1.0032683E-1,7.091141E-3,4.6993177E-2,3.6478616E-2,2.1074207E-1,9.132793E-2,1.04316715E-2,8.515968E-2,3.402361E-1,-2.4245454E-2,-6.85482E-2],"categories":[],"categories_nodes":[],"categories_segments":[],"categories_sizes":[],"default_left":[0,0,0,0,0,0,0,0,0,0,0,0,0,0,0,0,0,0,0,0,0,0,0,0,0,0,0,0,0,0,0,0,0,0,0],"id":28,"left_children":[1,3,5,-1,7,9,11,-1,-1,13,15,17,19,21,-1,23,25,27,29,31,-1,33,-1,-1,-1,-1,-1,-1,-1,-1,-1,-1,-1,-1,-1],"loss_changes":[2.268368E3,1.0528589E2,2.4186969E2,0E0,1.866153E1,2.6437447E1,4.1617065E1,0E0,0E0,1.1867499E0,1.5245209E0,7.5087433E0,9.067688E0,3.377676E-2,0E0,1.5287933E0,3.186245E-1,5.9868774E0,1.4025221E0,5.1054077E0,0E0,1.4436102E-1,0E0,0E0,0E0,0E0,0E0,0E0,0E0,0E0,0E0,0E0,0E0,0E0,0E0],"parents":[2147483647,0,0,1,1,2,2,4,4,5,5,6,6,9,9,10,10,11,11,12,12,13,13,15,15,16,16,17,17,18,18,19,19,21,21],"right_children":[2,4,6,-1,8,10,12,-1,-1,14,16,18,20,22,-1,24,26,28,30,32,-1,34,-1,-1,-1,-1,-1,-1,-1,-1,-1,-1,-1,-1,-1],"split_conditions":[6.690918E1,3.9126457E1,8.432142E1,-5.1175845E-1,5.777197E1,7.441431E1,9.253734E1,-2.9400435E-1,-1.0067692E-1,7.208314E1,8.296301E1,5.788458E0,1.0266155E2,5E0,3.8475038E-3,7.583093E1,8.8265205E1,6.8322624E1,8.944845E1,9.061704E1,7.20192E-2,3E0,-1.5102768E-2,1.540184E-2,1.0032683E-1,7.091141E-3,4.6993177E-2,3.6478616E-2,2.1074207E-1,9.132793E-2,1.04316715E-2,8.515968E-2,3.402361E-1,-2.4245454E-2,-6.85482E-2],"split_indices":[0,1,1,0,0,0,1,0,0,0,4,7,4,2,0,0,4,5,0,6,0,2,0,0,0,0,0,0,0,0,0,0,0,0,0],"split_type":[0,0,0,0,0,0,0,0,0,0,0,0,0,0,0,0,0,0,0,0,0,0,0,0,0,0,0,0,0,0,0,0,0,0,0],"sum_hessian":[7.7E1,2.4E1,5.3E1,1.1E1,1.3E1,1.9E1,3.4E1,1E1,3E0,6E0,1.3E1,1.6E1,1.8E1,5E0,1E0,8E0,5E0,1.3E1,3E0,1.7E1,1E0,4E0,1E0,1E0,7E0,1E0,4E0,1E0,1.2E1,2E0,1E0,1E0,1.6E1,2E0,2E0],"tree_param":{"num_deleted":"0","num_feature":"9","num_nodes":"35","size_leaf_vector":"1"}},{"base_weights":[5.114081E-2,-7.4674296E0,3.5310135E0,-4.8830292E-1,-4.9637895E0,7.458809E-1,5.0216317E0,-5.6128116E0,-9.690151E-2,-8.3156806E-1,1.4813281E0,3.493564E0,6.1245537E0,-8.086958E-2,-2.9253075E-1,-9.9517184E-1,3.7513734E-3,4.332025E-2,1.8342199E0,3.8347669E0,1.4259624E0,6.3087654E0,7.021866E-2,-1.0764053E0,-1.4725113E-2,1.04318045E-1,3.5926566E-2,3.5566714E-2,2.0101564E-1,8.828354E-2,1.0170937E-2,8.30307E-2,3.2422516E-1,-2.3437245E-2,-6.62632E-2],"categories":[],"categories_nodes":[],"categories_segments":[],"categories_sizes":[],"default_left":[0,0,0,0,0,0,0,0,0,0,0,0,0,0,0,0,0,0,0,0,0,0,0,0,0,0,0,0,0,0,0,0,0,0,0],"id":29,"left_children":[1,3,5,-1,7,9,11,13,-1,15,17,19,21,-1,-1,23,-1,-1,25,27,29,31,-1,33,-1,-1,-1,-1,-1,-1,-1,-1,-1,-1,-1],"loss_changes":[2.0671335E3,9.539685E1,2.2043927E2,0E0,1.6615173E1,2.4434437E1,3.7590332E1,9.885864E-1,0E0,1.1129222E0,1.448843E0,6.5247803E0,7.6608887E0,0E0,0E0,2.4503708E-2,0E0,0E0,7.513714E-1,5.2537994E0,1.302063E0,3.9350586E0,0E0,1.3489676E-1,0E0,0E0,0E0,0E0,0E0,0E0,0E0,0E0,0E0,0E0,0E0],"parents":[2147483647,0,0,1,1,2,2,4,4,5,5,6,6,7,7,9,9,10,10,11,11,12,12,15,15,18,18,19,19,20,20,21,21,23,23],"right_children":[2,4,6,-1,8,10,12,14,-1,16,18,20,22,-1,-1,24,-1,-1,26,28,30,32,-1,34,-1,-1,-1,-1,-1,-1,-1,-1,-1,-1,-1],"split_conditions":[6.690918E1,3.9126457E1,8.432142E1,-4.8830292E-1,5.777197E1,7.441431E1,9.253734E1,3.8880886E1,-9.690151E-2,7.208314E1,7.866391E1,5.788458E0,1.0266155E2,-8.086958E-2,-2.9253075E-1,5E0,3.7513734E-3,4.332025E-2,8.296301E1,6.8322624E1,8.944845E1,9.061704E1,7.021866E-2,3E0,-1.4725113E-2,1.04318045E-1,3.5926566E-2,3.5566714E-2,2.0101564E-1,8.828354E-2,1.0170937E-2,8.30307E-2,3.2422516E-1,-2.3437245E-2,-6.62632E-2],"split_indices":[0,1,1,0,0,0,1,0,0,0,1,7,4,0,0,2,0,0,4,5,0,6,0,2,0,0,0,0,0,0,0,0,0,0,0],"split_type":[0,0,0,0,0,0,0,0,0,0,0,0,0,0,0,0,0,0,0,0,0,0,0,0,0,0,0,0,0,0,0,0,0,0,0],"sum_hessian":[7.7E1,2.4E1,5.3E1,1.1E1,1.3E1,1.9E1,3.4E1,1E1,3E0,6E0,1.3E1,1.6E1,1.8E1,1E0,9E0,5E0,1E0,6E0,7E0,1.3E1,3E0,1.7E1,1E0,4E0,1E0,5E0,2E0,1E0,1.2E1,2E0,1E0,1E0,1.6E1,2E0,2E0],"tree_param":{"num_deleted":"0","num_feature":"9","num_nodes":"35","size_leaf_vector":"1"}},{"base_weights":[4.7772724E-2,-7.1324024E0,3.3710432E0,-5.016095E-1,-5.1776676E0,1.4471965E0,5.3872166E0,-5.7542095E0,-9.326773E-2,-6.341572E-1,2.1382706E0,3.4708354E-1,4.3107E0,-7.8847885E-2,-2.977116E-1,-9.6281815E-1,2.3455048E-1,1.1349869E0,2.745545E0,2.2551322E-1,2.2952652E-2,-1.0405258E0,-1.4356995E-2,3.6575317E-3,1.39337545E-2,1.2585115E0,4.2725882E-1,3.0652695E0,6.299239E-2,-2.2655996E-2,-6.405449E-2,6.6699825E-2,1.8252945E-2,2.6213456E-2,5.8309557E-3,1.6372485E-1,2.9555513E-2],"categories":[],"categories_nodes":[],"categories_segments":[],"categories_sizes":[],"default_left":[0,0,0,0,0,0,0,0,0,0,0,0,0,0,0,0,0,0,0,0,0,0,0,0,0,0,0,0,0,0,0,0,0,0,0,0,0],"id":30,"left_children":[1,3,5,-1,7,9,11,13,-1,15,17,-1,19,-1,-1,21,23,25,27,-1,-1,29,-1,-1,-1,31,33,35,-1,-1,-1,-1,-1,-1,-1,-1,-1],"loss_changes":[1.8852534E3,8.976453E1,2.0165924E2,0E0,2.1731049E1,4.3068726E1,1.35849E1,2.3080444E0,0E0,2.509912E0,1.0287743E1,0E0,1.1765259E1,0E0,0E0,1.6256332E-2,9.798557E-4,3.3650875E-1,2.313408E0,0E0,0E0,1.2605572E-1,0E0,0E0,0E0,5.2549362E-2,2.926594E-2,3.2410355E0,0E0,0E0,0E0,0E0,0E0,0E0,0E0,0E0,0E0],"parents":[2147483647,0,0,1,1,2,2,4,4,5,5,6,6,7,7,9,9,10,10,12,12,15,15,16,16,17,17,18,18,21,21,25,25,26,26,27,27],"right_children":[2,4,6,-1,8,10,12,14,-1,16,18,-1,20,-1,-1,22,24,26,28,-1,-1,30,-1,-1,-1,32,34,36,-1,-1,-1,-1,-1,-1,-1,-1,-1],"split_conditions":[6.690918E1,3.8230007E1,8.974788E1,-5.016095E-1,5.777197E1,7.583093E1,5E0,3.840178E1,-9.326773E-2,7.208314E1,8.1834274E1,3.4708354E-1,2.023E3,-7.8847885E-2,-2.977116E-1,5E0,7.441431E1,1.0266155E2,8.691781E1,2.2551322E-1,2.2952652E-2,3E0,-1.4356995E-2,3.6575317E-3,1.39337545E-2,1.1E1,7.772253E1,9.110202E1,6.299239E-2,-2.2655996E-2,-6.405449E-2,6.6699825E-2,1.8252945E-2,2.6213456E-2,5.8309557E-3,1.6372485E-1,2.9555513E-2],"split_indices":[0,1,1,0,0,0,2,6,0,0,1,0,8,0,0,2,0,5,6,0,0,2,0,0,0,2,0,0,0,0,0,0,0,0,0,0,0],"split_type":[0,0,0,0,0,0,0,0,0,0,0,0,0,0,0,0,0,0,0,0,0,0,0,0,0,0,0,0,0,0,0,0,0,0,0,0,0],"sum_hessian":[7.7E1,2.4E1,5.3E1,8E0,1.6E1,2.8E1,2.5E1,1.3E1,3E0,7E0,2.1E1,8E0,1.7E1,1E0,1.2E1,5E0,2E0,9E0,1.2E1,1.6E1,1E0,4E0,1E0,1E0,1E0,7E0,2E0,9E0,3E0,2E0,2E0,6E0,1E0,1E0,1E0,8E0,1E0],"tree_param":{"num_deleted":"0","num_feature":"9","num_nodes":"37","size_leaf_vector":"1"}},{"base_weights":[4.4281203E-2,-6.81464E0,3.2188876E0,-8.027178E0,-3.2345986E0,3.5272622E-1,4.41641E0,-4.7931573E-1,-5.821238E0,-1.8048607E-1,-7.0307665E-2,-9.315198E-1,9.6545535E-1,2.9438124E0,5.4683313E0,-7.687664E-2,-3.063184E-1,-1.0058396E0,-1.3998032E-2,2.2868855E-1,1.0899398E0,3.33535E0,1.2587448E0,3.4697914E-1,4.2370214E0,-2.1900686E-2,-6.191928E-2,3.5661699E-3,1.35854725E-2,6.290164E-2,5.2329254E-1,1.7516245E-1,2.8816605E-2,7.653208E-2,4.278946E-3,4.4940877E0,2.2378922E-2,3.1096015E-2,5.685234E-3,2.3295887E-1,6.28254E-2],"categories":[],"categories_nodes":[],"categories_segments":[],"categories_sizes":[],"default_left":[0,0,0,0,0,0,0,0,0,0,0,0,0,0,0,0,0,0,0,0,0,0,0,0,0,0,0,0,0,0,0,0,0,0,0,0,0,0,0,0,0],"id":31,"left_children":[1,3,5,7,9,11,13,-1,15,-1,-1,17,19,21,23,-1,-1,25,-1,27,29,31,33,-1,35,-1,-1,-1,-1,-1,37,-1,-1,-1,-1,39,-1,-1,-1,-1,-1],"loss_changes":[1.7203368E3,8.2558716E1,1.8378601E2,6.10437E0,4.113083E-1,1.4276556E1,4.276642E1,0E0,3.6513977E0,0E0,0E0,8.946896E-3,8.513365E-1,7.6774597E0,8.639709E0,0E0,0E0,1.1779833E-1,0E0,9.307265E-4,2.9417324E-1,4.466263E0,1.4639091E0,0E0,1.1626495E1,0E0,0E0,0E0,0E0,0E0,9.087169E-2,0E0,0E0,0E0,0E0,1.0940857E0,0E0,0E0,0E0,0E0,0E0],"parents":[2147483647,0,0,1,1,2,2,3,3,4,4,5,5,6,6,8,8,11,11,12,12,13,13,14,14,17,17,19,19,20,20,21,21,22,22,24,24,30,30,35,35],"right_children":[2,4,6,8,10,12,14,-1,16,-1,-1,18,20,22,24,-1,-1,26,-1,28,30,32,34,-1,36,-1,-1,-1,-1,-1,38,-1,-1,-1,-1,40,-1,-1,-1,-1,-1],"split_conditions":[6.690918E1,3.790559E1,8.1834274E1,3.8230007E1,6.129373E1,7.208314E1,9.117351E1,-4.7931573E-1,3.840178E1,-1.8048607E-1,-7.0307665E-2,5E0,7.583093E1,5.788458E0,5E0,-7.687664E-2,-3.063184E-1,3E0,-1.3998032E-2,7.441431E1,8.0543465E1,9.110202E1,8.944845E1,3.4697914E-1,2.023E3,-2.1900686E-2,-6.191928E-2,3.5661699E-3,1.35854725E-2,6.290164E-2,7.8800224E1,1.7516245E-1,2.8816605E-2,7.653208E-2,4.278946E-3,1.0266155E2,2.2378922E-2,3.1096015E-2,5.685234E-3,2.3295887E-1,6.28254E-2],"split_indices":[0,5,1,1,0,0,0,0,6,0,0,2,0,7,2,0,0,2,0,0,6,0,0,0,8,0,0,0,0,0,0,0,0,0,0,4,0,0,0,0,0],"split_type":[0,0,0,0,0,0,0,0,0,0,0,0,0,0,0,0,0,0,0,0,0,0,0,0,0,0,0,0,0,0,0,0,0,0,0,0,0,0,0,0,0],"sum_hessian":[7.7E1,2.4E1,5.3E1,1.7E1,7E0,1.6E1,3.7E1,8E0,9E0,5E0,2E0,5E0,1.1E1,1.7E1,2E1,1E0,8E0,4E0,1E0,2E0,9E0,1.3E1,4E0,7E0,1.3E1,2E0,2E0,1E0,1E0,6E0,3E0,1.2E1,1E0,3E0,1E0,1.2E1,1E0,2E0,1E0,1.1E1,1E0],"tree_param":{"num_deleted":"0","num_feature":"9","num_nodes":"41","size_leaf_vector":"1"}},{"base_weights":[4.0217035E-2,-6.5184393E0,3.0758874E0,-7.673735E0,-3.104219E0,1.3145144E0,4.922192E0,-4.580128E-1,-5.568494E0,-1.7296585E-1,-6.7964174E-2,-5.923195E-1,1.9481579E0,2.9223067E-1,3.5501857E0,-7.49547E-2,-2.927042E-1,-9.012451E-1,2.229716E-1,1.0454094E0,2.4927216E0,4.211236E0,1.6502578E0,-9.723099E-1,-1.3648033E-2,3.4770966E-3,1.32457735E-2,1.1591187E0,3.937149E-1,2.78832E0,5.6527235E-2,6.29509E-2,2.211443E-1,4.1719438E-3,1.01055145E-1,-2.1170553E-2,-5.985527E-2,6.1372705E-2,1.7019272E-2,2.398548E-2,5.5431365E-3,1.4866309E-1,2.8096199E-2],"categories":[],"categories_nodes":[],"categories_segments":[],"categories_sizes":[],"default_left":[0,0,0,0,0,0,0,0,0,0,0,0,0,0,0,0,0,0,0,0,0,0,0,0,0,0,0,0,0,0,0,0,0,0,0,0,0,0,0,0,0,0,0],"id":32,"left_children":[1,3,5,7,9,11,13,-1,15,-1,-1,17,19,-1,21,-1,-1,23,25,27,29,31,33,35,-1,-1,-1,37,39,41,-1,-1,-1,-1,-1,-1,-1,-1,-1,-1,-1,-1,-1],"loss_changes":[1.5730237E3,7.4789795E1,1.6913937E2,5.3218994E0,2.5479126E-1,3.6193264E1,1.2155334E1,0E0,2.8459778E0,0E0,0E0,2.2158663E0,8.209373E0,0E0,9.377701E0,0E0,0E0,2.4909973E-3,8.8357925E-4,2.8467464E-1,2.0822372E0,5.505371E-2,2.736596E0,1.1008263E-1,0E0,0E0,0E0,2.9780388E-2,1.9789487E-2,2.4467697E0,0E0,0E0,0E0,0E0,0E0,0E0,0E0,0E0,0E0,0E0,0E0,0E0,0E0],"parents":[2147483647,0,0,1,1,2,2,3,3,4,4,5,5,6,6,8,8,11,11,12,12,14,14,17,17,18,18,19,19,20,20,21,21,22,22,23,23,27,27,28,28,29,29],"right_children":[2,4,6,8,10,12,14,-1,16,-1,-1,18,20,-1,22,-1,-1,24,26,28,30,32,34,36,-1,-1,-1,38,40,42,-1,-1,-1,-1,-1,-1,-1,-1,-1,-1,-1,-1,-1],"split_conditions":[6.690918E1,3.790559E1,8.974788E1,3.8230007E1,6.129373E1,7.583093E1,7E0,-4.580128E-1,3.840178E1,-1.7296585E-1,-6.7964174E-2,7.208314E1,8.1834274E1,2.9223067E-1,4.994404E0,-7.49547E-2,-2.927042E-1,5E0,7.441431E1,1.0266155E2,8.691781E1,7.822567E1,9.1889755E1,3E0,-1.3648033E-2,3.4770966E-3,1.32457735E-2,1.1E1,7.772253E1,9.110202E1,5.6527235E-2,6.29509E-2,2.211443E-1,4.1719438E-3,1.01055145E-1,-2.1170553E-2,-5.985527E-2,6.1372705E-2,1.7019272E-2,2.398548E-2,5.5431365E-3,1.4866309E-1,2.8096199E-2],"split_indices":[0,5,1,1,0,0,2,0,6,0,0,0,1,0,7,0,0,2,0,5,6,5,1,2,0,0,0,2,0,0,0,0,0,0,0,0,0,0,0,0,0,0,0],"split_type":[0,0,0,0,0,0,0,0,0,0,0,0,0,0,0,0,0,0,0,0,0,0,0,0,0,0,0,0,0,0,0,0,0,0,0,0,0,0,0,0,0,0,0],"sum_hessian":[7.7E1,2.4E1,5.3E1,1.7E1,7E0,2.8E1,2.5E1,8E0,9E0,5E0,2E0,7E0,2.1E1,1.3E1,1.2E1,1E0,8E0,5E0,2E0,9E0,1.2E1,8E0,4E0,4E0,1E0,1E0,1E0,7E0,2E0,9E0,3E0,1E0,7E0,1E0,3E0,2E0,2E0,6E0,1E0,1E0,1E0,8E0,1E0],"tree_param":{"num_deleted":"0","num_feature":"9","num_nodes":"43","size_leaf_vector":"1"}},{"base_weights":[3.6644764E-2,-6.235182E0,2.9395895E0,-7.335919E0,-2.9791245E0,1.2578657E0,4.702297E0,-3.768516E-1,-9.7925186E-2,-1.6575894E-1,-6.569875E-2,-5.724478E-1,1.8662585E0,3.0420294E-1,3.7501776E0,-4.359811E-2,2.1739705E-1,1.0039314E0,2.3860285E0,3.9366262E0,1.45137785E-2,3.3901215E-3,1.2914658E-2,1.1109629E0,3.8387045E-1,2.666577E0,5.4407503E-2,2.0606689E-1,8.504295E-2,5.8742523E-2,1.6593743E-2,2.3385812E-2,5.4044724E-3,1.4205568E-1,2.7393723E-2],"categories":[],"categories_nodes":[],"categories_segments":[],"categories_sizes":[],"default_left":[0,0,0,0,0,0,0,0,0,0,0,0,0,0,0,0,0,0,0,0,0,0,0,0,0,0,0,0,0,0,0,0,0,0,0],"id":33,"left_children":[1,3,5,7,9,11,13,-1,-1,-1,-1,15,17,-1,19,-1,21,23,25,27,-1,-1,-1,29,31,33,-1,-1,-1,-1,-1,-1,-1,-1,-1],"loss_changes":[1.4384565E3,6.774695E1,1.5416214E2,4.705017E0,1.2057495E-1,3.336127E1,1.1389343E1,0E0,0E0,0E0,0E0,2.0821218E0,7.4652557E0,0E0,1.0468994E1,0E0,8.406043E-4,2.3719406E-1,1.8318939E0,1.071167E-2,0E0,0E0,0E0,8.289337E-3,1.8814057E-2,2.1413345E0,0E0,0E0,0E0,0E0,0E0,0E0,0E0,0E0,0E0],"parents":[2147483647,0,0,1,1,2,2,3,3,4,4,5,5,6,6,11,11,12,12,14,14,16,16,17,17,18,18,19,19,23,23,24,24,25,25],"right_children":[2,4,6,8,10,12,14,-1,-1,-1,-1,16,18,-1,20,-1,22,24,26,28,-1,-1,-1,30,32,34,-1,-1,-1,-1,-1,-1,-1,-1,-1],"split_conditions":[6.690918E1,3.790559E1,8.974788E1,4.5017952E1,6.129373E1,7.583093E1,5E0,-3.768516E-1,-9.7925186E-2,-1.6575894E-1,-6.569875E-2,7.208314E1,8.1834274E1,3.0420294E-1,2.023E3,-4.359811E-2,7.441431E1,1.0266155E2,8.691781E1,1.0266155E2,1.45137785E-2,3.3901215E-3,1.2914658E-2,1.1E1,7.772253E1,9.110202E1,5.4407503E-2,2.0606689E-1,8.504295E-2,5.8742523E-2,1.6593743E-2,2.3385812E-2,5.4044724E-3,1.4205568E-1,2.7393723E-2],"split_indices":[0,5,1,0,0,0,2,0,0,0,0,0,1,0,8,0,0,5,6,4,0,0,0,2,0,0,0,0,0,0,0,0,0,0,0],"split_type":[0,0,0,0,0,0,0,0,0,0,0,0,0,0,0,0,0,0,0,0,0,0,0,0,0,0,0,0,0,0,0,0,0,0,0],"sum_hessian":[7.7E1,2.4E1,5.3E1,1.7E1,7E0,2.8E1,2.5E1,1.6E1,1E0,5E0,2E0,7E0,2.1E1,8E0,1.7E1,5E0,2E0,9E0,1.2E1,1.6E1,1E0,1E0,1E0,7E0,2E0,9E0,3E0,1.4E1,2E0,6E0,1E0,1E0,1E0,8E0,1E0],"tree_param":{"num_deleted":"0","num_feature":"9","num_nodes":"35","size_leaf_vector":"1"}},{"base_weights":[3.7430447E-2,-5.951673E0,2.8094702E0,-4.209078E-1,-4.2957892E0,5.865944E-1,3.9994144E0,-4.769568E0,-7.818084E-2,-6.9736916E-1,1.1866766E0,3.209639E0,2.8264448E-1,-6.365957E-2,-2.4702911E-1,-8.356336E-1,3.3054352E-3,3.4820992E-2,1.4673166E0,3.315383E0,1.4151001E-2,-9.050247E-1,-1.221695E-2,8.323511E-2,2.9172007E-2,1.893711E-2,3.421962E0,-1.901169E-2,-5.640704E-2,1.776126E-1,6.629245E-2],"categories":[],"categories_nodes":[],"categories_segments":[],"categories_sizes":[],"default_left":[0,0,0,0,0,0,0,0,0,0,0,0,0,0,0,0,0,0,0,0,0,0,0,0,0,0,0,0,0,0,0],"id":34,"left_children":[1,3,5,-1,7,9,11,13,-1,15,17,19,-1,-1,-1,21,-1,-1,23,25,-1,27,-1,-1,-1,-1,29,-1,-1,-1,-1],"loss_changes":[1.3116797E3,6.5942566E1,1.4048923E2,0E0,1.4547821E1,1.6237225E1,2.756189E1,2.080719E0,0E0,7.941756E-1,9.043312E-1,7.10791E0,0E0,0E0,0E0,2.505064E-2,0E0,0E0,4.2446136E-1,6.528595E0,0E0,1.564889E-1,0E0,0E0,0E0,0E0,1.844696E0,0E0,0E0,0E0,0E0],"parents":[2147483647,0,0,1,1,2,2,4,4,5,5,6,6,7,7,9,9,10,10,11,11,15,15,18,18,19,19,21,21,26,26],"right_children":[2,4,6,-1,8,10,12,14,-1,16,18,20,-1,-1,-1,22,-1,-1,24,26,-1,28,-1,-1,-1,-1,30,-1,-1,-1,-1],"split_conditions":[6.690918E1,3.8230007E1,8.432142E1,-4.209078E-1,5.777197E1,7.441431E1,9.801987E1,3.840178E1,-7.818084E-2,7.208314E1,7.866391E1,1.00051674E2,2.8264448E-1,-6.365957E-2,-2.4702911E-1,5E0,3.3054352E-3,3.4820992E-2,8.296301E1,6.8322624E1,1.4151001E-2,3E0,-1.221695E-2,8.323511E-2,2.9172007E-2,1.893711E-2,7.0969553E0,-1.901169E-2,-5.640704E-2,1.776126E-1,6.629245E-2],"split_indices":[0,1,1,0,0,0,1,6,0,0,1,0,0,0,0,2,0,0,4,5,0,2,0,0,0,0,7,0,0,0,0],"split_type":[0,0,0,0,0,0,0,0,0,0,0,0,0,0,0,0,0,0,0,0,0,0,0,0,0,0,0,0,0,0,0],"sum_hessian":[7.7E1,2.4E1,5.3E1,8E0,1.6E1,1.9E1,3.4E1,1.3E1,3E0,6E0,1.3E1,2.5E1,9E0,1E0,1.2E1,5E0,1E0,6E0,7E0,2.4E1,1E0,4E0,1E0,5E0,2E0,1E0,2.3E1,2E0,2E0,2.1E1,2E0],"tree_param":{"num_deleted":"0","num_feature":"9","num_nodes":"31","size_leaf_vector":"1"}},{"base_weights":[3.315774E-2,-5.6864815E0,2.6805248E0,-4.0220085E-1,-4.103875E0,1.1414695E0,4.2940664E0,-4.5532823E0,-7.52491E-2,-5.3162384E-1,1.6979821E0,5.126247E0,3.0675588E0,-6.2068082E-2,-2.356278E-1,-8.08459E-1,9.962718E-3,9.188484E-1,2.1667018E0,5.928347E0,3.0687218E0,3.679518E0,1.3525207E0,-8.748581E-1,-1.1911583E-2,5.3047784E-2,4.4044876E-1,2.5112398E0,5.565964E-2,3.1269556E-1,8.309593E-2,1.7860444E-1,1.3797188E-2,5.178509E-2,1.9402662E-1,-5.524445E-3,8.729477E-2,-1.8377941E-2,-5.4526903E-2,2.643064E-2,4.3989182E-3,1.345448E-1,2.6849747E-2],"categories":[],"categories_nodes":[],"categories_segments":[],"categories_sizes":[],"default_left":[0,0,0,0,0,0,0,0,0,0,0,0,0,0,0,0,0,0,0,0,0,0,0,0,0,0,0,0,0,0,0,0,0,0,0,0,0,0,0,0,0,0,0],"id":35,"left_children":[1,3,5,-1,7,9,11,13,-1,15,17,19,21,-1,-1,23,-1,25,27,29,31,33,35,37,-1,-1,39,41,-1,-1,-1,-1,-1,-1,-1,-1,-1,-1,-1,-1,-1,-1,-1],"loss_changes":[1.1963174E3,6.026465E1,1.2919827E2,0E0,1.3002716E1,2.790451E1,1.08125E1,1.5350647E0,0E0,1.7797511E0,6.0434227E0,4.9123535E0,8.66732E0,0E0,0E0,1.8756628E-2,0E0,2.1254349E-1,1.9231682E0,2.1074524E0,7.4490547E0,7.6392365E-1,3.0704565E0,1.4623475E-1,0E0,0E0,7.779437E-2,1.7471733E0,0E0,0E0,0E0,0E0,0E0,0E0,0E0,0E0,0E0,0E0,0E0,0E0,0E0,0E0,0E0],"parents":[2147483647,0,0,1,1,2,2,4,4,5,5,6,6,7,7,9,9,10,10,11,11,12,12,15,15,17,17,18,18,19,19,20,20,21,21,22,22,23,23,26,26,27,27],"right_children":[2,4,6,-1,8,10,12,14,-1,16,18,20,22,-1,-1,24,-1,26,28,30,32,34,36,38,-1,-1,40,42,-1,-1,-1,-1,-1,-1,-1,-1,-1,-1,-1,-1,-1,-1,-1],"split_conditions":[6.690918E1,3.8230007E1,8.974788E1,-4.0220085E-1,5.777197E1,7.583093E1,7E0,3.840178E1,-7.52491E-2,7.208314E1,8.1834274E1,2.022E3,4.994404E0,-6.2068082E-2,-2.356278E-1,5E0,9.962718E-3,8.0543465E1,8.8288086E1,9.88839E1,5E0,7.822567E1,9.1889755E1,3E0,-1.1911583E-2,5.3047784E-2,7.8800224E1,8.173604E1,5.565964E-2,3.1269556E-1,8.309593E-2,1.7860444E-1,1.3797188E-2,5.178509E-2,1.9402662E-1,-5.524445E-3,8.729477E-2,-1.8377941E-2,-5.4526903E-2,2.643064E-2,4.3989182E-3,1.345448E-1,2.6849747E-2],"split_indices":[0,1,1,0,0,0,2,6,0,0,1,8,7,0,0,2,0,6,0,4,2,5,1,2,0,0,0,4,0,0,0,0,0,0,0,0,0,0,0,0,0,0,0],"split_type":[0,0,0,0,0,0,0,0,0,0,0,0,0,0,0,0,0,0,0,0,0,0,0,0,0,0,0,0,0,0,0,0,0,0,0,0,0,0,0,0,0,0,0],"sum_hessian":[7.7E1,2.4E1,5.3E1,8E0,1.6E1,2.8E1,2.5E1,1.3E1,3E0,7E0,2.1E1,1.3E1,1.2E1,1E0,1.2E1,5E0,2E0,9E0,1.2E1,8E0,5E0,8E0,4E0,4E0,1E0,6E0,3E0,8E0,4E0,7E0,1E0,4E0,1E0,1E0,7E0,1E0,3E0,2E0,2E0,2E0,1E0,7E0,1E0],"tree_param":{"num_deleted":"0","num_feature":"9","num_nodes":"43","size_leaf_vector":"1"}},{"base_weights":[3.620143E-2,-5.433163E0,2.5676444E0,-3.8544244E-1,-3.908791E0,1.0921925E0,4.114585E0,-2.1662596E-1,-7.242727E-2,-5.143995E-1,1.6267627E0,5.367403E0,3.259588E0,-7.821719E-1,1.926117E-1,8.8129425E-1,2.0750644E0,7.634735E-2,2.8282958E-1,3.4196758E0,1.3452339E-2,-8.456955E-1,-1.1613846E-2,2.9737472E-3,1.147213E-2,4.8857547E-2,3.319117E-1,2.4036112E0,5.3433385E-2,5.049038E-2,3.5071797E0,-1.77653E-2,-5.2709322E-2,2.0604515E-2,4.2888643E-3,1.2865849E-1,2.6178552E-2,1.8428887E-1,7.5233206E-2],"categories":[],"categories_nodes":[],"categories_segments":[],"categories_sizes":[],"default_left":[0,0,0,0,0,0,0,0,0,0,0,0,0,0,0,0,0,0,0,0,0,0,0,0,0,0,0,0,0,0,0,0,0,0,0,0,0,0,0],"id":36,"left_children":[1,3,5,-1,7,9,11,-1,-1,13,15,17,19,21,23,25,27,-1,-1,29,-1,31,-1,-1,-1,-1,33,35,-1,-1,37,-1,-1,-1,-1,-1,-1,-1,-1],"loss_changes":[1.0938905E3,5.659253E1,1.1875766E2,0E0,1.14461975E1,2.5743053E1,1.0354523E1,0E0,0E0,1.6652002E0,5.5235443E0,1.3582153E0,7.6974487E0,1.3152361E-2,1.0645539E-3,2.0229244E-1,1.7297668E0,0E0,0E0,4.3258667E-2,0E0,1.3664985E-1,0E0,0E0,0E0,0E0,2.3856163E-2,1.5217552E0,0E0,0E0,1.7643738E-1,0E0,0E0,0E0,0E0,0E0,0E0,0E0,0E0],"parents":[2147483647,0,0,1,1,2,2,4,4,5,5,6,6,9,9,10,10,11,11,12,12,13,13,14,14,15,15,16,16,19,19,21,21,26,26,27,27,30,30],"right_children":[2,4,6,-1,8,10,12,-1,-1,14,16,18,20,22,24,26,28,-1,-1,30,-1,32,-1,-1,-1,-1,34,36,-1,-1,38,-1,-1,-1,-1,-1,-1,-1,-1],"split_conditions":[6.690918E1,5E0,8.974788E1,-3.8544244E-1,5.777197E1,7.583093E1,5E0,-2.1662596E-1,-7.242727E-2,7.208314E1,8.1834274E1,9.0806046E1,2.023E3,5E0,7.441431E1,1.0266155E2,8.8288086E1,7.634735E-2,2.8282958E-1,2.2668912E0,1.3452339E-2,3E0,-1.1613846E-2,2.9737472E-3,1.147213E-2,4.8857547E-2,7.772253E1,8.173604E1,5.3433385E-2,5.049038E-2,1.0266155E2,-1.77653E-2,-5.2709322E-2,2.0604515E-2,4.2888643E-3,1.2865849E-1,2.6178552E-2,1.8428887E-1,7.5233206E-2],"split_indices":[0,2,1,0,0,0,2,0,0,0,1,0,8,2,0,5,0,0,0,7,0,2,0,0,0,0,0,4,0,0,4,0,0,0,0,0,0,0,0],"split_type":[0,0,0,0,0,0,0,0,0,0,0,0,0,0,0,0,0,0,0,0,0,0,0,0,0,0,0,0,0,0,0,0,0,0,0,0,0,0,0],"sum_hessian":[7.7E1,2.4E1,5.3E1,8E0,1.6E1,2.8E1,2.5E1,1.3E1,3E0,7E0,2.1E1,8E0,1.7E1,5E0,2E0,9E0,1.2E1,1E0,7E0,1.6E1,1E0,4E0,1E0,1E0,1E0,7E0,2E0,8E0,4E0,1E0,1.5E1,2E0,2E0,1E0,1E0,7E0,1E0,1.3E1,2E0],"tree_param":{"num_deleted":"0","num_feature":"9","num_nodes":"39","size_leaf_vector":"1"}},{"base_weights":[3.7243575E-2,-5.188486E0,2.4558733E0,-7.4001613E0,-3.712394E0,1.044974E0,3.9351118E0,-4.0702447E-1,-1.6030045E-1,-2.3294543E-1,-1.17669575E-1,-4.971342E-1,1.5582417E0,3.385833E0,3.054843E-1,-7.5674313E-1,1.87795E-1,8.446037E-1,1.9873294E0,4.92281E-2,3.450229E0,-8.1750333E-1,-1.1323548E-2,2.8993606E-3,1.1185265E-2,4.8882183E-2,4.0063286E-1,2.300632E0,5.1295932E-2,1.7885378E-1,7.272542E-2,-1.7173005E-2,-5.0952274E-2,2.3921078E-2,4.1816714E-3,1.2302952E-1,2.552414E-2],"categories":[],"categories_nodes":[],"categories_segments":[],"categories_sizes":[],"default_left":[0,0,0,0,0,0,0,0,0,0,0,0,0,0,0,0,0,0,0,0,0,0,0,0,0,0,0,0,0,0,0,0,0,0,0,0,0],"id":37,"left_children":[1,3,5,7,9,11,13,-1,-1,-1,-1,15,17,19,-1,21,23,25,27,-1,29,31,-1,-1,-1,-1,33,35,-1,-1,-1,-1,-1,-1,-1,-1,-1],"loss_changes":[9.9859235E2,5.4143555E1,1.0858899E2,1.8469849E0,1.0903137E1,2.3728573E1,1.0369232E1,0E0,0E0,0E0,0E0,1.5646223E0,5.0581894E0,1.5957642E-1,0E0,8.176327E-3,1.0122582E-3,1.9898224E-1,1.5554962E0,0E0,3.6639404E-1,1.2769675E-1,0E0,0E0,0E0,0E0,5.862385E-2,1.3210564E0,0E0,0E0,0E0,0E0,0E0,0E0,0E0,0E0,0E0],"parents":[2147483647,0,0,1,1,2,2,3,3,4,4,5,5,6,6,11,11,12,12,13,13,15,15,16,16,17,17,18,18,20,20,21,21,26,26,27,27],"right_children":[2,4,6,8,10,12,14,-1,-1,-1,-1,16,18,20,-1,22,24,26,28,-1,30,32,-1,-1,-1,-1,34,36,-1,-1,-1,-1,-1,-1,-1,-1,-1],"split_conditions":[6.690918E1,3.8230007E1,8.974788E1,6E0,3.33387E0,7.583093E1,1.0209448E2,-4.0702447E-1,-1.6030045E-1,-2.3294543E-1,-1.17669575E-1,7.208314E1,8.1834274E1,2.2668912E0,3.054843E-1,5E0,7.441431E1,8.0543465E1,8.8288086E1,4.92281E-2,1.0266155E2,3E0,-1.1323548E-2,2.8993606E-3,1.1185265E-2,4.8882183E-2,7.8800224E1,8.173604E1,5.1295932E-2,1.7885378E-1,7.272542E-2,-1.7173005E-2,-5.0952274E-2,2.3921078E-2,4.1816714E-3,1.2302952E-1,2.552414E-2],"split_indices":[0,1,1,2,7,0,0,0,0,0,0,0,1,7,0,2,0,6,0,0,4,2,0,0,0,0,0,4,0,0,0,0,0,0,0,0,0],"split_type":[0,0,0,0,0,0,0,0,0,0,0,0,0,0,0,0,0,0,0,0,0,0,0,0,0,0,0,0,0,0,0,0,0,0,0,0,0],"sum_hessian":[7.7E1,2.4E1,5.3E1,8E0,1.6E1,2.8E1,2.5E1,6E0,2E0,8E0,8E0,7E0,2.1E1,2.2E1,3E0,5E0,2E0,9E0,1.2E1,1E0,2.1E1,4E0,1E0,1E0,1E0,6E0,3E0,8E0,4E0,1.9E1,2E0,2E0,2E0,2E0,1E0,7E0,1E0],"tree_param":{"num_deleted":"0","num_feature":"9","num_nodes":"37","size_leaf_vector":"1"}},{"base_weights":[3.4096643E-2,-4.9657803E0,2.348223E0,-7.0931892E0,-3.5473998E0,1.0000176E0,3.7616742E0,-3.8958058E-1,-1.5495707E-1,-2.2259234E-1,-1.1243987E-1,-4.8044872E-1,1.4929137E0,3.2296185E0,2.9402876E-1,-7.3214847E-1,1.8310039E-1,8.100731E-1,1.9033362E0,3.5103316E0,2.086513E0,-7.9025424E-1,-1.1040497E-2,2.8268814E-3,1.0905648E-2,4.6787262E-2,3.8762856E-1,2.4446843E0,1.259408E0,7.2098546E-2,3.6899817E0,7.3011523E-1,1.24152444E-1,-1.6600545E-2,-4.9253974E-2,2.3123806E-2,4.0771486E-3,1.3253228E-1,3.537197E-2,1.8044408E-2,7.493833E-2,1.1118603E-1,2.10037E-1,4.6113968E-2,8.644677E-3],"categories":[],"categories_nodes":[],"categories_segments":[],"categories_sizes":[],"default_left":[0,0,0,0,0,0,0,0,0,0,0,0,0,0,0,0,0,0,0,0,0,0,0,0,0,0,0,0,0,0,0,0,0,0,0,0,0,0,0,0,0,0,0,0,0],"id":38,"left_children":[1,3,5,7,9,11,13,-1,-1,-1,-1,15,17,19,-1,21,23,25,27,29,31,33,-1,-1,-1,-1,35,37,39,-1,41,43,-1,-1,-1,-1,-1,-1,-1,-1,-1,-1,-1,-1,-1],"loss_changes":[9.1414777E2,5.0274475E1,9.9141846E1,9.5843506E-1,9.95546E0,2.1879036E1,1.0319672E1,0E0,0E0,0E0,0E0,1.470178E0,4.623726E0,5.6015015E-2,0E0,3.774166E-3,9.6226484E-4,1.6817331E-1,1.4528084E0,9.960327E-1,1.9521084E0,1.1932969E-1,0E0,0E0,0E0,0E0,5.3927302E-2,2.7165604E-1,1.1796598E0,0E0,1.8923035E0,1.6177785E-1,0E0,0E0,0E0,0E0,0E0,0E0,0E0,0E0,0E0,0E0,0E0,0E0,0E0],"parents":[2147483647,0,0,1,1,2,2,3,3,4,4,5,5,6,6,11,11,12,12,13,13,15,15,16,16,17,17,18,18,19,19,20,20,21,21,26,26,27,27,28,28,30,30,31,31],"right_children":[2,4,6,8,10,12,14,-1,-1,-1,-1,16,18,20,-1,22,24,26,28,30,32,34,-1,-1,-1,-1,36,38,40,-1,42,44,-1,-1,-1,-1,-1,-1,-1,-1,-1,-1,-1,-1,-1],"split_conditions":[6.690918E1,3.8230007E1,8.974788E1,6E0,3.33387E0,7.583093E1,1.0209448E2,-3.8958058E-1,-1.5495707E-1,-2.2259234E-1,-1.1243987E-1,7.208314E1,8.1834274E1,9.9164955E1,2.9402876E-1,5E0,7.441431E1,8.0543465E1,8.436103E1,2.5098217E0,9.409551E1,3E0,-1.1040497E-2,2.8268814E-3,1.0905648E-2,4.6787262E-2,7.8800224E1,1.2E1,4E0,7.2098546E-2,9.0806046E1,9.994227E1,1.24152444E-1,-1.6600545E-2,-4.9253974E-2,2.3123806E-2,4.0771486E-3,1.3253228E-1,3.537197E-2,1.8044408E-2,7.493833E-2,1.1118603E-1,2.10037E-1,4.6113968E-2,8.644677E-3],"split_indices":[0,1,1,2,7,0,0,0,0,0,0,0,1,0,0,2,0,6,6,7,4,2,0,0,0,0,0,2,2,0,0,0,0,0,0,0,0,0,0,0,0,0,0,0,0],"split_type":[0,0,0,0,0,0,0,0,0,0,0,0,0,0,0,0,0,0,0,0,0,0,0,0,0,0,0,0,0,0,0,0,0,0,0,0,0,0,0,0,0,0,0,0,0],"sum_hessian":[7.7E1,2.4E1,5.3E1,8E0,1.6E1,2.8E1,2.5E1,6E0,2E0,8E0,8E0,7E0,2.1E1,2.2E1,3E0,5E0,2E0,9E0,1.2E1,1.6E1,6E0,4E0,1E0,1E0,1E0,6E0,3E0,5E0,7E0,2E0,1.4E1,2E0,4E0,2E0,2E0,2E0,1E0,4E0,1E0,2E0,5E0,5E0,9E0,1E0,1E0],"tree_param":{"num_deleted":"0","num_feature":"9","num_nodes":"45","size_leaf_vector":"1"}},{"base_weights":[3.5705272E-2,-4.7526746E0,2.2518866E0,-6.7990346E0,-3.3897383E0,4.6169814E-1,3.2105117E0,-3.9044076E-1,-1.7923026E-1,-3.7670696E0,-6.108222E-2,-5.914132E-1,9.552754E-1,2.8039906E0,2.8300267E-1,-4.9348067E-2,-1.952502E-1,-3.541781E-2,2.7561188E-3,2.7991105E-2,1.1818876E0,8.356667E-3,2.8836591E0,1.3398234E0,2.3602678E-2,2.970455E0,5.417061E-2,1.9495392E-2,7.2591245E-2,6.906414E-2,1.5503475E-1],"categories":[],"categories_nodes":[],"categories_segments":[],"categories_sizes":[],"default_left":[0,0,0,0,0,0,0,0,0,0,0,0,0,0,0,0,0,0,0,0,0,0,0,0,0,0,0,0,0,0,0],"id":39,"left_children":[1,3,5,7,9,11,13,-1,-1,15,-1,17,19,21,-1,-1,-1,-1,-1,-1,23,-1,25,27,-1,29,-1,-1,-1,-1,-1],"loss_changes":[8.3843207E2,4.6679504E1,9.11882E1,1.2213135E0,9.305511E0,1.0960799E1,1.8981903E1,0E0,0E0,1.5145111E0,0E0,5.683012E-1,5.929556E-1,6.2404327E0,0E0,0E0,0E0,0E0,0E0,0E0,2.6439762E-1,0E0,1.6256409E0,7.227421E-2,0E0,1.7192993E0,0E0,0E0,0E0,0E0,0E0],"parents":[2147483647,0,0,1,1,2,2,3,3,4,4,5,5,6,6,9,9,11,11,12,12,13,13,20,20,22,22,23,23,25,25],"right_children":[2,4,6,8,10,12,14,-1,-1,16,-1,18,20,22,-1,-1,-1,-1,-1,-1,24,-1,26,28,-1,30,-1,-1,-1,-1,-1],"split_conditions":[6.690918E1,3.8230007E1,8.432142E1,5E0,5.777197E1,7.441431E1,1.0209448E2,-3.9044076E-1,-1.7923026E-1,3.840178E1,-6.108222E-2,7.208314E1,7.866391E1,6.8322624E1,2.8300267E-1,-4.9348067E-2,-1.952502E-1,-3.541781E-2,2.7561188E-3,2.7991105E-2,8.296301E1,8.356667E-3,7.0969553E0,7.06647E1,2.3602678E-2,7.797666E1,5.417061E-2,1.9495392E-2,7.2591245E-2,6.906414E-2,1.5503475E-1],"split_indices":[0,1,1,2,0,0,0,0,0,6,0,0,1,5,0,0,0,0,0,0,4,0,7,4,0,4,0,0,0,0,0],"split_type":[0,0,0,0,0,0,0,0,0,0,0,0,0,0,0,0,0,0,0,0,0,0,0,0,0,0,0,0,0,0,0],"sum_hessian":[7.7E1,2.4E1,5.3E1,8E0,1.6E1,1.9E1,3.4E1,5E0,3E0,1.3E1,3E0,6E0,1.3E1,3.1E1,3E0,1E0,1.2E1,5E0,1E0,6E0,7E0,1E0,3E1,5E0,2E0,2.8E1,2E0,1E0,4E0,3E0,2.5E1],"tree_param":{"num_deleted":"0","num_feature":"9","num_nodes":"31","size_leaf_vector":"1"}},{"base_weights":[3.1423032E-2,-4.5500546E0,2.1518955E0,-6.522379E0,-3.2382321E0,9.1660994E-1,3.4469488E0,-3.7417233E-1,-1.7250915E-1,-2.0402156E-1,-1.0181149E-1,-4.4602966E-1,1.3704511E0,2.9491074E0,2.7238998E-1,-6.788432E-1,8.413697E-3,7.44146E-1,1.7468051E0,3.2120352E0,1.889267E0,-2.9733276E-1,-7.952652E-1,8.2881546E-1,2.7031198E-1,2.0415802E0,4.3342438E-2,6.4527385E-2,3.3821971E0,6.0850525E-1,1.13993526E-1,-1.8896103E-2,-3.4038543E-3,-4.6431605E-2,-9.879112E-3,4.398913E-2,1.1801148E-2,1.699791E-2,3.27549E-3,1.0923324E-1,2.24226E-2,1.0009352E-1,1.9360867E-1,4.1085243E-2,4.5526507E-3],"categories":[],"categories_nodes":[],"categories_segments":[],"categories_sizes":[],"default_left":[0,0,0,0,0,0,0,0,0,0,0,0,0,0,0,0,0,0,0,0,0,0,0,0,0,0,0,0,0,0,0,0,0,0,0,0,0,0,0,0,0,0,0,0,0],"id":40,"left_children":[1,3,5,7,9,11,13,-1,-1,-1,-1,15,17,19,-1,21,-1,23,25,27,29,31,33,35,37,39,-1,-1,41,43,-1,-1,-1,-1,-1,-1,-1,-1,-1,-1,-1,-1,-1,-1,-1],"loss_changes":[7.675531E2,4.356256E1,8.3227585E1,7.5405884E-1,8.900818E0,1.8545504E1,9.832642E0,0E0,0E0,0E0,0E0,1.2583767E0,3.8857956E0,3.408203E-1,0E0,3.0039072E-2,0E0,1.7715454E-1,1.6023178E0,1.1934814E0,2.1145782E0,2.9698819E-2,1.3536334E-1,3.405428E-2,2.0520493E-2,1.0718498E0,0E0,0E0,2.3933105E0,2.561432E-1,0E0,0E0,0E0,0E0,0E0,0E0,0E0,0E0,0E0,0E0,0E0,0E0,0E0,0E0,0E0],"parents":[2147483647,0,0,1,1,2,2,3,3,4,4,5,5,6,6,11,11,12,12,13,13,15,15,17,17,18,18,19,19,20,20,21,21,22,22,23,23,24,24,25,25,28,28,29,29],"right_children":[2,4,6,8,10,12,14,-1,-1,-1,-1,16,18,20,-1,22,-1,24,26,28,30,32,34,36,38,40,-1,-1,42,44,-1,-1,-1,-1,-1,-1,-1,-1,-1,-1,-1,-1,-1,-1,-1],"split_conditions":[6.690918E1,3.8230007E1,8.974788E1,5E0,3.33387E0,7.583093E1,1.0209448E2,-3.7417233E-1,-1.7250915E-1,-2.0402156E-1,-1.0181149E-1,7.208314E1,8.1834274E1,9.9164955E1,2.7238998E-1,3E0,8.413697E-3,1.0266155E2,8.8288086E1,2.5098217E0,9.409551E1,6.824385E1,5E0,1.1E1,7.772253E1,8.173604E1,4.3342438E-2,6.4527385E-2,9.0806046E1,9.994227E1,1.13993526E-1,-1.8896103E-2,-3.4038543E-3,-4.6431605E-2,-9.879112E-3,4.398913E-2,1.1801148E-2,1.699791E-2,3.27549E-3,1.0923324E-1,2.24226E-2,1.0009352E-1,1.9360867E-1,4.1085243E-2,4.5526507E-3],"split_indices":[0,1,1,2,7,0,0,0,0,0,0,0,1,0,0,2,0,5,0,7,4,0,2,2,0,4,0,0,0,0,0,0,0,0,0,0,0,0,0,0,0,0,0,0,0],"split_type":[0,0,0,0,0,0,0,0,0,0,0,0,0,0,0,0,0,0,0,0,0,0,0,0,0,0,0,0,0,0,0,0,0,0,0,0,0,0,0,0,0,0,0,0,0],"sum_hessian":[7.7E1,2.4E1,5.3E1,8E0,1.6E1,2.8E1,2.5E1,5E0,3E0,8E0,8E0,7E0,2.1E1,2.2E1,3E0,5E0,2E0,9E0,1.2E1,1.6E1,6E0,2E0,3E0,7E0,2E0,8E0,4E0,2E0,1.4E1,2E0,4E0,1E0,1E0,2E0,1E0,6E0,1E0,1E0,1E0,7E0,1E0,5E0,9E0,1E0,1E0],"tree_param":{"num_deleted":"0","num_feature":"9","num_nodes":"45","size_leaf_vector":"1"}},{"base_weights":[3.1372413E-2,-4.4893026E0,2.0034602E0,-6.257003E0,-3.2143896E0,1.3957596E-1,2.83363E0,-3.5858184E-1,-1.660401E-1,-1.9495392E-1,-1.021158E-1,-7.3158044E-1,6.361192E-1,2.2597926E0,4.214396E0,-2.898992E-1,-8.5027313E-1,1.6266377E-1,7.1454394E-1,2.3341582E0,4.4387816E-3,2.2033082E-1,6.211033E-2,-1.8423652E-2,-3.3187866E-3,-4.8326015E-2,-9.632111E-3,2.476883E-3,9.722901E-3,7.943468E-1,2.635549E-1,1.6729279E0,2.725523E0,4.2103793E-2,1.1506081E-2,1.6572952E-2,3.1936646E-3,9.770661E-2,4.1608732E-2,1.4405645E-1,5.454267E-2],"categories":[],"categories_nodes":[],"categories_segments":[],"categories_sizes":[],"default_left":[0,0,0,0,0,0,0,0,0,0,0,0,0,0,0,0,0,0,0,0,0,0,0,0,0,0,0,0,0,0,0,0,0,0,0,0,0,0,0,0,0],"id":41,"left_children":[1,3,5,7,9,11,13,-1,-1,-1,-1,15,17,19,21,23,25,27,29,31,-1,-1,-1,-1,-1,-1,-1,-1,-1,33,35,37,39,-1,-1,-1,-1,-1,-1,-1,-1],"loss_changes":[7.043772E2,3.3975494E1,8.470822E1,3.543396E-1,4.876938E0,8.251575E0,2.0585083E1,0E0,0E0,0E0,0E0,1.2047672E-1,3.2933712E-1,4.4748077E0,2.392273E-1,2.823162E-2,1.9604611E-1,1.1572763E-3,1.5054846E-1,2.6862946E0,0E0,0E0,0E0,0E0,0E0,0E0,0E0,0E0,0E0,2.1659374E-2,1.9506246E-2,1.4473267E0,9.2694855E-1,0E0,0E0,0E0,0E0,0E0,0E0,0E0,0E0],"parents":[2147483647,0,0,1,1,2,2,3,3,4,4,5,5,6,6,11,11,12,12,13,13,14,14,15,15,16,16,17,17,18,18,19,19,29,29,30,30,31,31,32,32],"right_children":[2,4,6,8,10,12,14,-1,-1,-1,-1,16,18,20,22,24,26,28,30,32,-1,-1,-1,-1,-1,-1,-1,-1,-1,34,36,38,40,-1,-1,-1,-1,-1,-1,-1,-1],"split_conditions":[6.618914E1,3.8230007E1,8.1834274E1,5E0,3.33387E0,7.208314E1,9.801987E1,-3.5858184E-1,-1.660401E-1,-1.9495392E-1,-1.021158E-1,3E0,7.583093E1,1.00051674E2,9.606677E1,6.824385E1,6.618914E1,7.441431E1,1.0266155E2,8.974788E1,4.4387816E-3,2.2033082E-1,6.211033E-2,-1.8423652E-2,-3.3187866E-3,-4.8326015E-2,-9.632111E-3,2.476883E-3,9.722901E-3,1.1E1,7.772253E1,8.8288086E1,9.88839E1,4.2103793E-2,1.1506081E-2,1.6572952E-2,3.1936646E-3,9.770661E-2,4.1608732E-2,1.4405645E-1,5.454267E-2],"split_indices":[0,1,1,2,7,0,1,0,0,0,0,2,0,0,5,0,4,0,5,1,0,0,0,0,0,0,0,0,0,2,0,0,0,0,0,0,0,0,0,0,0],"split_type":[0,0,0,0,0,0,0,0,0,0,0,0,0,0,0,0,0,0,0,0,0,0,0,0,0,0,0,0,0,0,0,0,0,0,0,0,0,0,0,0,0],"sum_hessian":[7.7E1,2.3E1,5.4E1,8E0,1.5E1,1.7E1,3.7E1,5E0,3E0,8E0,7E0,6E0,1.1E1,2.8E1,9E0,2E0,4E0,2E0,9E0,2.7E1,1E0,8E0,1E0,1E0,1E0,3E0,1E0,1E0,1E0,7E0,2E0,1.2E1,1.5E1,6E0,1E0,1E0,1E0,8E0,4E0,1.3E1,2E0],"tree_param":{"num_deleted":"0","num_feature":"9","num_nodes":"41","size_leaf_vector":"1"}},{"base_weights":[2.7353972E-2,-4.2990746E0,1.9147527E0,-6.0024447E0,-3.0722368E0,3.270776E-1,2.8126507E0,-3.1529024E-1,-8.938914E-2,-1.862893E-1,-9.764822E-2,-7.063871E-1,7.8755593E-1,2.4415543E0,2.5391293E-1,-2.8265128E-1,-8.193512E-1,3.999274E-1,1.0015386E0,2.9743195E-3,2.5164764E0,-1.7963028E-2,-3.235817E-3,-4.6513844E-2,-9.391213E-3,2.414894E-3,4.504827E-1,1.17615E0,2.4461841E-2,2.6206138E0,5.7919692E-2,3.1137466E-3,2.5783462E-2,1.6855622E-2,6.3826755E-2,6.1763763E-2,1.3687217E-1],"categories":[],"categories_nodes":[],"categories_segments":[],"categories_sizes":[],"default_left":[0,0,0,0,0,0,0,0,0,0,0,0,0,0,0,0,0,0,0,0,0,0,0,0,0,0,0,0,0,0,0,0,0,0,0,0,0],"id":42,"left_children":[1,3,5,7,9,11,13,-1,-1,-1,-1,15,17,19,-1,21,23,25,27,-1,29,-1,-1,-1,-1,-1,31,33,-1,35,-1,-1,-1,-1,-1,-1,-1],"loss_changes":[6.4515594E2,3.1713287E1,7.748642E1,2.3364258E-1,4.4276733E0,1.0549971E1,1.702771E1,0E0,0E0,0E0,0E0,1.0347772E-1,8.4364414E-1,5.561325E0,0E0,2.6837513E-2,1.7553425E-1,1.0267973E-1,2.2966862E-1,0E0,1.3485565E0,0E0,0E0,0E0,0E0,0E0,1.1972237E-1,7.502365E-2,0E0,1.1502533E0,0E0,0E0,0E0,0E0,0E0,0E0,0E0],"parents":[2147483647,0,0,1,1,2,2,3,3,4,4,5,5,6,6,11,11,12,12,13,13,15,15,16,16,17,17,18,18,20,20,26,26,27,27,29,29],"right_children":[2,4,6,8,10,12,14,-1,-1,-1,-1,16,18,20,-1,22,24,26,28,-1,30,-1,-1,-1,-1,-1,32,34,-1,36,-1,-1,-1,-1,-1,-1,-1],"split_conditions":[6.618914E1,3.8230007E1,8.432142E1,7E0,3.33387E0,7.208314E1,1.0209448E2,-3.1529024E-1,-8.938914E-2,-1.862893E-1,-9.764822E-2,3E0,7.833418E1,6.8322624E1,2.5391293E-1,6.824385E1,6.618914E1,7.441431E1,8.296301E1,2.9743195E-3,6.548711E0,-1.7963028E-2,-3.235817E-3,-4.6513844E-2,-9.391213E-3,2.414894E-3,3E0,7.06647E1,2.4461841E-2,7.797666E1,5.7919692E-2,3.1137466E-3,2.5783462E-2,1.6855622E-2,6.3826755E-2,6.1763763E-2,1.3687217E-1],"split_indices":[0,1,1,2,7,0,0,0,0,0,0,2,1,5,0,0,4,0,4,0,7,0,0,0,0,0,2,4,0,4,0,0,0,0,0,0,0],"split_type":[0,0,0,0,0,0,0,0,0,0,0,0,0,0,0,0,0,0,0,0,0,0,0,0,0,0,0,0,0,0,0,0,0,0,0,0,0],"sum_hessian":[7.7E1,2.3E1,5.4E1,8E0,1.5E1,2E1,3.4E1,7E0,1E0,8E0,7E0,6E0,1.4E1,3.1E1,3E0,2E0,4E0,6E0,8E0,1E0,3E1,1E0,1E0,3E0,1E0,1E0,5E0,5E0,3E0,2.7E1,3E0,1E0,4E0,1E0,4E0,3E0,2.4E1],"tree_param":{"num_deleted":"0","num_feature":"9","num_nodes":"37","size_leaf_vector":"1"}},{"base_weights":[2.4501752E-2,-4.112813E0,1.82943E0,-3.3275673E-1,-3.2715921E0,1.2559254E-1,2.5883682E0,-3.8839746E0,-9.337609E-2,-6.8208206E-1,5.8627003E-1,2.2516198E0,2.4439116E-1,-2.0077622E-1,-5.763445E-2,-2.7558646E-1,-7.89563E-1,1.4919789E-1,6.5876466E-1,1.6688457E0,2.7093039E0,-1.7514039E-2,-3.1549453E-3,-4.4769477E-2,-9.156418E-3,2.3544312E-3,8.835412E-3,3.810681E-2,3.131733E-1,2.1197917E0,6.57389E-1,3.1168983E0,1.6235275E0,1.8854268E-2,3.035927E-3,4.6094894E-2,1.2083282E-1,-1.4839808E-2,5.4921117E-2,5.3012084E-2,1.7111027E-1,2.4119187E-2,9.9175416E-2],"categories":[],"categories_nodes":[],"categories_segments":[],"categories_sizes":[],"default_left":[0,0,0,0,0,0,0,0,0,0,0,0,0,0,0,0,0,0,0,0,0,0,0,0,0,0,0,0,0,0,0,0,0,0,0,0,0,0,0,0,0,0,0],"id":43,"left_children":[1,3,5,-1,7,9,11,13,-1,15,17,19,-1,-1,-1,21,23,25,27,29,31,-1,-1,-1,-1,-1,-1,-1,33,35,37,39,41,-1,-1,-1,-1,-1,-1,-1,-1,-1,-1],"loss_changes":[5.899935E2,2.955481E1,7.079582E1,0E0,9.943146E0,7.097279E0,1.8419296E1,4.2236328E-2,0E0,8.82411E-2,2.8193855E-1,4.814026E0,0E0,0E0,0E0,2.5512502E-2,1.5691304E-1,1.0623038E-4,1.1856222E-1,6.81649E0,2.9056396E0,0E0,0E0,0E0,0E0,0E0,0E0,0E0,4.164353E-2,2.0394402E0,3.2717996E0,3.9065704E0,1.9187164E0,0E0,0E0,0E0,0E0,0E0,0E0,0E0,0E0,0E0,0E0],"parents":[2147483647,0,0,1,1,2,2,4,4,5,5,6,6,7,7,9,9,10,10,11,11,15,15,16,16,17,17,18,18,19,19,20,20,28,28,29,29,30,30,31,31,32,32],"right_children":[2,4,6,-1,8,10,12,14,-1,16,18,20,-1,-1,-1,22,24,26,28,30,32,-1,-1,-1,-1,-1,-1,-1,34,36,38,40,42,-1,-1,-1,-1,-1,-1,-1,-1,-1,-1],"split_conditions":[6.618914E1,3.4373947E1,8.1834274E1,-3.3275673E-1,3.33387E0,7.208314E1,1.0209448E2,3.790559E1,-9.337609E-2,3E0,7.583093E1,9.117351E1,2.4439116E-1,-2.0077622E-1,-5.763445E-2,6.824385E1,6.618914E1,7.441431E1,8.0543465E1,8.9318596E1,9.9164955E1,-1.7514039E-2,-3.1549453E-3,-4.4769477E-2,-9.156418E-3,2.3544312E-3,8.835412E-3,3.810681E-2,7.8800224E1,6.8322624E1,2.021E3,2.5098217E0,9.409551E1,1.8854268E-2,3.035927E-3,4.6094894E-2,1.2083282E-1,-1.4839808E-2,5.4921117E-2,5.3012084E-2,1.7111027E-1,2.4119187E-2,9.9175416E-2],"split_indices":[0,1,1,0,7,0,0,5,0,2,0,0,0,0,0,0,4,0,6,0,0,0,0,0,0,0,0,0,0,5,8,7,4,0,0,0,0,0,0,0,0,0,0],"split_type":[0,0,0,0,0,0,0,0,0,0,0,0,0,0,0,0,0,0,0,0,0,0,0,0,0,0,0,0,0,0,0,0,0,0,0,0,0,0,0,0,0,0,0],"sum_hessian":[7.7E1,2.3E1,5.4E1,4E0,1.9E1,1.7E1,3.7E1,1.2E1,7E0,6E0,1.1E1,3.4E1,3E0,1.1E1,1E0,2E0,4E0,2E0,9E0,1.7E1,1.7E1,1E0,1E0,3E0,1E0,1E0,1E0,6E0,3E0,1.1E1,6E0,1.1E1,6E0,2E0,1E0,3E0,8E0,2E0,4E0,2E0,9E0,2E0,4E0],"tree_param":{"num_deleted":"0","num_feature":"9","num_nodes":"43","size_leaf_vector":"1"}},{"base_weights":[2.4697328E-2,-4.058699E0,1.7013655E0,-3.194465E-1,-3.2318645E0,5.46104E-2,2.4799702E0,-1.8548273E-1,-9.414229E-2,-7.1463203E-1,5.6288785E-1,2.1548786E0,2.3522644E-1,-2.6869455E-1,-8.1849545E-1,1.4546712E-1,6.3182527E-1,1.5969023E0,2.5931396E0,-1.707611E-2,-3.0759813E-3,-4.5538712E-2,-8.927536E-3,2.295494E-3,8.61454E-3,7.021742E-1,2.3361969E-1,2.0277112E0,6.302436E-1,2.9797294E0,1.559966E0,3.7228342E-2,1.0135651E-2,1.4561462E-2,2.9600144E-3,1.0773208E-1,1.5786935E-2,-1.4345169E-2,5.2724153E-2,5.124512E-2,1.6341023E-1,2.3315303E-2,9.5208436E-2],"categories":[],"categories_nodes":[],"categories_segments":[],"categories_sizes":[],"default_left":[0,0,0,0,0,0,0,0,0,0,0,0,0,0,0,0,0,0,0,0,0,0,0,0,0,0,0,0,0,0,0,0,0,0,0,0,0,0,0,0,0,0,0],"id":44,"left_children":[1,3,5,-1,7,9,11,-1,-1,13,15,17,-1,19,21,23,25,27,29,-1,-1,-1,-1,-1,-1,31,33,35,37,39,41,-1,-1,-1,-1,-1,-1,-1,-1,-1,-1,-1,-1],"loss_changes":[5.4093243E2,2.366629E1,7.166617E1,0E0,5.261688E0,7.831041E0,1.7343338E1,0E0,0E0,1.5060711E-1,2.5340128E-1,4.4178925E0,0E0,2.4253875E-2,1.9170094E-1,1.0162592E-4,1.1609173E-1,6.2180634E0,2.5411682E0,0E0,0E0,0E0,0E0,0E0,0E0,1.8454075E-2,1.290381E-2,1.927311E0,3.0261643E0,3.4174423E0,1.74716E0,0E0,0E0,0E0,0E0,0E0,0E0,0E0,0E0,0E0,0E0,0E0,0E0],"parents":[2147483647,0,0,1,1,2,2,4,4,5,5,6,6,9,9,10,10,11,11,13,13,14,14,15,15,16,16,17,17,18,18,25,25,26,26,27,27,28,28,29,29,30,30],"right_children":[2,4,6,-1,8,10,12,-1,-1,14,16,18,-1,20,22,24,26,28,30,-1,-1,-1,-1,-1,-1,32,34,36,38,40,42,-1,-1,-1,-1,-1,-1,-1,-1,-1,-1,-1,-1],"split_conditions":[6.129373E1,3.4373947E1,8.1834274E1,-3.194465E-1,3.33387E0,7.208314E1,1.0209448E2,-1.8548273E-1,-9.414229E-2,3E0,7.583093E1,9.117351E1,2.3522644E-1,6.824385E1,6.618914E1,7.441431E1,1.0266155E2,8.9318596E1,9.9164955E1,-1.707611E-2,-3.0759813E-3,-4.5538712E-2,-8.927536E-3,2.295494E-3,8.61454E-3,1.1E1,7.772253E1,7.0969553E0,2.021E3,2.5098217E0,9.409551E1,3.7228342E-2,1.0135651E-2,1.4561462E-2,2.9600144E-3,1.0773208E-1,1.5786935E-2,-1.4345169E-2,5.2724153E-2,5.124512E-2,1.6341023E-1,2.3315303E-2,9.5208436E-2],"split_indices":[0,1,1,0,7,0,0,0,0,2,0,0,0,0,4,0,5,0,0,0,0,0,0,0,0,2,0,7,8,7,4,0,0,0,0,0,0,0,0,0,0,0,0],"split_type":[0,0,0,0,0,0,0,0,0,0,0,0,0,0,0,0,0,0,0,0,0,0,0,0,0,0,0,0,0,0,0,0,0,0,0,0,0,0,0,0,0,0,0],"sum_hessian":[7.7E1,2.2E1,5.5E1,4E0,1.8E1,1.8E1,3.7E1,1.2E1,6E0,7E0,1.1E1,3.4E1,3E0,2E0,5E0,2E0,9E0,1.7E1,1.7E1,1E0,1E0,4E0,1E0,1E0,1E0,7E0,2E0,1.1E1,6E0,1.1E1,6E0,6E0,1E0,1E0,1E0,1E1,1E0,2E0,4E0,2E0,9E0,2E0,4E0],"tree_param":{"num_deleted":"0","num_feature":"9","num_nodes":"43","size_leaf_vector":"1"}},{"base_weights":[2.5158614E-2,-3.8818107E0,1.6293575E0,-3.066686E-1,-3.0849886E0,5.1940516E-2,2.375188E0,-3.5384402E0,-9.010759E-2,-6.8822765E-1,5.410576E-1,2.1386223E0,2.78203E-1,-1.8307276E-1,-5.1556494E-2,-2.6197815E-1,-7.866478E-1,1.4183044E-1,6.0672E-1,1.5260493E0,2.583007E0,-1.6649246E-2,-2.999115E-3,-4.3717116E-2,-8.704376E-3,2.238083E-3,8.399201E-3,6.7298317E-1,2.2777812E-1,1.9366169E0,6.042121E-1,4.9536895E-2,2.7048848E0,3.5632707E-2,9.882164E-3,1.419735E-2,2.8860092E-3,4.0326215E-2,1.1118503E-1,-1.3867061E-2,5.0615083E-2,1.629779E-1,9.675953E-2],"categories":[],"categories_nodes":[],"categories_segments":[],"categories_sizes":[],"default_left":[0,0,0,0,0,0,0,0,0,0,0,0,0,0,0,0,0,0,0,0,0,0,0,0,0,0,0,0,0,0,0,0,0,0,0,0,0,0,0,0,0,0,0],"id":45,"left_children":[1,3,5,-1,7,9,11,13,-1,15,17,19,-1,-1,-1,21,23,25,27,29,31,-1,-1,-1,-1,-1,-1,33,35,37,39,-1,41,-1,-1,-1,-1,-1,-1,-1,-1,-1,-1],"loss_changes":[4.951942E2,2.2342773E1,6.575986E1,0E0,4.6755676E0,7.25092E0,1.6766937E1,2.3425293E-1,0E0,1.2952757E-1,2.285192E-1,6.1302795E0,0E0,0E0,0E0,2.305603E-2,1.7009735E-1,9.683892E-5,9.780812E-2,5.6424484E0,1.201416E0,0E0,0E0,0E0,0E0,0E0,0E0,1.0006189E-2,1.2266412E-2,2.0997086E0,2.7990217E0,0E0,1.3768463E0,0E0,0E0,0E0,0E0,0E0,0E0,0E0,0E0,0E0,0E0],"parents":[2147483647,0,0,1,1,2,2,4,4,5,5,6,6,7,7,9,9,10,10,11,11,15,15,16,16,17,17,18,18,19,19,20,20,27,27,28,28,29,29,30,30,32,32],"right_children":[2,4,6,-1,8,10,12,14,-1,16,18,20,-1,-1,-1,22,24,26,28,30,32,-1,-1,-1,-1,-1,-1,34,36,38,40,-1,42,-1,-1,-1,-1,-1,-1,-1,-1,-1,-1],"split_conditions":[6.129373E1,3.4373947E1,8.1834274E1,-3.066686E-1,3.33387E0,7.208314E1,1.04918205E2,3.790559E1,-9.010759E-2,3E0,7.583093E1,9.117351E1,2.78203E-1,-1.8307276E-1,-5.1556494E-2,6.824385E1,6.618914E1,7.441431E1,1.0266155E2,8.9318596E1,2.5098217E0,-1.6649246E-2,-2.999115E-3,-4.3717116E-2,-8.704376E-3,2.238083E-3,8.399201E-3,1.1E1,7.772253E1,6.8322624E1,2.021E3,4.9536895E-2,9.23503E1,3.5632707E-2,9.882164E-3,1.419735E-2,2.8860092E-3,4.0326215E-2,1.1118503E-1,-1.3867061E-2,5.0615083E-2,1.629779E-1,9.675953E-2],"split_indices":[0,1,1,0,7,0,1,5,0,2,0,0,0,0,0,0,4,0,5,0,7,0,0,0,0,0,0,2,0,5,8,0,4,0,0,0,0,0,0,0,0,0,0],"split_type":[0,0,0,0,0,0,0,0,0,0,0,0,0,0,0,0,0,0,0,0,0,0,0,0,0,0,0,0,0,0,0,0,0,0,0,0,0,0,0,0,0,0,0],"sum_hessian":[7.7E1,2.2E1,5.5E1,4E0,1.8E1,1.8E1,3.7E1,1.2E1,6E0,7E0,1.1E1,3.6E1,1E0,1.1E1,1E0,2E0,5E0,2E0,9E0,1.7E1,1.9E1,1E0,1E0,4E0,1E0,1E0,1E0,7E0,2E0,1.1E1,6E0,2E0,1.7E1,6E0,1E0,1E0,1E0,3E0,8E0,2E0,4E0,8E0,9E0],"tree_param":{"num_deleted":"0","num_feature":"9","num_nodes":"43","size_leaf_vector":"1"}},{"base_weights":[2.5766421E-2,-3.3014123E0,1.7528445E0,-4.5301943E0,-1.8368149E0,9.659865E-1,2.8683972E0,-2.5803298E-1,-2.3632255E0,-1.1488103E-1,-4.1973528E-2,1.2383687E-1,1.3431529E0,2.4693215E0,2.7124786E-1,-3.3634376E-2,-1.3088441E-1,-4.03368E-1,3.719597E-1,1.6140124E0,3.5185876E-1,2.98378E-2,2.5364692E0,-2.9241561E-3,-2.4941763E-2,2.1821975E-3,2.0631354E-2,1.1716665E0,1.114851E-1,6.5878755E-1,-2.9569626E-2,1.303508E-1,3.1665802E-2,2.1892358E-2,8.1663676E-2,1.4831925E-2,4.006704E-2],"categories":[],"categories_nodes":[],"categories_segments":[],"categories_sizes":[],"default_left":[0,0,0,0,0,0,0,0,0,0,0,0,0,0,0,0,0,0,0,0,0,0,0,0,0,0,0,0,0,0,0,0,0,0,0,0,0],"id":46,"left_children":[1,3,5,7,9,11,13,-1,15,-1,-1,17,19,21,-1,-1,-1,23,25,27,29,-1,31,-1,-1,-1,-1,33,-1,35,-1,-1,-1,-1,-1,-1,-1],"loss_changes":[4.5399802E2,4.026999E1,4.2873825E1,6.9309387E0,4.5053635E0,9.997841E0,8.0295105E0,0E0,3.9000893E-1,0E0,0E0,1.5889636E0,5.3391304E0,1.0011139E0,0E0,0E0,0E0,1.0252738E-1,8.880532E-2,2.0174446E0,2.1266677E0,0E0,8.998947E-1,0E0,0E0,0E0,0E0,3.3497105E0,0E0,2.0418882E-2,0E0,0E0,0E0,0E0,0E0,0E0,0E0],"parents":[2147483647,0,0,1,1,2,2,3,3,4,4,5,5,6,6,8,8,11,11,12,12,13,13,17,17,18,18,19,19,20,20,22,22,27,27,29,29],"right_children":[2,4,6,8,10,12,14,-1,16,-1,-1,18,20,22,-1,-1,-1,24,26,28,30,-1,32,-1,-1,-1,-1,34,-1,36,-1,-1,-1,-1,-1,-1,-1],"split_conditions":[6.8322624E1,3.2332928E1,9.117351E1,4.0564056E1,5.777197E1,7.866391E1,1.04918205E2,-2.5803298E-1,3.8880886E1,-1.1488103E-1,-4.1973528E-2,7.208314E1,5.788458E0,2.2668912E0,2.7124786E-1,-3.3634376E-2,-1.3088441E-1,3E0,7.441431E1,8.041516E1,8.944845E1,2.98378E-2,1.0266155E2,-2.9241561E-3,-2.4941763E-2,2.1821975E-3,2.0631354E-2,4.019201E0,1.114851E-1,8.296301E1,-2.9569626E-2,1.303508E-1,3.1665802E-2,2.1892358E-2,8.1663676E-2,1.4831925E-2,4.006704E-2],"split_indices":[0,5,0,1,0,1,1,0,0,0,0,0,7,7,0,0,0,2,0,4,0,0,4,0,0,0,0,7,0,0,0,0,0,0,0,0,0],"split_type":[0,0,0,0,0,0,0,0,0,0,0,0,0,0,0,0,0,0,0,0,0,0,0,0,0,0,0,0,0,0,0,0,0,0,0,0,0],"sum_hessian":[7.7E1,2.6E1,5.1E1,1.3E1,1.3E1,3.1E1,2E1,9E0,4E0,8E0,5E0,1E1,2.1E1,1.9E1,1E0,1E0,3E0,3E0,7E0,1.6E1,5E0,1E0,1.8E1,1E0,2E0,1E0,6E0,1.1E1,5E0,4E0,1E0,1.7E1,1E0,5E0,6E0,2E0,2E0],"tree_param":{"num_deleted":"0","num_feature":"9","num_nodes":"37","size_leaf_vector":"1"}},{"base_weights":[2.6004644E-2,-3.5538867E0,1.4958527E0,-2.840806E-1,-2.8069122E0,4.544027E-2,2.1816945E0,-3.2160034E0,-8.230921E-2,-6.3523674E-1,4.9543825E-1,1.9547492E0,2.6446667E-1,-1.6630092E-1,-4.7395613E-2,-2.4046326E-1,-7.267507E-1,6.5340674E-3,5.553215E-1,1.4009285E0,2.3554504E0,-1.518364E-2,-2.8511048E-3,-4.045975E-2,-7.863236E-3,3.2114845E-2,2.6428413E-1,1.7890955E0,5.353666E-1,4.521586E-2,2.4664476E0,1.6086834E-2,2.2981644E-3,3.7245847E-2,1.0271933E-1,-1.4272945E-2,4.603943E-2,1.5817076E-1,9.27173E-2],"categories":[],"categories_nodes":[],"categories_segments":[],"categories_sizes":[],"default_left":[0,0,0,0,0,0,0,0,0,0,0,0,0,0,0,0,0,0,0,0,0,0,0,0,0,0,0,0,0,0,0,0,0,0,0,0,0,0,0],"id":47,"left_children":[1,3,5,-1,7,9,11,13,-1,15,17,19,-1,-1,-1,21,23,-1,25,27,29,-1,-1,-1,-1,-1,31,33,35,-1,37,-1,-1,-1,-1,-1,-1,-1,-1],"loss_changes":[4.1574402E2,2.0607391E1,5.5607048E1,0E0,3.72789E0,6.134483E0,1.6460724E1,9.1033936E-2,0E0,1.1426139E-1,1.8954372E-1,4.911087E0,0E0,0E0,0E0,1.746963E-2,1.5444732E-1,0E0,8.338189E-2,5.089863E0,9.9098206E-1,0E0,0E0,0E0,0E0,0E0,3.5384268E-2,1.7937889E0,2.4773962E0,0E0,1.8130035E0,0E0,0E0,0E0,0E0,0E0,0E0,0E0,0E0],"parents":[2147483647,0,0,1,1,2,2,4,4,5,5,6,6,7,7,9,9,10,10,11,11,15,15,16,16,18,18,19,19,20,20,26,26,27,27,28,28,30,30],"right_children":[2,4,6,-1,8,10,12,14,-1,16,18,20,-1,-1,-1,22,24,-1,26,28,30,-1,-1,-1,-1,-1,32,34,36,-1,38,-1,-1,-1,-1,-1,-1,-1,-1],"split_conditions":[6.129373E1,3.4373947E1,8.1834274E1,-2.840806E-1,3.33387E0,7.208314E1,1.04918205E2,3.790559E1,-8.230921E-2,3E0,7.583093E1,9.117351E1,2.6446667E-1,-1.6630092E-1,-4.7395613E-2,6.824385E1,6.618914E1,6.5340674E-3,8.0543465E1,8.9318596E1,2.5098217E0,-1.518364E-2,-2.8511048E-3,-4.045975E-2,-7.863236E-3,3.2114845E-2,7.8800224E1,6.8322624E1,2.021E3,4.521586E-2,9.0806046E1,1.6086834E-2,2.2981644E-3,3.7245847E-2,1.0271933E-1,-1.4272945E-2,4.603943E-2,1.5817076E-1,9.27173E-2],"split_indices":[0,1,1,0,7,0,1,5,0,2,0,0,0,0,0,0,4,0,6,0,7,0,0,0,0,0,0,5,8,0,4,0,0,0,0,0,0,0,0],"split_type":[0,0,0,0,0,0,0,0,0,0,0,0,0,0,0,0,0,0,0,0,0,0,0,0,0,0,0,0,0,0,0,0,0,0,0,0,0,0,0],"sum_hessian":[7.7E1,2.2E1,5.5E1,4E0,1.8E1,1.8E1,3.7E1,1.2E1,6E0,7E0,1.1E1,3.6E1,1E0,1.1E1,1E0,2E0,5E0,2E0,9E0,1.7E1,1.9E1,1E0,1E0,4E0,1E0,6E0,3E0,1.1E1,6E0,2E0,1.7E1,2E0,1E0,3E0,8E0,2E0,4E0,6E0,1.1E1],"tree_param":{"num_deleted":"0","num_feature":"9","num_nodes":"39","size_leaf_vector":"1"}},{"base_weights":[2.6536012E-2,-3.022858E0,1.6093649E0,-4.1577907E0,-1.6720066E0,8.850987E-1,2.636372E0,-2.599109E-1,-2.727693E0,-1.04444556E-1,-3.8400616E-2,1.1022186E-1,1.2323054E0,2.2524807E0,2.5785503E-1,-1.5575053E-1,-5.2191354E-2,-3.7737274E-1,3.4024143E-1,1.4901819E0,2.96271E-1,4.3708548E-2,2.3570611E0,-2.77977E-3,-2.3305004E-2,1.9643784E-3,3.7762234E-1,1.0748863E0,1.0362047E-1,5.83313E-1,-2.8473472E-2,1.5139192E-1,1.7693526E0,2.1378478E-2,8.425141E-3,1.9440716E-2,7.546964E-2,1.2357331E-2,3.6252085E-2,1.0801981E-1,2.2358323E-2],"categories":[],"categories_nodes":[],"categories_segments":[],"categories_sizes":[],"default_left":[0,0,0,0,0,0,0,0,0,0,0,0,0,0,0,0,0,0,0,0,0,0,0,0,0,0,0,0,0,0,0,0,0,0,0,0,0,0,0,0,0],"id":48,"left_children":[1,3,5,7,9,11,13,-1,15,-1,-1,17,19,21,-1,-1,-1,23,25,27,29,-1,31,-1,-1,-1,33,35,-1,37,-1,-1,39,-1,-1,-1,-1,-1,-1,-1,-1],"loss_changes":[3.8134503E2,3.444255E1,3.6345535E1,6.6516266E0,3.6717606E0,8.47353E0,8.705139E0,0E0,1.9659958E0,0E0,0E0,1.3621172E0,4.8688927E0,8.224106E-1,0E0,0E0,0E0,8.8288724E-2,7.51636E-2,1.8829346E0,1.8232021E0,0E0,1.7386703E0,0E0,0E0,0E0,1.0678768E-3,2.9903603E0,0E0,5.9030414E-2,0E0,0E0,5.2383347E0,0E0,0E0,0E0,0E0,0E0,0E0,0E0,0E0],"parents":[2147483647,0,0,1,1,2,2,3,3,4,4,5,5,6,6,8,8,11,11,12,12,13,13,17,17,18,18,19,19,20,20,22,22,26,26,27,27,29,29,32,32],"right_children":[2,4,6,8,10,12,14,-1,16,-1,-1,18,20,22,-1,-1,-1,24,26,28,30,-1,32,-1,-1,-1,34,36,-1,38,-1,-1,40,-1,-1,-1,-1,-1,-1,-1,-1],"split_conditions":[6.8322624E1,3.2332928E1,9.117351E1,5E0,5.777197E1,7.866391E1,1.04918205E2,-2.599109E-1,3.33387E0,-1.04444556E-1,-3.8400616E-2,7.208314E1,5.788458E0,2.5098217E0,2.5785503E-1,-1.5575053E-1,-5.2191354E-2,3E0,7.441431E1,8.041516E1,8.944845E1,4.3708548E-2,9.0806046E1,-2.77977E-3,-2.3305004E-2,1.9643784E-3,7.822567E1,4.019201E0,1.0362047E-1,8.296301E1,-2.8473472E-2,1.5139192E-1,4.994404E0,2.1378478E-2,8.425141E-3,1.9440716E-2,7.546964E-2,1.2357331E-2,3.6252085E-2,1.0801981E-1,2.2358323E-2],"split_indices":[0,5,0,2,0,1,1,0,7,0,0,0,7,7,0,0,0,2,0,4,0,0,4,0,0,0,0,7,0,0,0,0,7,0,0,0,0,0,0,0,0],"split_type":[0,0,0,0,0,0,0,0,0,0,0,0,0,0,0,0,0,0,0,0,0,0,0,0,0,0,0,0,0,0,0,0,0,0,0,0,0,0,0,0,0],"sum_hessian":[7.7E1,2.6E1,5.1E1,1.3E1,1.3E1,3.1E1,2E1,6E0,7E0,8E0,5E0,1E1,2.1E1,1.9E1,1E0,5E0,2E0,3E0,7E0,1.6E1,5E0,2E0,1.7E1,1E0,2E0,1E0,6E0,1.1E1,5E0,4E0,1E0,6E0,1.1E1,4E0,2E0,5E0,6E0,2E0,2E0,8E0,3E0],"tree_param":{"num_deleted":"0","num_feature":"9","num_nodes":"41","size_leaf_vector":"1"}},{"base_weights":[2.7734952E-2,-2.8943334E0,1.5444293E0,-3.9833195E0,-1.5986091E0,8.478546E-1,2.5323322E0,-2.4877189E-1,-2.617301E0,-9.980249E-2,-3.680067E-2,2.6571807E-1,1.2858653E0,2.1561317E0,2.5140858E-1,-1.4926094E-1,-5.0451595E-2,-3.6502457E-1,4.5382246E-1,1.652949E0,4.7288403E-1,4.2251587E-2,2.2548633E0,-6.52949E-3,-2.6708221E-2,5.927404E-3,5.0902253E-1,1.769163E0,9.364891E-3,-2.9160818E-1,4.185013E-2,1.3786782E-1,1.5771332E0,2.8309012E-2,9.34639E-3,3.4419727E-2,1.0442009E-1,-2.7761651E-2,5.891037E-3,-8.834458E-3,8.958172E-2],"categories":[],"categories_nodes":[],"categories_segments":[],"categories_sizes":[],"default_left":[0,0,0,0,0,0,0,0,0,0,0,0,0,0,0,0,0,0,0,0,0,0,0,0,0,0,0,0,0,0,0,0,0,0,0,0,0,0,0,0,0],"id":49,"left_children":[1,3,5,7,9,11,13,-1,15,-1,-1,17,19,21,-1,-1,-1,23,25,27,29,-1,31,-1,-1,-1,33,35,-1,37,-1,-1,39,-1,-1,-1,-1,-1,-1,-1,-1],"loss_changes":[3.501571E2,3.172992E1,3.363665E1,5.951309E0,3.3305054E0,7.817747E0,8.876251E0,0E0,1.7215004E0,0E0,0E0,1.9453379E0,4.590124E0,6.835098E-1,0E0,0E0,0E0,8.8852644E-2,1.6174245E-1,1.7125893E0,2.192637E0,0E0,1.7812653E0,0E0,0E0,0E0,7.82671E-2,2.3576126E0,0E0,3.892248E-1,0E0,0E0,4.078535E0,0E0,0E0,0E0,0E0,0E0,0E0,0E0,0E0],"parents":[2147483647,0,0,1,1,2,2,3,3,4,4,5,5,6,6,8,8,11,11,12,12,13,13,17,17,18,18,19,19,20,20,22,22,26,26,27,27,29,29,32,32],"right_children":[2,4,6,8,10,12,14,-1,16,-1,-1,18,20,22,-1,-1,-1,24,26,28,30,-1,32,-1,-1,-1,34,36,-1,38,-1,-1,40,-1,-1,-1,-1,-1,-1,-1,-1],"split_conditions":[6.8322624E1,3.2332928E1,9.117351E1,5E0,5.777197E1,8.1834274E1,1.04918205E2,-2.4877189E-1,3.33387E0,-9.980249E-2,-3.680067E-2,7.208314E1,8.9318596E1,2.5098217E0,2.5140858E-1,-1.4926094E-1,-5.0451595E-2,7.128439E1,7.583093E1,7.0969553E0,2.021E3,4.2251587E-2,9.23503E1,-6.52949E-3,-2.6708221E-2,5.927404E-3,1.0266155E2,6.8322624E1,9.364891E-3,9.0699875E1,4.185013E-2,1.3786782E-1,9.409551E1,2.8309012E-2,9.34639E-3,3.4419727E-2,